{"learner":{"attributes":{"scikit_learn":"{\"_estimator_type\": \"regressor\"}"},"feature_names":["hour_sin","hour_cos","dow_sin","dow_cos","week_of_year","is_weekend","is_holiday","day_of_month","req_rate_1m","req_rate_5m","req_rate_15m","req_rate_30m","latency_std_5m","latency_std_15m","req_max_5m","req_max_15m","ewma_03","ewma_07","rate_of_change","autocorr_lag1","cpu_util","memory_pressure","active_connections","cache_hit_ratio","replica_count","queue_depth"],"feature_types":["float","float","float","float","float","float","float","float","float","float","float","float","float","float","float","float","float","float","float","float","float","float","float","float","float","float"],"gradient_booster":{"model":{"cats":{"enc":[],"feature_segments":[],"sorted_idx":[]},"gbtree_model_param":{"num_parallel_tree":"1","num_trees":"200"},"iteration_indptr":[0,1,2,3,4,5,6,7,8,9,10,11,12,13,14,15,16,17,18,19,20,21,22,23,24,25,26,27,28,29,30,31,32,33,34,35,36,37,38,39,40,41,42,43,44,45,46,47,48,49,50,51,52,53,54,55,56,57,58,59,60,61,62,63,64,65,66,67,68,69,70,71,72,73,74,75,76,77,78,79,80,81,82,83,84,85,86,87,88,89,90,91,92,93,94,95,96,97,98,99,100,101,102,103,104,105,106,107,108,109,110,111,112,113,114,115,116,117,118,119,120,121,122,123,124,125,126,127,128,129,130,131,132,133,134,135,136,137,138,139,140,141,142,143,144,145,146,147,148,149,150,151,152,153,154,155,156,157,158,159,160,161,162,163,164,165,166,167,168,169,170,171,172,173,174,175,176,177,178,179,180,181,182,183,184,185,186,187,188,189,190,191,192,193,194,195,196,197,198,199,200],"tree_info":[0,0,0,0,0,0,0,0,0,0,0,0,0,0,0,0,0,0,0,0,0,0,0,0,0,0,0,0,0,0,0,0,0,0,0,0,0,0,0,0,0,0,0,0,0,0,0,0,0,0,0,0,0,0,0,0,0,0,0,0,0,0,0,0,0,0,0,0,0,0,0,0,0,0,0,0,0,0,0,0,0,0,0,0,0,0,0,0,0,0,0,0,0,0,0,0,0,0,0,0,0,0,0,0,0,0,0,0,0,0,0,0,0,0,0,0,0,0,0,0,0,0,0,0,0,0,0,0,0,0,0,0,0,0,0,0,0,0,0,0,0,0,0,0,0,0,0,0,0,0,0,0,0,0,0,0,0,0,0,0,0,0,0,0,0,0,0,0,0,0,0,0,0,0,0,0,0,0,0,0,0,0,0,0,0,0,0,0,0,0,0,0,0,0,0,0,0,0,0,0],"trees":[{"base_weights":[3.9825143E-4,-1.9719002E-1,9.820849E-2,-1.7415594E-1,-2.0576662E-1,9.8530054E-2,-4.8780482E-2,-1.6029094E-1,-2.1453395E-1,-1.38874E-1,-2.0970255E-1,9.999423E-3,7.586821E-2,9.5833335E-3,-2.3888887E-1,-1.4467625E-1,-2.0642397E-1,-3.7241378E-1,-1.8903106E-1,-8.49162E-2,-1.876923E-1,-2.1374594E-1,-1.5535307E-1,7.75492E-2,-2.4999999E-1,-4.5454544E-1,8.75E-3,-1.6424078E-1,-6.582733E-2,-5.59375E-1,-1.8004586E-1,-4.6545452E-1,-2.060606E-1,-3.5072464E-1,-1.6534446E-1,-1.6309524E-1,-1.5624996E-2,-2.3642856E-1,-6.2499996E-2,-2.1490201E-1,3.1250035E-3,-1.339196E-1,-3.547619E-1,3.7209306E-2,8.2727276E-2,-6E-2,7.5000003E-3,8E-3,-7.714286E-2,-2.0637168E-1,-1.2058287E-1,-1.5913978E-1,-1.88172E-2,-6.275862E-1,7.5000003E-3,-1.5359999E-1,-3.3709675E-1,-2.2222219E-2,-5.4042554E-1,-3.3913043E-1,9.09091E-3,-4.931818E-1,-9.615384E-2,-3.472222E-1,-1.5022522E-1,6.0606096E-3,-2.6730767E-1,-6E-2,3.191493E-3,-3.6724135E-1,-1.4216867E-1,-3.148148E-2,-6E-2,-2.1555287E-1,9.230769E-3,6.071429E-2,-3.2E-1,-1.609195E-2,-1.6634615E-1,-1.9999999E-1,-5.9375E-1,-8.205128E-2,8.791209E-2,1.9000003E-2,8.978676E-2,-8E-2,-2.314225E-1,-1.1630036E-1,-6.7499995E-2,-2.5166667E-1,8.823533E-3,2.8409127E-3,-3.6363634E-1,-2.4444443E-1,-7.619047E-1,-2.6185566E-1,-1.1541218E-1,-5.025E-1,-3.4782603E-2,8.75E-3,-4.4999998E-2,-6.869565E-1,-3.8399997E-1,-5.75E-1,-7.4999996E-2,8E-3,-5.525E-1,3.1250004E-2,-2.7272725E-1,-4.3666667E-1,8.571429E-3,-2.465753E-2,-1.7446236E-1,6.333333E-2,-4.2499998E-1,-3.6410254E-1,2.1428574E-2,3.855422E-2,-2.4166666E-1,-4.5306122E-1,9.000001E-3,-1.8604647E-2,-2.6829267E-1,-2.2105262E-1,6.944445E-2,-2.1255185E-1,-2.7824426E-1,-4.4999998E-2,9.62963E-3,-6E-2,6.6666673E-3,-1.8928571E-1,6.5000005E-2,-2.1843317E-1,-4.6874996E-2,-4.0714285E-1,2.1428574E-2,-6.4E-1,5.0000004E-3,-3.5555553E-1,3.6051195E-9,9.885058E-3,-1.2E-1,4.6315793E-2,-4.1666666E-1,9.272944E-2,4.150944E-2,6.4516137E-3,-1.4769231E-2,-1.7695036E-2,-3.1105263E-2,-1.51754385E-2,-5.658536E-3,-4.423077E-2,-1.0285714E-2,-2.4999999E-2,6.206897E-3,-2.875E-2,1.656805E-3,-6.285714E-2,8E-3,-6.7499995E-2,8.333334E-3,-8.5E-2,-1.75E-2,-2E-2,-4.7619045E-2,-5.1E-2,-1.0037037E-2,-5.513513E-2,7.5000003E-3,9.411765E-3,-3.4285713E-2,-2.4999999E-2,-7.9444446E-2,-2E-2,-6.888889E-2,6.6666673E-3,-7.1E-2,-4.25E-2,8.888889E-3,-6.965517E-2,-1.5833333E-2,-4.4999998E-2,9.333334E-3,-6.7499995E-2,-3.7499995E-3,-2.55E-2,-7.272727E-2,-1.5312499E-2,7.3809526E-3,-2.3602484E-2,-1.2688679E-2,9.62963E-3,-1.75E-2,5.0000004E-3,-6E-2,-1.7727273E-2,-5.7222225E-2,9.230769E-3,-4.4999998E-2,-8.235293E-3,6.8656723E-3,-4.8571426E-2,8.333334E-3,8E-3,-5.0222218E-2,-3.1000001E-2,6.764706E-3,9.166667E-3,-4.033333E-2,-4.1E-2,-9.999996E-4,-1.2E-2,9.687501E-3,-2.4681604E-2,-2.0632183E-2,-3.319797E-2,-1.1363636E-2,-7.826086E-3,-5.8333334E-2,-6E-2,9.827587E-3,-1.7329546E-2,-4.0238094E-2,-4.5976974E-4,-4.1E-2,7.5000003E-3,-5.454545E-2,9.230769E-3,-4.4999998E-2,-6.928571E-2,5.0000004E-3,7.5000003E-3,-5.8333334E-2,-2.1E-2,9.545455E-3,7.5000003E-3,-4.4999998E-2,-3.2E-2,6.593407E-3,-6.7499995E-2,6.6666673E-3,3.3866276E-10,9.384802E-3,5.9615388E-3,-4.4999998E-2],"categories":[],"categories_nodes":[],"categories_segments":[],"categories_sizes":[],"default_left":[0,0,0,0,0,0,0,0,0,0,0,0,0,0,0,0,0,0,0,0,0,0,0,0,0,0,0,0,0,0,0,0,0,0,0,0,0,0,0,0,0,0,0,0,0,0,0,0,0,0,0,0,0,0,0,0,0,0,0,0,0,0,0,0,0,0,0,0,0,0,0,0,0,0,0,0,0,0,0,0,0,0,0,0,0,0,0,0,0,0,0,0,0,0,0,0,0,0,0,0,0,0,0,0,0,0,0,0,0,0,0,0,0,0,0,0,0,0,0,0,0,0,0,0,0,0,0,0,0,0,0,0,0,0,0,0,0,0,0,0,0,0,0,0,0,0,0,0,0,0,0,0,0,0,0,0,0,0,0,0,0,0,0,0,0,0,0,0,0,0,0,0,0,0,0,0,0,0,0,0,0,0,0,0,0,0,0,0,0,0,0,0,0,0,0,0,0,0,0,0,0,0,0,0,0,0,0,0,0,0,0,0,0,0,0,0,0,0,0,0,0,0,0,0,0,0,0,0,0,0,0,0,0,0,0,0,0,0,0,0,0,0,0,0,0,0,0],"id":0,"left_children":[1,3,5,7,9,11,13,15,17,19,21,-1,23,-1,25,27,29,31,33,35,37,39,41,43,45,47,-1,49,51,53,55,57,59,61,63,65,67,69,71,73,75,77,79,81,83,-1,-1,-1,-1,85,87,89,91,93,-1,95,97,99,101,103,-1,105,107,109,111,113,115,-1,117,119,121,123,-1,125,-1,127,129,131,133,135,137,139,141,143,145,147,149,151,-1,153,155,157,159,161,163,165,167,169,171,-1,-1,173,175,177,179,-1,181,183,185,187,-1,189,191,193,195,197,199,201,203,205,-1,207,209,211,213,215,217,-1,-1,-1,-1,219,221,223,225,227,229,231,-1,233,235,-1,237,239,241,243,245,-1,-1,-1,-1,-1,-1,-1,-1,-1,-1,-1,-1,-1,-1,-1,-1,-1,-1,-1,-1,-1,-1,-1,-1,-1,-1,-1,-1,-1,-1,-1,-1,-1,-1,-1,-1,-1,-1,-1,-1,-1,-1,-1,-1,-1,-1,-1,-1,-1,-1,-1,-1,-1,-1,-1,-1,-1,-1,-1,-1,-1,-1,-1,-1,-1,-1,-1,-1,-1,-1,-1,-1,-1,-1,-1,-1,-1,-1,-1,-1,-1,-1,-1,-1,-1,-1,-1,-1,-1,-1,-1,-1,-1,-1,-1,-1,-1,-1,-1,-1],"loss_changes":[5.338271E2,1.7709656E0,8.781128E-1,1.3584976E0,1.7240906E0,6.0414124E-1,1.1500778E0,1.307106E0,2.4783077E0,9.6659184E-1,1.3484192E0,0E0,6.345439E-1,0E0,1.3067548E0,2.133459E0,4.247143E0,1.2506418E0,2.0370045E0,9.67116E-1,1.1749964E0,1.4671326E0,1.8287868E0,2.3045254E-1,7.2749996E-1,1.9249868E0,0E0,2.0223083E0,1.2164886E0,1.431757E0,1.7590809E0,1.8156157E0,1.3349141E0,2.454895E0,1.2650175E0,1.4823842E0,1.0575199E0,1.6740465E0,9.1476846E-1,1.183197E0,6.149017E-1,1.5179796E0,1.4346724E0,7.872561E-1,4.4367695E-1,0E0,0E0,0E0,0E0,1.7701168E0,1.2249866E0,1.447545E0,1.3901057E0,1.3061848E0,0E0,1.5200453E0,3.0827537E0,4.6180552E-1,8.135042E-1,1.3897827E0,0E0,1.5402031E0,5.934222E-1,1.4314842E0,1.3469696E0,8.4162116E-1,1.4611082E0,0E0,8.232494E-1,2.316718E0,1.2885128E0,1.0485137E0,0E0,1.0332031E0,0E0,5.521561E-1,5.813333E-1,1.2341855E0,1.9313049E0,1.2471428E0,5.0837517E-1,8.7521374E-1,2.1881819E-1,1.2093561E0,1.2273073E-1,9.388783E-1,1.9879799E0,1.1473699E0,0E0,1.656657E0,4.8407704E-1,7.0622003E-1,1.3431689E0,1.3263888E0,9.370241E-1,1.1907701E0,1.6047645E0,1.1698179E0,9.456192E-1,0E0,0E0,8.8164234E-1,1.2647109E0,1.086833E0,7.2611105E-1,0E0,2.1609287E0,5.2004164E-1,1.0155681E0,1.3983488E0,0E0,9.3473846E-1,1.0595913E0,2.5253704E-1,3.6249995E-1,1.4149957E0,5.093406E-1,3.0774152E-1,9.9226177E-1,1.3242626E0,0E0,1.1017045E0,2.029947E0,7.53579E-1,1.987014E-1,1.1327515E0,2.2797356E0,0E0,0E0,0E0,0E0,1.1793219E0,1.3866724E0,1.7320166E0,1.4719015E0,9.745128E-1,5.093406E-1,5.8171463E-1,0E0,9.2638874E-1,6.414546E-1,0E0,3.5549998E-1,7.0381486E-1,7.9416656E-1,8.702469E-2,4.9848694E-1,0E0,0E0,0E0,0E0,0E0,0E0,0E0,0E0,0E0,0E0,0E0,0E0,0E0,0E0,0E0,0E0,0E0,0E0,0E0,0E0,0E0,0E0,0E0,0E0,0E0,0E0,0E0,0E0,0E0,0E0,0E0,0E0,0E0,0E0,0E0,0E0,0E0,0E0,0E0,0E0,0E0,0E0,0E0,0E0,0E0,0E0,0E0,0E0,0E0,0E0,0E0,0E0,0E0,0E0,0E0,0E0,0E0,0E0,0E0,0E0,0E0,0E0,0E0,0E0,0E0,0E0,0E0,0E0,0E0,0E0,0E0,0E0,0E0,0E0,0E0,0E0,0E0,0E0,0E0,0E0,0E0,0E0,0E0,0E0,0E0,0E0,0E0,0E0,0E0,0E0,0E0,0E0,0E0,0E0,0E0,0E0,0E0,0E0,0E0,0E0],"parents":[2147483647,0,0,1,1,2,2,3,3,4,4,5,5,6,6,7,7,8,8,9,9,10,10,12,12,14,14,15,15,16,16,17,17,18,18,19,19,20,20,21,21,22,22,23,23,24,24,25,25,27,27,28,28,29,29,30,30,31,31,32,32,33,33,34,34,35,35,36,36,37,37,38,38,39,39,40,40,41,41,42,42,43,43,44,44,49,49,50,50,51,51,52,52,53,53,55,55,56,56,57,57,58,58,59,59,61,61,62,62,63,63,64,64,65,65,66,66,68,68,69,69,70,70,71,71,73,73,75,75,76,76,77,77,78,78,79,79,80,80,81,81,82,82,83,83,84,84,85,85,86,86,87,87,89,89,90,90,91,91,92,92,93,93,94,94,95,95,96,96,97,97,98,98,101,101,102,102,103,103,104,104,106,106,107,107,108,108,109,109,111,111,112,112,113,113,114,114,115,115,116,116,117,117,118,118,119,119,121,121,122,122,123,123,124,124,125,125,126,126,131,131,132,132,133,133,134,134,135,135,136,136,137,137,139,139,140,140,142,142,143,143,144,144,145,145,146,146],"right_children":[2,4,6,8,10,12,14,16,18,20,22,-1,24,-1,26,28,30,32,34,36,38,40,42,44,46,48,-1,50,52,54,56,58,60,62,64,66,68,70,72,74,76,78,80,82,84,-1,-1,-1,-1,86,88,90,92,94,-1,96,98,100,102,104,-1,106,108,110,112,114,116,-1,118,120,122,124,-1,126,-1,128,130,132,134,136,138,140,142,144,146,148,150,152,-1,154,156,158,160,162,164,166,168,170,172,-1,-1,174,176,178,180,-1,182,184,186,188,-1,190,192,194,196,198,200,202,204,206,-1,208,210,212,214,216,218,-1,-1,-1,-1,220,222,224,226,228,230,232,-1,234,236,-1,238,240,242,244,246,-1,-1,-1,-1,-1,-1,-1,-1,-1,-1,-1,-1,-1,-1,-1,-1,-1,-1,-1,-1,-1,-1,-1,-1,-1,-1,-1,-1,-1,-1,-1,-1,-1,-1,-1,-1,-1,-1,-1,-1,-1,-1,-1,-1,-1,-1,-1,-1,-1,-1,-1,-1,-1,-1,-1,-1,-1,-1,-1,-1,-1,-1,-1,-1,-1,-1,-1,-1,-1,-1,-1,-1,-1,-1,-1,-1,-1,-1,-1,-1,-1,-1,-1,-1,-1,-1,-1,-1,-1,-1,-1,-1,-1,-1,-1,-1,-1,-1,-1,-1],"split_conditions":[8.5032745E2,1.8631006E2,8.660254E-1,2.0060501E2,2.5311403E1,7.0710677E-1,8.2968225E2,7.6882374E-1,4.5975593E-1,2.0115347E2,1.618806E1,7.7361534E1,8.980315E-1,1.01756165E2,3.7902348E0,2.2909425E2,1.7626143E2,5.7005966E-1,2.012579E2,1.9284875E2,1.3685283E-1,7.9774845E-1,2.1201468E2,9.8040576E2,-4.3388373E-1,1.229953E0,3.1811982E-1,1.3E1,5.1218057E-1,2.0134102E2,2.2943091E2,2.4335949E-1,2.0151346E2,2.01319E2,2.3484614E-1,2.1541525E1,-1.4870489E-1,2.0009512E2,3.3295526E2,9.518062E2,2.0497346E2,2.2459123E2,2.0649846E2,6.234898E-1,4E0,-1.2996353E0,8.5265594E1,1.288725E2,-1.0606354E0,1.8717406E2,5.42101E2,1.7985446E2,4.318471E-2,1.9659338E2,9.637451E-2,-1.4870489E-1,7.818315E-1,1.7985446E2,4.3509752E-1,3.133952E0,2.8044024E-1,1.9444739E2,9.659258E-1,1.8277101E2,1.8488972E2,9.749279E-1,2.0327629E2,-1.6886963E0,9.484111E-2,1E0,2.040511E2,-4.3388373E-1,-1.6892776E0,2.2197324E2,6.862062E-1,1.8489308E2,2.1830542E2,0E0,2.0617944E2,4.775604E-1,9.659258E-1,1.1245276E0,1.5205891E1,1.02391876E3,1.062748E3,-3.896458E-2,9.659258E-1,1.7985446E2,-5.7805485E-1,5.182211E-1,1.1108358E0,2.119953E-1,3E0,1.7743642E0,7.483656E-1,1.7985446E2,2.1525694E2,4E0,6.4535225E1,1.6166535E-1,-8.659439E-1,7.2540265E-1,4.7969377E-1,1.8542531E2,9E0,2.057837E0,2.0037361E2,1.7213779E2,2.2209634E2,1.4E1,5.6553954E-1,1.9585825E2,1.791024E2,9.659258E-1,-2.5881904E-1,7.001116E-1,8.972805E-1,6.9394743E-1,7.818315E-1,4.5721713E-1,5.618286E-1,2.046232E2,1.4184767E0,4.292401E0,4E0,9.2888784E-1,7.729486E-1,-7.470307E-1,2.434732E-1,-1.7687302E0,2.960971E0,9.1906697E-1,2.3597577E-1,2.039175E2,2.2798384E2,-7.818315E-1,2.2591875E2,6.5705536E2,1.2082688E0,7.6728916E-1,1.1186238E3,6.715782E1,1E0,-1.6546842E-1,1.0468485E3,6.0499704E-1,2.4E1,4.7292238E-1,-9.1331404E-1,-1.3069882E0,-1.321637E0,-1.067471E0,-7.741005E-1,-1.6821555E0,-1.4148811E0,-1.7181076E0,3.6640856E-1,-1.6518478E0,1.3360903E-2,-1.7968323E0,7.292374E-1,-1.059198E0,1.2313843E-2,-1.7510172E0,-1.3384644E0,-1.0947226E0,-1.3888253E0,-1.5713272E0,-8.2478637E-1,-1.6338648E0,1.8296677E0,1.0858E0,-6.577652E-1,-1.8087494E0,-1.6897141E0,-1.4774055E0,-1.7478669E0,1.3352814E-1,-1.5070924E0,-1.78201E0,2.0039368E-2,-1.5577596E0,-1.4772226E0,-1.5034698E0,7.8332216E-1,-1.5982956E0,-9.957886E-2,-1.4397217E0,-1.7107166E0,-1.5127704E0,1.5897462E-1,-1.3653133E0,-1.067097E0,1.5669434E-1,-1.2066987E0,2.0622346E0,-6.8894655E-1,-1.3195728E0,-1.506167E0,1.7995499E-1,-1.293341E0,-8.5116434E-1,3.0210802E-1,-1.7398376E0,1.4924911E0,1.10276796E-1,-1.1706375E0,-1.0256637E0,3.457825E-1,1.6944948E-1,-1.3154389E0,-1.7184067E0,-1.0099E0,-3.3342132E-1,1.1882968E0,-1.3093508E0,-1.2302293E0,-1.406857E0,-1.4318848E0,-4.5109588E-1,-1.6245438E0,-8.70697E-1,1.9725312E-1,-1.0582737E0,-1.7657398E0,-4.6251893E-1,-1.8085922E0,1.9056809E0,-1.4490498E0,9.630267E-1,-1.7368988E0,-1.6194845E0,3.4999177E0,8.295872E1,-1.3982757E0,-1.4515733E0,3.599627E0,6.872797E1,-9.2590183E-1,-1.018074E0,6.635064E1,-8.664551E-1,3.406978E0,6.1550436E0,6.683209E1,6.676016E1,-1.6431061E0],"split_indices":[8,8,1,9,22,1,11,23,23,8,13,0,23,0,13,15,17,21,9,8,18,20,9,11,2,13,0,7,23,10,15,21,16,11,20,22,18,10,11,10,11,15,10,3,7,0,0,0,0,16,11,8,18,11,0,18,2,8,23,13,0,10,1,8,17,2,10,0,18,1,10,2,0,17,0,9,8,0,16,20,0,12,13,10,9,18,1,8,0,21,13,13,4,13,21,8,15,4,22,0,0,19,20,17,7,0,10,8,14,7,0,16,8,0,0,23,19,19,2,13,0,8,12,13,7,13,23,0,0,0,0,19,21,16,8,2,8,9,0,19,15,0,3,18,8,19,7,0,0,0,0,0,0,0,0,0,0,0,0,0,0,0,0,0,0,0,0,0,0,0,0,0,0,0,0,0,0,0,0,0,0,0,0,0,0,0,0,0,0,0,0,0,0,0,0,0,0,0,0,0,0,0,0,0,0,0,0,0,0,0,0,0,0,0,0,0,0,0,0,0,0,0,0,0,0,0,0,0,0,0,0,0,0,0,0,0,0,0,0,0,0,0,0,0,0,0,0],"split_type":[0,0,0,0,0,0,0,0,0,0,0,0,0,0,0,0,0,0,0,0,0,0,0,0,0,0,0,0,0,0,0,0,0,0,0,0,0,0,0,0,0,0,0,0,0,0,0,0,0,0,0,0,0,0,0,0,0,0,0,0,0,0,0,0,0,0,0,0,0,0,0,0,0,0,0,0,0,0,0,0,0,0,0,0,0,0,0,0,0,0,0,0,0,0,0,0,0,0,0,0,0,0,0,0,0,0,0,0,0,0,0,0,0,0,0,0,0,0,0,0,0,0,0,0,0,0,0,0,0,0,0,0,0,0,0,0,0,0,0,0,0,0,0,0,0,0,0,0,0,0,0,0,0,0,0,0,0,0,0,0,0,0,0,0,0,0,0,0,0,0,0,0,0,0,0,0,0,0,0,0,0,0,0,0,0,0,0,0,0,0,0,0,0,0,0,0,0,0,0,0,0,0,0,0,0,0,0,0,0,0,0,0,0,0,0,0,0,0,0,0,0,0,0,0,0,0,0,0,0,0,0,0,0,0,0,0,0,0,0,0,0,0,0,0,0,0,0],"sum_hessian":[2.762E4,9.145E3,1.8475E4,2.487E3,6.658E3,1.8435E4,4E1,1.855E3,6.32E2,3.72E2,6.286E3,1.7313E4,1.122E3,2.3E1,1.7E1,1.389E3,4.66E2,8.6E1,5.46E2,1.78E2,1.94E2,5.848E3,4.38E2,1.117E3,5E0,1E1,7E0,1.112E3,2.77E2,3.1E1,4.35E2,5.4E1,3.2E1,6.8E1,4.78E2,8.3E1,9.5E1,1.39E2,5.5E1,5.817E3,3.1E1,3.97E2,4.1E1,1.28E2,9.89E2,2E0,3E0,4E0,6E0,5.64E2,5.48E2,9.2E1,1.85E2,2.8E1,3E0,3.74E2,6.1E1,8E0,4.6E1,2.2E1,1E1,4.3E1,2.5E1,3.5E1,4.43E2,3.2E1,5.1E1,2E0,9.3E1,5.7E1,8.2E1,5.3E1,2E0,5.805E3,1.2E1,2.7E1,4E0,8.6E1,3.11E2,2.6E1,1.5E1,3.8E1,9E1,9.9E1,8.9E2,9.4E1,4.7E2,5.45E2,3E0,5.9E1,3.3E1,1.75E2,1E1,8E0,2E1,9.6E1,2.78E2,3.9E1,2.2E1,7E0,1E0,2.2E1,2.4E1,1.1E1,1.1E1,4E0,3.9E1,1.5E1,1E1,2.9E1,6E0,7.2E1,3.71E2,2.9E1,3E0,3.8E1,1.3E1,8.2E1,1.1E1,4.8E1,9E0,4.2E1,4E1,1.8E1,3.5E1,5.544E3,2.61E2,1E0,2.6E1,2E0,2E0,2.7E1,5.9E1,2.16E2,9.5E1,1.3E1,1.3E1,1.4E1,1E0,8E0,3E1,8.6E1,4E0,9.4E1,5E0,8.38E2,5.2E1,3E1,6.4E1,2.81E2,1.89E2,3.41E2,2.04E2,2.5E1,3.4E1,5E0,2.8E1,7E0,1.68E2,6E0,4E0,3E0,5E0,1.7E1,3E0,7.6E1,2E1,9E0,2.69E2,3.6E1,3E0,1.6E1,6E0,5E0,1.7E1,1.6E1,8E0,2E0,9E0,3E0,8E0,2.8E1,1.1E1,1E0,1.4E1,3E0,7E0,1.9E1,1E1,3.1E1,4.1E1,1.6E2,2.11E2,2.6E1,3E0,1E0,2E0,2.1E1,1.7E1,1.2E1,1E0,1.6E1,6.6E1,6E0,5E0,4E0,4.4E1,9E0,3.3E1,1.1E1,2.9E1,9E0,9E0,4E0,3.1E1,8.47E2,4.697E3,1.96E2,6.5E1,2.2E1,5E0,2E0,5.7E1,1.75E2,4.1E1,8.6E1,9E0,3E0,1E1,1.2E1,1E0,1.3E1,1E0,3E0,5E0,9E0,2.1E1,3E0,1E0,4E0,9E1,3E0,2E0,1E1,8.28E2,5.1E1,1E0],"tree_param":{"num_deleted":"0","num_feature":"26","num_nodes":"247","size_leaf_vector":"1"}},{"base_weights":[3.9823046E-3,-1.7825007E-1,9.513762E-2,-1.3210444E-1,-1.817148E-1,9.999423E-3,2.5537193E-2,-1.02064215E-1,-1.9212963E-1,-3.8787878E-1,-1.8090135E-1,-1.6129032E-1,3.0423732E-2,-5.7438012E-2,-1.5692307E-1,-5.7777774E-1,-1.7451923E-1,-7.875E-2,-2.4999999E-1,-1.5403916E-1,-1.8718722E-1,-6.6249996E-1,1.2500003E-2,3.422645E-2,-1.5416665E-1,-3.0666664E-1,-4.078947E-2,9.444444E-3,-1.8146066E-1,-6.6249996E-1,5.0000004E-3,-1.5920398E-1,-5.3749996E-1,-7.222222E-2,-5.7777774E-1,-2.9218748E-1,-1.4831316E-1,-3.4787232E-1,-1.8495846E-1,5.0000004E-3,-7.714286E-2,-1.9999999E-1,9.444444E-3,3.5788566E-2,-4.2499998E-1,-2.9230767E-1,8.333337E-3,-5.7777774E-1,8.571429E-3,-4.1666666E-1,-3.0493269E-2,-4.4E-1,-1.5670732E-1,-7.714286E-2,5.0000004E-3,-7.356321E-2,-2.2260869E-1,5.0000004E-3,-6.285714E-1,-4.1666666E-1,9.230769E-3,-7.714286E-2,6.6666673E-3,-5.55E-1,-1.6888888E-1,-1.0971428E-1,-1.6752626E-1,-1.6304347E-1,-5.142857E-1,-1.8756926E-1,-8.972973E-2,8E-3,-6E-2,4.065634E-2,-5.6896545E-2,5.0000004E-3,-6E-2,8.571429E-3,-6.285714E-1,9.09091E-3,-4.4999998E-2,-6.6249996E-1,5.0000004E-3,-6.7499995E-2,6.6666673E-3,2.9000003E-2,-7.82258E-2,-7.1E-1,8.333334E-3,-4.0625E-1,-1.2885906E-1,-3.6363634E-1,-3.1168826E-2,-5.230769E-1,-1.8252426E-1,5.0000004E-3,-7.5E-2,5.0000004E-3,-5.2E-1,-2.1E-1,-8.1818186E-2,-4.6875E-1,-3.3333297E-3,-8.584686E-2,-2.168421E-1,-1.7794272E-1,-7.2380945E-2,-2.361111E-1,9.09091E-3,-6.1315787E-1,-1.5833333E-1,-1.866947E-1,-4.8421052E-1,-3.7333333E-1,-6.432748E-2,-1.3157857E-3,5.16092E-2,-1.2962959E-2,-5.2E-1,5.0000004E-3,-7.5E-2,-7.714286E-2,5.0000004E-3,-2.4999999E-2,4.6315794E-3,-4.8571426E-2,-5.3389827E-3,-8E-2,5.0000004E-3,-6.0999997E-2,-5.7142857E-3,-3.0645158E-3,-1.965909E-2,-5.7142857E-3,-7.2E-2,3.8000003E-3,-1.5357143E-2,6.6666673E-3,-6.363636E-2,-1.4555556E-2,-4.0714286E-2,-6.7499995E-2,5.0000004E-3,-6.7499995E-2,8.571429E-3,7.5000003E-3,-6E-2,9.52381E-3,-2.1E-2,-1.111111E-2,2.4691361E-3,-4.611111E-2,-1.576923E-2,-1.6972376E-2,-3.6410253E-2,-2.4999999E-2,-1.3749996E-3,-1.5312499E-2,-7.2E-2,-7.7391304E-2,-3.4375E-2,8.571429E-3,-4.1666668E-2,-2.5016502E-2,-1.8364009E-2,-1.8181818E-2,-8E-2,-5.454545E-2,8E-3,-1.0232558E-2,5.1162797E-3,-6.7592594E-3,5.7851244E-3,7.1912357E-3,2.3848242E-3,-2.7272725E-2,5.227273E-3,-6.7499995E-2,5.0000004E-3],"categories":[],"categories_nodes":[],"categories_segments":[],"categories_sizes":[],"default_left":[0,0,0,0,0,0,0,0,0,0,0,0,0,0,0,0,0,0,0,0,0,0,0,0,0,0,0,0,0,0,0,0,0,0,0,0,0,0,0,0,0,0,0,0,0,0,0,0,0,0,0,0,0,0,0,0,0,0,0,0,0,0,0,0,0,0,0,0,0,0,0,0,0,0,0,0,0,0,0,0,0,0,0,0,0,0,0,0,0,0,0,0,0,0,0,0,0,0,0,0,0,0,0,0,0,0,0,0,0,0,0,0,0,0,0,0,0,0,0,0,0,0,0,0,0,0,0,0,0,0,0,0,0,0,0,0,0,0,0,0,0,0,0,0,0,0,0,0,0,0,0,0,0,0,0,0,0,0,0,0,0,0,0,0,0,0,0,0,0,0,0,0,0,0,0,0,0,0,0],"id":1,"left_children":[1,3,5,7,9,-1,11,13,15,17,19,21,23,25,27,29,31,-1,33,35,37,39,41,43,45,47,49,-1,51,53,-1,55,57,59,61,63,65,67,69,-1,-1,71,-1,73,75,77,79,81,-1,83,85,87,89,-1,-1,91,93,-1,95,97,-1,-1,-1,99,101,103,105,107,109,111,113,-1,-1,115,117,-1,-1,-1,119,-1,-1,121,-1,-1,-1,123,125,127,-1,129,131,133,135,137,139,-1,-1,-1,141,143,-1,145,147,149,151,153,155,157,-1,159,161,163,165,167,169,171,173,175,177,-1,-1,-1,-1,-1,-1,-1,-1,-1,-1,-1,-1,-1,-1,-1,-1,-1,-1,-1,-1,-1,-1,-1,-1,-1,-1,-1,-1,-1,-1,-1,-1,-1,-1,-1,-1,-1,-1,-1,-1,-1,-1,-1,-1,-1,-1,-1,-1,-1,-1,-1,-1,-1,-1,-1,-1,-1,-1,-1,-1],"loss_changes":[4.6178204E2,1.4579468E0,6.2609863E0,1.154254E0,1.3752747E0,0E0,1.1095643E0,1.0583768E0,1.3661127E0,1.6214013E0,1.4210815E0,2.7085483E0,8.3357203E-1,9.916203E-1,1.2198892E0,5.1180553E-1,1.0707293E0,0E0,1.4733335E0,1.2492218E0,2.4261017E0,6.594641E-1,4.3680552E-1,8.452002E-1,5.411859E-1,1.6452063E0,8.696788E-1,0E0,1.070198E0,6.594641E-1,0E0,1.0750599E0,4.594643E-1,1.058547E0,1.1746027E0,1.9801493E0,1.1466789E0,2.8074007E0,1.6889801E0,0E0,0E0,8.319999E-1,0E0,5.229635E-1,3.6249995E-1,1.7063736E0,4.9507573E-1,5.1180553E-1,0E0,7.9416656E-1,6.355361E-1,2.178666E0,1.0873408E0,0E0,0E0,1.058546E0,1.289597E0,0E0,6.142857E-1,3.1533337E-1,0E0,0E0,0E0,1.644136E0,2.2324028E0,1.323739E0,1.0247784E0,8.750272E-1,1.6274128E0,1.6418457E0,1.3087555E0,0E0,0E0,5.043751E-1,1.1733155E0,0E0,0E0,0E0,6.142857E-1,0E0,0E0,6.594641E-1,0E0,0E0,0E0,4.9468946E-1,1.2289941E0,7.2400045E-1,0E0,1.1032324E0,9.851546E-1,1.1603116E0,6.577519E-1,9.109554E-1,7.9603577E-1,0E0,0E0,0E0,4.7549987E-1,1.4329284E0,0E0,1.1868751E0,6.3114285E-1,1.2063818E0,1.29989E0,1.381033E0,1.0900297E0,1.3353682E0,0E0,1.3796988E0,7.9226184E-1,1.2450867E0,1.6689E0,1.2140605E0,7.5565344E-1,8.979898E-1,4.8864746E-1,9.2933494E-1,4.7549987E-1,0E0,0E0,0E0,0E0,0E0,0E0,0E0,0E0,0E0,0E0,0E0,0E0,0E0,0E0,0E0,0E0,0E0,0E0,0E0,0E0,0E0,0E0,0E0,0E0,0E0,0E0,0E0,0E0,0E0,0E0,0E0,0E0,0E0,0E0,0E0,0E0,0E0,0E0,0E0,0E0,0E0,0E0,0E0,0E0,0E0,0E0,0E0,0E0,0E0,0E0,0E0,0E0,0E0,0E0,0E0,0E0,0E0,0E0,0E0,0E0],"parents":[2147483647,0,0,1,1,2,2,3,3,4,4,6,6,7,7,8,8,9,9,10,10,11,11,12,12,13,13,14,14,15,15,16,16,18,18,19,19,20,20,21,21,22,22,23,23,24,24,25,25,26,26,28,28,29,29,31,31,32,32,33,33,34,34,35,35,36,36,37,37,38,38,41,41,43,43,44,44,45,45,46,46,47,47,49,49,50,50,51,51,52,52,55,55,56,56,58,58,59,59,63,63,64,64,65,65,66,66,67,67,68,68,69,69,70,70,73,73,74,74,78,78,81,81,85,85,86,86,87,87,89,89,90,90,91,91,92,92,93,93,94,94,98,98,99,99,101,101,102,102,103,103,104,104,105,105,106,106,107,107,109,109,110,110,111,111,112,112,113,113,114,114,115,115,116,116,117,117,118,118],"right_children":[2,4,6,8,10,-1,12,14,16,18,20,22,24,26,28,30,32,-1,34,36,38,40,42,44,46,48,50,-1,52,54,-1,56,58,60,62,64,66,68,70,-1,-1,72,-1,74,76,78,80,82,-1,84,86,88,90,-1,-1,92,94,-1,96,98,-1,-1,-1,100,102,104,106,108,110,112,114,-1,-1,116,118,-1,-1,-1,120,-1,-1,122,-1,-1,-1,124,126,128,-1,130,132,134,136,138,140,-1,-1,-1,142,144,-1,146,148,150,152,154,156,158,-1,160,162,164,166,168,170,172,174,176,178,-1,-1,-1,-1,-1,-1,-1,-1,-1,-1,-1,-1,-1,-1,-1,-1,-1,-1,-1,-1,-1,-1,-1,-1,-1,-1,-1,-1,-1,-1,-1,-1,-1,-1,-1,-1,-1,-1,-1,-1,-1,-1,-1,-1,-1,-1,-1,-1,-1,-1,-1,-1,-1,-1,-1,-1,-1,-1,-1,-1],"split_conditions":[8.5032745E2,2.5311403E1,7.0710677E-1,5.674293E0,4.0184876E-1,6.9674164E1,1.0835543E3,7.1370786E-1,2.303747E-1,2.1763632E2,1.8749985E2,2E0,1.1115209E3,3.3045143E-1,2.077886E2,5.2E1,8.0680716E-1,-1.0084244E0,2.0804106E2,4.2140526E-1,1.8808739E2,9.2303955E2,-9.048351E-2,2.8331392E1,3.7902348E0,5.5141467E-1,6.0811806E-1,6.05116E-1,7.3359644E-1,8.318283E-1,3.524994E0,-7.376243E-2,-7.818315E-1,1.9770828E2,2.2774028E2,2.0278215E0,5.889111E-1,4.9255025E-1,2.2984416E2,1.2721771E0,-5.601825E0,-1.219397E-1,2.3124735E0,7.717296E-1,-7.818315E-1,1.262527E0,1.5061499E3,7.0710677E-1,1.3205719E-1,1.5E1,1.9859239E2,1.3E1,1.9471082E2,-1.3518051E0,2.3252518E0,-2.0871568E-1,6.174769E0,1.8655777E0,1.707059E2,0E0,2.1638612E-1,-1.4467773E0,1.8600861E0,1.9408174E2,3.0260143E0,2.024252E2,1.1385692E1,1.8777515E2,2.2539355E2,2.2159816E2,6.3212E-1,6.251783E1,-6.413217E0,1.0715792E3,1.9228268E-1,7.105579E1,-5.9797835E0,3.5203554E-2,8.2968225E2,3.1125963E-1,-6.0028994E-1,4E0,2.075116E0,-1.6926498E0,3.7956116E0,4.099673E-1,1.7213779E2,3E0,1.9004639E0,2.2575085E1,1.9762703E2,5.944703E0,7.0408875E-1,1.9579393E2,1E0,4.115558E0,-1.6551545E0,4.283858E0,2.061002E2,1.9471082E2,-1.6016562E0,1.0830185E0,1E0,2.0063153E2,3.33241E-1,2.0447629E2,7.1273214E-1,2E1,5.6300706E-1,6.748724E1,7.561485E-1,1.9278404E2,7.928486E-1,0E0,8.972805E-1,7.959248E-1,1.1248562E3,-1.12773895E-1,9.183226E0,1.4092249E2,-9.5457155E-1,-1.3265289E0,1.7783356E-1,-1.0543442E0,1.481903E-1,-1.4341477E0,-6.8651766E-1,-1.4250641E0,1.1621399E0,-1.4141937E0,-2.7858886E-1,-7.4196655E-1,-1.1910785E0,-4.7139588E-1,-1.2049515E0,1.7851564E-1,-1.157052E0,2.4215333E0,-1.7933924E0,-1.2864472E0,-1.1759008E0,-1.308484E0,8.106934E-1,-8.797501E-1,1.4131012E0,1.9802353E0,-1.7527589E0,2.3977175E-1,-9.146988E-1,-8.340872E-1,1.0291016E-1,-1.3030216E0,-1.3394369E0,-1.0726715E0,-1.5880301E0,-7.8327304E-1,-3.4546658E-1,-8.966342E-1,-1.488916E0,-1.4647304E0,-1.539971E0,5.8840793E-1,-1.2094223E0,-1.2153262E0,-1.0971249E0,-1.5433619E0,-1.666571E0,-1.2467463E0,2.8605653E-2,-1.0810949E0,1.5309587E-1,-4.4342456E0,6.1723377E1,6.1212902E1,5.9984173E1,-4.4168625E0,6.004245E1,-5.4512863E0,9.389433E1],"split_indices":[8,22,1,12,23,0,15,23,20,14,17,4,10,13,14,4,21,0,9,23,17,8,18,12,13,23,19,0,23,19,0,18,2,10,14,12,23,21,14,0,0,18,0,20,2,13,11,0,0,7,9,7,10,0,0,18,12,0,8,2,0,0,0,9,13,11,12,8,14,9,19,0,0,14,18,0,0,0,11,0,0,4,0,0,0,23,8,4,0,22,16,13,23,10,1,0,0,0,8,10,0,13,1,11,20,9,19,7,0,22,19,16,19,0,19,19,14,18,13,0,0,0,0,0,0,0,0,0,0,0,0,0,0,0,0,0,0,0,0,0,0,0,0,0,0,0,0,0,0,0,0,0,0,0,0,0,0,0,0,0,0,0,0,0,0,0,0,0,0,0,0,0,0,0,0,0,0,0,0],"split_type":[0,0,0,0,0,0,0,0,0,0,0,0,0,0,0,0,0,0,0,0,0,0,0,0,0,0,0,0,0,0,0,0,0,0,0,0,0,0,0,0,0,0,0,0,0,0,0,0,0,0,0,0,0,0,0,0,0,0,0,0,0,0,0,0,0,0,0,0,0,0,0,0,0,0,0,0,0,0,0,0,0,0,0,0,0,0,0,0,0,0,0,0,0,0,0,0,0,0,0,0,0,0,0,0,0,0,0,0,0,0,0,0,0,0,0,0,0,0,0,0,0,0,0,0,0,0,0,0,0,0,0,0,0,0,0,0,0,0,0,0,0,0,0,0,0,0,0,0,0,0,0,0,0,0,0,0,0,0,0,0,0,0,0,0,0,0,0,0,0,0,0,0,0,0,0,0,0,0,0],"sum_hessian":[2.7797E4,9.268E3,1.8529E4,6.5E2,8.618E3,1.732E4,1.209E3,4.35E2,2.15E2,3.2E1,8.586E3,3E1,1.179E3,2.41E2,1.94E2,8E0,2.07E2,7E0,2.5E1,1.633E3,6.953E3,7E0,2.3E1,1.156E3,2.3E1,1.4E1,2.27E2,1.7E1,1.77E2,7E0,1E0,2E2,7E0,1.7E1,8E0,6.3E1,1.57E3,9.3E1,6.86E3,1E0,6E0,6E0,1.7E1,1.153E3,3E0,1.2E1,1.1E1,8E0,6E0,5E0,2.22E2,1.4E1,1.63E2,6E0,1E0,8.6E1,1.14E2,1E0,6E0,5E0,1.2E1,6E0,2E0,1.9E1,4.4E1,5.24E2,1.046E3,4.5E1,4.8E1,6.676E3,1.84E2,4E0,2E0,1.096E3,5.7E1,1E0,2E0,6E0,6E0,1E1,1E0,7E0,1E0,3E0,2E0,9.9E1,1.23E2,9E0,5E0,1.5E1,1.48E2,1E1,7.6E1,1.2E1,1.02E2,1E0,5E0,1E0,4E0,9E0,1E1,1.5E1,2.9E1,4.3E2,9.4E1,9.42E2,1.04E2,3.5E1,1E1,3.7E1,1.1E1,6.658E3,1.8E1,1.4E1,1.7E2,2.27E2,8.69E2,5.3E1,4E0,1E0,5E0,6E0,1E0,5E0,9.4E1,6E0,1.17E2,8E0,1E0,9E0,6E0,6.1E1,8.7E1,6E0,4E0,4.9E1,2.7E1,2E0,1E1,8.9E1,1.3E1,3E0,1E0,3E0,6E0,3E0,1.2E1,2E1,9E0,3.5E2,8E1,1.7E1,7.7E1,9.04E2,3.8E1,2.5E1,7.9E1,3.1E1,4E0,2.2E1,1.5E1,6E0,5E0,3.02E2,6.356E3,1E1,8E0,1E1,4E0,1.28E2,4.2E1,1.07E2,1.2E2,5.01E2,3.68E2,1E1,4.3E1,3E0,1E0],"tree_param":{"num_deleted":"0","num_feature":"26","num_nodes":"179","size_leaf_vector":"1"}},{"base_weights":[8.47354E-3,-1.6463998E-1,9.448257E-2,-1.4426515E-1,-1.713851E-1,9.999422E-3,1.5480136E-2,-1.3449477E-1,-2.1263157E-1,-1.4968914E-1,-1.8077722E-1,-1.18333325E-1,2.2454312E-2,-2.4056603E-1,-1.285189E-1,2.2222225E-2,-2.3629342E-1,-1.5863733E-1,-7.587719E-2,-1.7466944E-1,-2.3286852E-1,-6.363636E-1,-1.9999964E-3,2.3930134E-2,-3.2E-1,-4.021739E-1,-1.14754096E-1,-1.0182259E-1,-1.487061E-1,5.769231E-2,-4.4999998E-2,-2.9419354E-1,-1.4857142E-1,-9.1467574E-2,-1.7105597E-1,-1.8507461E-1,-3.024691E-2,-1.7916666E-1,-5.6874994E-2,-2.5890735E-1,-9.634146E-2,-1.75E-1,-7.875E-2,9.74359E-3,-3.25E-1,-1.3229568E-2,3.4645673E-2,-6E-2,6.6666673E-3,-1.4117646E-1,-5.3666663E-1,5.9259262E-2,-2.4571428E-1,-1.1695903E-2,-1.2526798E-1,-1.5980099E-1,-3.8461501E-3,-1.75E-1,9.565218E-3,-3.5701755E-1,-1.1666666E-1,-3.472222E-1,-4.428571E-2,-2.6833332E-1,-4.572649E-2,-1.6690414E-1,-3.862069E-1,4.545458E-3,-2.7173913E-1,-3.5555553E-1,-1.1038957E-2,-1.4887364E-1,-1.8898466E-1,-1.4999996E-2,-3.333333E-1,-2.822281E-1,-5.7777774E-2,-2.361111E-1,1.2765961E-2,-4.4999998E-2,6.6666673E-3,-3.7499994E-2,-7.2E-2,-6.274506E-3,-6E-2,1.2061407E-2,5.8294933E-2,-4.125E-1,9.000001E-3,7.5000003E-3,-6.074074E-1,-2.6666665E-1,9.6E-3,-4.9166664E-1,-1.125E-1,1.0759497E-2,-2.642857E-1,-1.4238754E-1,6.5789507E-3,-1.9125187E-1,-9.8542266E-2,5.079365E-2,-2.1874999E-1,6.6666673E-3,-4.4999998E-2,-4.455696E-1,-1.5277778E-1,-2.681818E-1,4.761905E-2,-6.0999995E-1,-2.3703703E-1,6.857143E-2,-1.5277778E-1,-7.5E-2,-2.1090908E-1,-1.2625E-1,-3.870964E-3,-1.8048972E-1,-1.0465949E-1,-1.0666666E-1,-6.4E-1,9.5E-3,-6E-2,-4.3666667E-1,3.529412E-2,-8.333333E-2,-6.7499995E-2,-6E-2,6.5789843E-4,-1.7335127E-1,-8.315412E-2,-1.8334502E-1,-2.4555159E-1,-5.2E-1,3.676474E-3,-9.0909086E-2,-5.454545E-1,9.166667E-3,-2.9371583E-1,-2.4999962E-3,-4.1666666E-1,-5.1E-1,-1.2592591E-1,7.2500005E-2,-2.875E-1,8.571429E-3,-4.4999998E-2,1.809955E-2,-1.6E-1,9.846154E-3,-2.2959146E-3,6.273148E-2,-6E-2,6.6666673E-3,-5.8333334E-2,6.6666673E-3,-6.64E-2,-4.4999998E-2,5.0000004E-3,7.5000003E-3,-6.888889E-2,3.5478956E-10,-6.7499995E-2,3.221477E-3,-3.1000001E-2,-7.2E-2,-9.999996E-4,-1.0913838E-2,-2.0663265E-2,7.884616E-3,-1.44E-2,-2.6509805E-2,-1.4474327E-2,-2.168421E-2,-5.3012045E-3,8.103448E-3,-2.4999999E-2,-5.8333334E-2,3.3866276E-10,-2.222222E-3,-4.9295776E-2,-2.8571427E-2,3.1250005E-3,-5.454545E-2,8.3333364E-4,9.5E-3,-4.4999998E-2,-1.75E-2,-7.714286E-2,-6.7499995E-2,-1.5416666E-2,9.696971E-3,-2.6666665E-2,-3.5E-2,4.2105266E-3,8.888889E-3,-2.6382977E-2,-6.7499995E-2,-9.610389E-3,-1.8399999E-2,3.0534356E-3,-2.7875647E-2,-1.6266294E-2,-3.275E-2,-6.708333E-3,9.09091E-3,-5.1999997E-2,6.6666673E-3,-7.538461E-2,8.3333364E-4,-6.9473684E-2,9.375E-3,-4.4999998E-2,8E-3,-4.4999998E-2,-2.2105262E-2,3.2089555E-3,-1.9092306E-2,-5E-3,9.74359E-3,-1.1203319E-2,-1.9429885E-2,-1.479351E-2,-4.109091E-2,-2.0440528E-2,5.0000004E-3,-6.7499995E-2,-1.0508474E-2,8.589744E-3,-4.25E-2,8.75E-3,-6.888889E-2,6.6666673E-3,-6.2142856E-2,-2.7988667E-2,9.687501E-3,-3.5555553E-2,-6.7499995E-2,6.6666673E-3,-7.714286E-2,7.5000003E-3,-3.0666664E-2,9.230769E-3,-8.333333E-3,9.714286E-3,-6.7499995E-2,8E-3,6.4335666E-3,-6.5822783E-3,9.2857145E-3,-3.1363636E-2,4.7701155E-3,-4.2009125E-3,7.804878E-3,-2.6562496E-3],"categories":[],"categories_nodes":[],"categories_segments":[],"categories_sizes":[],"default_left":[0,0,0,0,0,0,0,0,0,0,0,0,0,0,0,0,0,0,0,0,0,0,0,0,0,0,0,0,0,0,0,0,0,0,0,0,0,0,0,0,0,0,0,0,0,0,0,0,0,0,0,0,0,0,0,0,0,0,0,0,0,0,0,0,0,0,0,0,0,0,0,0,0,0,0,0,0,0,0,0,0,0,0,0,0,0,0,0,0,0,0,0,0,0,0,0,0,0,0,0,0,0,0,0,0,0,0,0,0,0,0,0,0,0,0,0,0,0,0,0,0,0,0,0,0,0,0,0,0,0,0,0,0,0,0,0,0,0,0,0,0,0,0,0,0,0,0,0,0,0,0,0,0,0,0,0,0,0,0,0,0,0,0,0,0,0,0,0,0,0,0,0,0,0,0,0,0,0,0,0,0,0,0,0,0,0,0,0,0,0,0,0,0,0,0,0,0,0,0,0,0,0,0,0,0,0,0,0,0,0,0,0,0,0,0,0,0,0,0,0,0,0,0,0,0,0,0,0,0,0,0,0,0,0,0,0,0,0,0,0,0,0,0,0,0,0,0,0,0,0,0,0,0,0,0],"id":2,"left_children":[1,3,5,7,9,-1,11,13,15,17,19,21,23,25,27,29,31,33,35,37,39,41,43,45,47,49,51,53,55,57,-1,59,61,63,65,67,69,71,73,75,77,79,-1,-1,81,83,85,-1,-1,87,89,91,93,95,97,99,101,103,-1,105,107,109,111,113,115,117,119,121,123,125,127,129,131,133,135,137,139,141,143,-1,-1,145,-1,147,-1,149,151,153,-1,-1,155,157,-1,159,161,163,165,167,169,171,173,175,177,-1,-1,179,181,183,185,187,189,191,193,-1,195,197,199,201,203,205,207,-1,-1,209,211,213,-1,-1,215,217,219,221,223,225,227,229,231,-1,233,235,237,239,241,243,245,-1,-1,247,249,-1,251,253,-1,-1,-1,-1,-1,-1,-1,-1,-1,-1,-1,-1,-1,-1,-1,-1,-1,-1,-1,-1,-1,-1,-1,-1,-1,-1,-1,-1,-1,-1,-1,-1,-1,-1,-1,-1,-1,-1,-1,-1,-1,-1,-1,-1,-1,-1,-1,-1,-1,-1,-1,-1,-1,-1,-1,-1,-1,-1,-1,-1,-1,-1,-1,-1,-1,-1,-1,-1,-1,-1,-1,-1,-1,-1,-1,-1,-1,-1,-1,-1,-1,-1,-1,-1,-1,-1,-1,-1,-1,-1,-1,-1,-1,-1,-1,-1,-1,-1,-1,-1,-1,-1,-1],"loss_changes":[4.1242014E2,1.2388153E0,8.056137E0,1.5030441E0,1.379364E0,0E0,1.1300094E0,1.2425194E0,1.5890179E0,1.3690338E0,1.4903259E0,3.6145782E0,5.883644E-1,2.1090617E0,1.0109692E0,4.7820508E-1,1.2717819E0,1.5392227E0,1.1304598E0,2.2735596E0,1.7596664E0,6.2920475E-1,1.6375563E0,4.5638156E-1,5.813333E-1,1.53894E0,1.4046788E0,1.7375793E0,1.7383842E0,2.4639633E-1,0E0,1.6870546E0,2.159849E0,2.3581092E0,1.3397598E0,1.1022682E0,1.0083342E0,1.2067413E0,1.847271E0,1.9583912E0,1.2535064E0,2.958333E-1,0E0,0E0,1.3357499E0,1.0450586E0,4.7411275E-1,0E0,0E0,1.1034265E0,1.343648E0,3.489185E-1,1.0914404E0,9.7275645E-1,1.474863E0,1.9174271E0,9.270108E-1,2.958333E-1,0E0,1.9937153E0,1.0582252E0,8.977599E-1,8.675635E-1,1.501378E0,7.881739E-1,1.286766E0,1.9891491E0,1.2600454E0,2.3447702E0,7.263887E-1,1.0612996E0,1.628027E0,9.541397E-1,1.3223382E0,1.0303028E0,1.6462173E0,8.916944E-1,1.0222037E0,8.638404E-1,0E0,0E0,4.4517857E-1,0E0,9.583589E-1,0E0,5.6588244E-1,1.3051612E0,6.937499E-1,0E0,0E0,1.0742521E0,1.9666664E-1,0E0,1.3927779E0,1.51875E0,1.0973397E0,1.6151426E0,1.2121105E0,8.3837974E-1,2.2386894E0,1.8359778E0,5.933223E-1,1.2760415E0,0E0,0E0,1.5739136E0,8.8963276E-1,1.6912876E0,5.3788096E-1,5.672138E-1,8.758795E-1,3.5906497E-1,1.3984065E0,0E0,8.960552E-1,1.2585437E0,9.662148E-1,2.172409E0,2.3142343E0,1.2722424E0,1.2570257E0,0E0,0E0,3.4510264E0,5.244485E-1,3.9533332E-1,0E0,0E0,1.0663403E0,1.6009083E0,1.465977E0,1.0774765E0,1.8278904E0,4.7549987E-1,1.2251999E0,6.928409E-1,1.0117173E0,0E0,1.4847794E0,1.4378403E0,7.9416656E-1,1.587214E0,1.0932877E0,1.6170236E-1,1.19325E0,0E0,0E0,8.6176836E-1,1.3888052E0,0E0,7.803372E-1,5.929382E-1,0E0,0E0,0E0,0E0,0E0,0E0,0E0,0E0,0E0,0E0,0E0,0E0,0E0,0E0,0E0,0E0,0E0,0E0,0E0,0E0,0E0,0E0,0E0,0E0,0E0,0E0,0E0,0E0,0E0,0E0,0E0,0E0,0E0,0E0,0E0,0E0,0E0,0E0,0E0,0E0,0E0,0E0,0E0,0E0,0E0,0E0,0E0,0E0,0E0,0E0,0E0,0E0,0E0,0E0,0E0,0E0,0E0,0E0,0E0,0E0,0E0,0E0,0E0,0E0,0E0,0E0,0E0,0E0,0E0,0E0,0E0,0E0,0E0,0E0,0E0,0E0,0E0,0E0,0E0,0E0,0E0,0E0,0E0,0E0,0E0,0E0,0E0,0E0,0E0,0E0,0E0,0E0,0E0,0E0,0E0,0E0,0E0,0E0,0E0,0E0,0E0,0E0,0E0],"parents":[2147483647,0,0,1,1,2,2,3,3,4,4,6,6,7,7,8,8,9,9,10,10,11,11,12,12,13,13,14,14,15,15,16,16,17,17,18,18,19,19,20,20,21,21,22,22,23,23,24,24,25,25,26,26,27,27,28,28,29,29,31,31,32,32,33,33,34,34,35,35,36,36,37,37,38,38,39,39,40,40,41,41,44,44,45,45,46,46,49,49,50,50,51,51,52,52,53,53,54,54,55,55,56,56,57,57,59,59,60,60,61,61,62,62,63,63,64,64,65,65,66,66,67,67,68,68,69,69,70,70,71,71,72,72,73,73,74,74,75,75,76,76,77,77,78,78,81,81,83,83,85,85,86,86,87,87,90,90,91,91,93,93,94,94,95,95,96,96,97,97,98,98,99,99,100,100,101,101,102,102,105,105,106,106,107,107,108,108,109,109,110,110,111,111,112,112,114,114,115,115,116,116,117,117,118,118,119,119,120,120,123,123,124,124,125,125,128,128,129,129,130,130,131,131,132,132,133,133,134,134,135,135,136,136,138,138,139,139,140,140,141,141,142,142,143,143,144,144,147,147,148,148,150,150,151,151],"right_children":[2,4,6,8,10,-1,12,14,16,18,20,22,24,26,28,30,32,34,36,38,40,42,44,46,48,50,52,54,56,58,-1,60,62,64,66,68,70,72,74,76,78,80,-1,-1,82,84,86,-1,-1,88,90,92,94,96,98,100,102,104,-1,106,108,110,112,114,116,118,120,122,124,126,128,130,132,134,136,138,140,142,144,-1,-1,146,-1,148,-1,150,152,154,-1,-1,156,158,-1,160,162,164,166,168,170,172,174,176,178,-1,-1,180,182,184,186,188,190,192,194,-1,196,198,200,202,204,206,208,-1,-1,210,212,214,-1,-1,216,218,220,222,224,226,228,230,232,-1,234,236,238,240,242,244,246,-1,-1,248,250,-1,252,254,-1,-1,-1,-1,-1,-1,-1,-1,-1,-1,-1,-1,-1,-1,-1,-1,-1,-1,-1,-1,-1,-1,-1,-1,-1,-1,-1,-1,-1,-1,-1,-1,-1,-1,-1,-1,-1,-1,-1,-1,-1,-1,-1,-1,-1,-1,-1,-1,-1,-1,-1,-1,-1,-1,-1,-1,-1,-1,-1,-1,-1,-1,-1,-1,-1,-1,-1,-1,-1,-1,-1,-1,-1,-1,-1,-1,-1,-1,-1,-1,-1,-1,-1,-1,-1,-1,-1,-1,-1,-1,-1,-1,-1,-1,-1,-1,-1,-1,-1,-1,-1,-1,-1],"split_conditions":[8.5032745E2,-8.427427E-2,7.0710677E-1,1E0,1.8471838E0,6.2775387E1,1.0905557E3,2.689858E-1,6.2310445E-1,9.577874E-1,2.0649846E2,2E0,1.33138E3,2.0063728E2,2.2209634E2,1.3075097E1,7.0789224E-1,6.5427715E-1,5.38365E-1,2.2984558E2,9.2627365E1,9.2303955E2,1.8E1,3.4688106E-1,7.3359644E-1,1.9787547E2,2.0151346E2,3.1547183E-1,-9.3424425E-2,2.2132764E2,-4.5592347E-1,7.216953E0,2.1943784E0,2.99061E-1,9.5191664E-1,9.7200155E-1,1.7624051E2,-1.8330565E-2,2.0447847E2,1.4961148E1,4.075189E-1,-2.2252093E-1,-1.008863E1,5.752295E1,9.837975E2,2.8331392E1,1.0021302E3,-5.402603E-1,3.168335E-2,1.9015146E2,1.7213779E2,2.2376495E2,2.2648042E2,9.796876E-1,1.1199468E1,2.280979E2,7.020629E-1,-4.3388373E-1,6.831655E-1,2.2866869E2,1.9739551E2,6.970141E-1,5.826906E0,1.9659338E2,4.986582E-1,1E0,4.775604E-1,2.0553004E2,2.029429E2,1.2246469E-16,2.1634449E-1,1.8E1,9.6253747E-1,1.742139E2,4.7426896E0,1.8186871E2,7.6461977E-1,2.0268515E2,9.534091E0,-6.049852E0,1.14496E0,8.824928E-1,-1.3309542E1,3.318735E-1,-5.3818054E0,-7.818315E-1,2.4E1,1.8721346E2,4.5783845E-1,7.979828E-1,6.43179E-1,9.749279E-1,1.0046815E0,1.8486623E2,8.6788374E-1,2.0780737E2,2.1371255E2,6.6351085E0,1.8E1,1.99707E2,1.7766281E2,4.7383325E2,2.0419226E2,2.4339142E-1,-1.0822052E0,1.9298875E2,2.0053886E2,4.6141458E-1,2.2855113E2,3.3227587E0,1.8633804E2,4E0,-1.4314106E-1,-8.293213E-1,3.845325E1,2.1935603E2,6.0811806E-1,-4.307154E-2,4.581526E-1,2.1E1,2.0682823E2,8.2369846E-1,-5.870606E-1,1.8926732E2,1.3109711E1,7.818315E-1,-9.390015E-1,-6.470505E-1,8.1766856E-1,9.503574E-1,4.6930492E-1,8.775523E-1,1.9311769E2,-2.5881904E-1,5.1679873E0,2.2141902E2,8.3278984E1,5.864612E-1,2.0278215E0,1E0,1E0,2.2241205E2,2.2918484E2,2.1447315E0,-4.3388373E-1,6.287079E-2,-5.885498E-1,7.218621E-1,-4.458082E-2,5.7612446E1,1.1267129E3,7.436017E-1,-1.1287854E1,1.0073318E0,-1.4221191E0,4.7206115E-2,-1.3978318E0,-7.4050754E-1,2.3773347E-1,4.8006287E-1,-1.2420319E0,-1.0651785E0,-1.3081406E0,1.7612946E-1,-1.4633468E0,-1.4691849E0,-3.0051726E-1,-8.2661074E-1,-1.3041278E0,2.8900605E-1,-1.4620278E0,-1.1374482E0,-9.580719E-1,-1.2250824E0,-7.768193E-1,9.855286E-2,-3.1775817E-1,-1.0236496E0,-9.486542E-1,-5.793671E-1,-1.1500386E0,-1.321355E0,-2.9440212E-1,-1.5267695E0,-7.963571E-1,3.625168E-1,-6.035568E-1,-1.4299942E0,-1.4736512E0,-5.091004E-1,-9.720416E-1,2.6773667E-1,-1.597702E-1,-1.0242028E0,2.9464358E-1,1.3702393E-3,-1.0865747E0,-1.1586243E0,-5.5625993E-1,-1.5045487E0,9.942474E-2,-1.1146301E0,-1.0431741E0,-1.4073089E0,-8.4600985E-1,1.4925416E-1,-5.837845E-1,2.3804214E0,-1.4850113E0,-6.44552E-1,-1.1158893E0,3.5933596E-1,-1.5176133E0,9.412018E-1,-7.239868E-1,-1.5320379E0,7.3312685E-2,-1.1001939E0,-9.501959E-1,9.3805593E-1,-7.3581636E-1,-1.0230843E0,-1.0146345E0,-1.3582467E0,-9.48051E-1,2.936339E0,-4.847214E-1,-8.079466E-1,1.8037263E-1,-1.3211014E0,6.268921E-2,-1.1749436E0,6.4630127E-1,-1.4888324E0,-1.141753E0,5.2876586E-1,-1.5020065E0,-5.351044E-1,5.235977E-1,-9.269379E-1,8.7367404E-1,-1.4447021E0,1.0831822E0,-1.1963272E0,4.513916E-1,-1.4326218E0,4.997406E-1,5.531731E1,-1.1141701E1,5.6426876E1,-1.2392504E1,5.4937893E1,-4.310173E0,5.5462475E1,-4.471023E0],"split_indices":[8,18,1,1,12,0,15,12,19,19,10,4,11,10,14,12,23,19,23,15,22,8,7,21,23,11,16,21,18,15,0,12,13,21,19,19,8,18,10,12,21,3,0,0,11,12,10,0,0,17,8,15,15,19,12,14,21,2,0,15,16,19,13,11,12,3,20,10,16,0,20,7,19,8,13,17,20,9,13,0,0,19,0,21,0,2,7,9,0,0,19,2,0,8,23,10,14,13,7,11,8,11,9,0,0,10,11,20,14,12,9,4,18,0,22,15,19,18,23,7,14,0,0,8,13,2,0,0,13,19,23,19,16,0,12,14,22,0,12,3,3,8,15,12,2,0,0,23,18,0,15,20,0,0,0,0,0,0,0,0,0,0,0,0,0,0,0,0,0,0,0,0,0,0,0,0,0,0,0,0,0,0,0,0,0,0,0,0,0,0,0,0,0,0,0,0,0,0,0,0,0,0,0,0,0,0,0,0,0,0,0,0,0,0,0,0,0,0,0,0,0,0,0,0,0,0,0,0,0,0,0,0,0,0,0,0,0,0,0,0,0,0,0,0,0,0,0,0,0,0,0,0,0,0,0],"split_type":[0,0,0,0,0,0,0,0,0,0,0,0,0,0,0,0,0,0,0,0,0,0,0,0,0,0,0,0,0,0,0,0,0,0,0,0,0,0,0,0,0,0,0,0,0,0,0,0,0,0,0,0,0,0,0,0,0,0,0,0,0,0,0,0,0,0,0,0,0,0,0,0,0,0,0,0,0,0,0,0,0,0,0,0,0,0,0,0,0,0,0,0,0,0,0,0,0,0,0,0,0,0,0,0,0,0,0,0,0,0,0,0,0,0,0,0,0,0,0,0,0,0,0,0,0,0,0,0,0,0,0,0,0,0,0,0,0,0,0,0,0,0,0,0,0,0,0,0,0,0,0,0,0,0,0,0,0,0,0,0,0,0,0,0,0,0,0,0,0,0,0,0,0,0,0,0,0,0,0,0,0,0,0,0,0,0,0,0,0,0,0,0,0,0,0,0,0,0,0,0,0,0,0,0,0,0,0,0,0,0,0,0,0,0,0,0,0,0,0,0,0,0,0,0,0,0,0,0,0,0,0,0,0,0,0,0,0,0,0,0,0,0,0,0,0,0,0,0,0,0,0,0,0,0,0],"sum_hessian":[2.7697E4,9.193E3,1.8504E4,2.292E3,6.901E3,1.7297E4,1.207E3,2.008E3,2.84E2,2.09E3,4.811E3,5.9E1,1.148E3,1.05E2,1.903E3,2.6E1,2.58E2,1.863E3,2.27E2,4.31E3,5.01E2,1E1,4.9E1,1.144E3,4E0,4.5E1,6E1,8.22E2,1.081E3,2.5E1,1E0,1.54E2,1.04E2,2.92E2,1.571E3,6.6E1,1.61E2,4.151E3,1.59E2,4.2E2,8.1E1,3E0,7E0,3.8E1,1.1E1,2.56E2,8.88E2,2E0,2E0,1.6E1,2.9E1,2.6E1,3.4E1,1.7E2,6.52E2,1.004E3,7.7E1,3E0,2.2E1,1.13E2,4.1E1,3.5E1,6.9E1,5.9E1,2.33E2,1.543E3,2.8E1,2.1E1,4.5E1,8E0,1.53E2,1.02E3,3.131E3,1.39E2,2E1,3.76E2,4.4E1,3.5E1,4.6E1,1E0,2E0,7E0,4E0,2.54E2,2E0,4.55E2,4.33E2,7E0,9E0,3E0,2.6E1,2E0,2.4E1,1.1E1,2.3E1,1.57E2,1.3E1,5.77E2,7.5E1,6.62E2,3.42E2,6.2E1,1.5E1,2E0,1E0,7.8E1,3.5E1,2.1E1,2E1,9E0,2.6E1,3.4E1,3.5E1,5E0,5.4E1,7.9E1,1.54E2,1.265E3,2.78E2,1.4E1,1.4E1,1.9E1,2E0,2.9E1,1.6E1,5E0,3E0,2E0,1.51E2,7.42E2,2.78E2,2.851E3,2.8E2,4E0,1.35E2,1E1,1E1,1.1E1,3.65E2,3.9E1,5E0,9E0,2.6E1,3.9E1,7E0,6E0,1E0,2.2E2,3.4E1,6.4E1,3.91E2,4.31E2,2E0,2E0,5E0,2E0,2.4E1,1E0,1E0,3E0,8E0,2E1,3E0,1.48E2,9E0,4E0,9E0,3.82E2,1.95E2,5.1E1,2.4E1,2.54E2,4.08E2,9.4E1,2.48E2,5.7E1,5E0,5E0,1E1,8E0,7E1,2E1,1.5E1,1E1,1.1E1,1.9E1,1E0,3E0,6E0,3E0,2.3E1,3.2E1,2E0,1.7E1,1.8E1,8E0,4.6E1,3E0,7.6E1,2.4E1,1.3E2,1.92E2,1.073E3,3.9E1,2.39E2,1E1,4E0,2E0,1.2E1,1.1E1,1.8E1,1.5E1,1E0,4E0,1E0,1.8E1,1.33E2,6.49E2,9.3E1,3.8E1,2.4E2,2.174E3,6.77E2,5.4E1,2.26E2,1E0,3E0,5.8E1,7.7E1,3E0,7E0,8E0,2E0,1.3E1,3.52E2,3.1E1,8E0,3E0,2E0,6E0,3E0,1.4E1,1.2E1,5E0,3.4E1,3E0,4E0,1.42E2,7.8E1,1.3E1,2.1E1,1.73E2,2.18E2,3.68E2,6.3E1],"tree_param":{"num_deleted":"0","num_feature":"26","num_nodes":"255","size_leaf_vector":"1"}},{"base_weights":[1.5604995E-2,-1.436928E-1,9.4795845E-2,-8.231173E-2,-1.477468E-1,9.999421E-3,2.004992E-2,-3.9696965E-2,-1.4008264E-1,-1.9190556E-1,-1.4446245E-1,-1.1756756E-1,2.9052261E-2,-1.5467621E-2,-1.6603772E-1,-4.5E-1,-1.0859728E-1,-2.5551018E-1,-1.4670487E-1,-1.2869851E-1,-1.540329E-1,-5.9999996E-1,-1.4516125E-2,3.0516017E-2,-2.4999999E-1,2.032524E-3,-1.4545454E-1,-1.21999994E-1,-6.7499995E-2,-5.5294114E-1,-8.333333E-2,9.7368425E-3,-1.5054347E-1,-2.279476E-1,-6.1176467E-1,-1.5933734E-1,9.444444E-3,-2.557971E-1,-1.22601785E-1,-1.5074968E-1,-2.3934425E-1,-7.272727E-1,6.6666673E-3,5.714286E-2,-2.642857E-1,3.1992853E-2,-2.4999999E-1,-6E-2,7.5000003E-3,-1.0555555E-1,3.2124355E-2,-3.6923075E-1,3.5478955E-9,-4.125E-1,-6.511627E-2,6.6666673E-3,-6.4E-1,8E-3,-4.4999998E-2,-4.9166664E-1,-1.2601155E-1,-4.4848484E-1,-1.8984771E-1,-7.0666665E-1,6.6666673E-3,-9.219857E-2,-2.0781249E-1,-5.7222223E-1,-2.0661156E-1,-1.14044055E-1,-1.8319327E-1,-1.4907524E-1,-3.2444444E-1,-6.8888885E-1,-2.1485713E-1,-8.1E-2,5.0000004E-3,9.7872345E-3,-6E-2,-9.0909086E-2,-6.7499995E-2,-1.15789466E-1,3.451408E-2,-6E-2,7.5000003E-3,-2.3636363E-1,9.545455E-3,-2.4999999E-1,4.095745E-2,-6.285714E-1,-5.7142854E-2,-4.2499998E-1,9.444444E-3,7.5000003E-3,-7.2E-2,-2.439024E-2,-6E-2,-2.4999999E-1,-8.1E-2,7.5000003E-3,-6.8888885E-1,-2.1149424E-1,-3.9080456E-2,-5.333333E-1,-5.7142854E-2,-2.1166666E-1,3.888889E-2,-8.25E-2,-1.75E-1,-5.7031244E-2,-4.0714285E-1,-3.395833E-1,-1.6275862E-1,-3.6363634E-1,-7.875E-2,-3.22807E-1,-1.0153846E-1,-1.1048192E-1,-2.792453E-1,-2.157706E-1,-6.582278E-2,-1.5230334E-1,-5.3503178E-2,-4.3055555E-1,9.000001E-3,5.0000004E-3,-7.875E-2,-3.7021276E-1,-1.5658914E-1,-3.2E-1,8.571429E-3,-4.125E-1,9.166667E-3,3.5981737E-2,-1.9999999E-1,2.6666669E-3,-4.3157894E-2,7.5000003E-3,-6E-2,-2E-2,5.0000004E-3,5.0000004E-3,-7.5E-2,-4.4999998E-2,8.333334E-3,5.0000004E-3,-6E-2,-4.4999998E-2,-2.4999963E-4,7.5000003E-3,-6E-2,-7.875E-2,5.0000004E-3,-8.837209E-3,-3.2444444E-2,-3.4285713E-2,-1.2345676E-3,-6.125E-2,7.5000003E-3,8.333334E-3,-4.4999998E-2,3.5478956E-10,-2.38125E-2,-4.4999998E-2,9.411765E-3,6.6666673E-3,-4.4999998E-2,-6.3157856E-4,-1.9705882E-2,-2.1E-2,-7.2E-2,3.3866276E-10,-4.2894736E-2,-7.6249996E-3,-2.651515E-2,8E-3,-6.285714E-2,-4.1276596E-2,9.09091E-3,6.3333334E-3,-2.3611112E-2,-1.18202865E-2,-5.9939753E-3,-5.3684212E-2,-1.3142857E-2,-2.8759122E-2,-1.4545455E-2,-1.8857142E-2,3.1111115E-3,-1.1684073E-2,-1.5934324E-2,1.5625004E-3,-1.5967742E-2,-5.3666662E-2,8.571429E-3,-5.4399997E-2,-1.6521739E-2,-3.3214286E-2,-1.0686274E-2,6.6666673E-3,-6E-2,-7.2E-2,7.5000003E-3,9.3150715E-4,4.9247607E-3,-6E-2,8E-3],"categories":[],"categories_nodes":[],"categories_segments":[],"categories_sizes":[],"default_left":[0,0,0,0,0,0,0,0,0,0,0,0,0,0,0,0,0,0,0,0,0,0,0,0,0,0,0,0,0,0,0,0,0,0,0,0,0,0,0,0,0,0,0,0,0,0,0,0,0,0,0,0,0,0,0,0,0,0,0,0,0,0,0,0,0,0,0,0,0,0,0,0,0,0,0,0,0,0,0,0,0,0,0,0,0,0,0,0,0,0,0,0,0,0,0,0,0,0,0,0,0,0,0,0,0,0,0,0,0,0,0,0,0,0,0,0,0,0,0,0,0,0,0,0,0,0,0,0,0,0,0,0,0,0,0,0,0,0,0,0,0,0,0,0,0,0,0,0,0,0,0,0,0,0,0,0,0,0,0,0,0,0,0,0,0,0,0,0,0,0,0,0,0,0,0,0,0,0,0,0,0,0,0,0,0,0,0,0,0,0,0,0,0,0,0,0,0,0,0,0,0,0,0,0,0,0,0],"id":3,"left_children":[1,3,5,7,9,-1,11,13,15,17,19,21,23,25,27,29,31,33,35,37,39,41,43,45,47,49,51,53,-1,55,57,-1,59,61,63,65,-1,67,69,71,73,75,-1,77,79,81,83,-1,-1,85,87,89,91,93,95,-1,97,-1,-1,99,101,103,105,107,-1,109,111,113,115,117,119,121,123,125,127,-1,-1,-1,-1,129,-1,131,133,-1,-1,135,-1,137,139,141,143,145,-1,-1,-1,147,-1,149,-1,-1,151,153,155,157,159,161,163,-1,165,167,169,171,173,175,-1,177,179,181,183,185,187,189,191,193,-1,-1,-1,195,197,199,-1,201,-1,203,205,-1,-1,-1,-1,-1,-1,-1,-1,-1,-1,-1,-1,-1,-1,-1,-1,-1,-1,-1,-1,-1,-1,-1,-1,-1,-1,-1,-1,-1,-1,-1,-1,-1,-1,-1,-1,-1,-1,-1,-1,-1,-1,-1,-1,-1,-1,-1,-1,-1,-1,-1,-1,-1,-1,-1,-1,-1,-1,-1,-1,-1,-1,-1,-1,-1,-1,-1,-1,-1,-1,-1,-1],"loss_changes":[3.487533E2,2.2721863E0,7.1730804E0,1.4001796E0,1.2210083E0,0E0,1.492549E0,1.0076126E0,2.3125339E0,1.6673756E0,1.1898346E0,3.6702266E0,4.6878523E-1,6.326873E-1,1.1055678E0,7.843132E-1,1.9239829E0,2.2662792E0,1.0782118E0,2.3204155E0,1.359909E0,1.151515E0,1.1247926E0,4.7364473E-1,7.2749996E-1,7.998214E-1,1.0741259E0,7.993756E-1,0E0,9.596863E-1,3.9533332E-1,0E0,1.4778309E0,1.839016E0,1.1416469E0,1.0613556E0,0E0,2.02954E0,1.4817963E0,1.348259E0,1.8664618E0,7.47818E-1,0E0,1.3702127E0,9.3555194E-1,4.2092776E-1,7.2749996E-1,0E0,0E0,1.442424E0,4.9120134E-1,1.0162637E0,8.830555E-1,1.2532499E0,9.220646E-1,0E0,7.919998E-1,0E0,0E0,1.3927779E0,1.2773156E0,1.0652809E0,9.914174E-1,7.993336E-1,0E0,1.5384607E0,1.0845919E0,5.2190685E-1,1.4445133E0,1.4650345E0,1.3508291E0,1.4597702E0,2.0177221E0,6.9513893E-1,1.5261745E0,0E0,0E0,0E0,0E0,4.7251946E-1,0E0,1.2073464E0,3.8614535E-1,0E0,0E0,1.7059777E0,0E0,7.2749996E-1,4.1962764E-1,6.142857E-1,4.238095E-1,3.6249995E-1,0E0,0E0,0E0,3.8085973E-1,0E0,7.2749996E-1,0E0,0E0,6.9513893E-1,1.1812086E0,7.023292E-1,1.3462496E0,4.238095E-1,1.0080624E0,5.28366E-1,0E0,2.958333E-1,9.077554E-1,7.122855E-1,1.4566336E0,1.264173E0,1.3431689E0,0E0,2.1589193E0,1.4571239E0,9.645958E-1,1.9475307E0,1.3671579E0,9.458485E-1,1.1302872E0,1.1548172E0,2.0181513E0,0E0,0E0,0E0,1.5845242E0,1.0906317E0,5.813333E-1,0E0,1.2532499E0,0E0,3.869046E-1,8.319999E-1,0E0,0E0,0E0,0E0,0E0,0E0,0E0,0E0,0E0,0E0,0E0,0E0,0E0,0E0,0E0,0E0,0E0,0E0,0E0,0E0,0E0,0E0,0E0,0E0,0E0,0E0,0E0,0E0,0E0,0E0,0E0,0E0,0E0,0E0,0E0,0E0,0E0,0E0,0E0,0E0,0E0,0E0,0E0,0E0,0E0,0E0,0E0,0E0,0E0,0E0,0E0,0E0,0E0,0E0,0E0,0E0,0E0,0E0,0E0,0E0,0E0,0E0,0E0,0E0,0E0,0E0,0E0,0E0,0E0,0E0,0E0,0E0],"parents":[2147483647,0,0,1,1,2,2,3,3,4,4,6,6,7,7,8,8,9,9,10,10,11,11,12,12,13,13,14,14,15,15,16,16,17,17,18,18,19,19,20,20,21,21,22,22,23,23,24,24,25,25,26,26,27,27,29,29,30,30,32,32,33,33,34,34,35,35,37,37,38,38,39,39,40,40,41,41,43,43,44,44,45,45,46,46,49,49,50,50,51,51,52,52,53,53,54,54,56,56,59,59,60,60,61,61,62,62,63,63,65,65,66,66,67,67,68,68,69,69,70,70,71,71,72,72,73,73,74,74,79,79,81,81,82,82,85,85,87,87,88,88,89,89,90,90,91,91,95,95,97,97,100,100,101,101,102,102,103,103,104,104,105,105,106,106,108,108,109,109,110,110,111,111,112,112,113,113,115,115,116,116,117,117,118,118,119,119,120,120,121,121,122,122,123,123,127,127,128,128,129,129,131,131,133,133,134,134],"right_children":[2,4,6,8,10,-1,12,14,16,18,20,22,24,26,28,30,32,34,36,38,40,42,44,46,48,50,52,54,-1,56,58,-1,60,62,64,66,-1,68,70,72,74,76,-1,78,80,82,84,-1,-1,86,88,90,92,94,96,-1,98,-1,-1,100,102,104,106,108,-1,110,112,114,116,118,120,122,124,126,128,-1,-1,-1,-1,130,-1,132,134,-1,-1,136,-1,138,140,142,144,146,-1,-1,-1,148,-1,150,-1,-1,152,154,156,158,160,162,164,-1,166,168,170,172,174,176,-1,178,180,182,184,186,188,190,192,194,-1,-1,-1,196,198,200,-1,202,-1,204,206,-1,-1,-1,-1,-1,-1,-1,-1,-1,-1,-1,-1,-1,-1,-1,-1,-1,-1,-1,-1,-1,-1,-1,-1,-1,-1,-1,-1,-1,-1,-1,-1,-1,-1,-1,-1,-1,-1,-1,-1,-1,-1,-1,-1,-1,-1,-1,-1,-1,-1,-1,-1,-1,-1,-1,-1,-1,-1,-1,-1,-1,-1,-1,-1,-1,-1,-1,-1,-1,-1,-1,-1],"split_conditions":[8.5032745E2,6.2310445E-1,7.0710677E-1,2.1722227E-2,4.3116963E-1,5.6381927E1,1.0958038E3,2.2755432E2,1.8996037E2,4.6368772E-1,-3.7535198E-2,2E0,2.8331392E1,2.1146155E2,1.2788152E1,1.9694998E2,1.9656204E2,2.0689314E2,2.201208E2,2.458669E-1,2.1631236E2,6.234898E-1,1.8E1,8.980315E-1,2.8863874E-1,-1.3313478E-1,2.073236E2,4.3116963E-1,-1.2174667E0,5E0,1.8699294E2,4.074628E-1,2.6807042E-2,1.9081569E2,1.1259613E3,2.45602E0,2.013263E-1,2.8138655E-1,1E0,9.003825E-1,-2.8481862E-2,1.01289703E3,6.927482E1,1.0938079E3,1E0,-2.2290343E-1,-4.3388373E-1,-4.843625E0,5.8188965E1,1.6E1,2.1852832E-1,1.2246469E-16,2.1795703E2,9.659258E-1,1.0835543E3,1.0730118E0,1.9471027E2,1.5558792E0,-2.3399048E-1,1.2246469E-16,6.1251163E-1,1.8425362E2,2.2882347E2,3.5648113E-1,2.2617402E0,8.3494514E-1,1.9445615E2,7.8484535E-1,2.0037361E2,1.9903297E1,1.9E1,2.2987895E2,7.919376E0,2E0,2.2464565E2,-9.079767E0,1.0304642E0,5.293941E1,-9.07532E0,9.42237E2,-1.1978587E1,9.92546E2,1.1437562E3,-6.7428985E0,6.512396E1,6.068937E-1,2.4039553E-1,2.1634449E-1,4.192905E-1,2E0,2E0,-2.5881904E-1,3.9416778E-1,1.1662034E0,-1.4766053E0,1.8996146E2,-1.4457016E0,1E0,-1.4593811E0,6.1053466E-2,5.2E1,6.0657734E-1,1.9410808E2,6.953448E0,8.660254E-1,-2.5881904E-1,1.7138237E2,-1.390766E0,9.749279E-1,2.0419226E2,1.9998537E2,1.9640413E2,1.6E1,6.050356E-1,-1.3733231E0,1.9788371E2,2.012579E2,9.871718E0,0E0,1.9980896E2,-1.258477E-1,8.813252E-1,2.0428215E2,2.0447629E2,7.262665E-1,8.2040864E-1,-1.3857392E0,3.6123223E0,3.771452E1,9.245393E2,5.272764E1,1.1283237E3,5.0464657E1,4.004705E-1,5.176391E-1,-7.021614E-1,-1.2009892E0,3.6686707E-2,-1.4090973E0,-1.306659E0,1.700357E-1,3.3595626E0,-1.3779312E0,-3.565018E-1,9.6903384E-1,9.289185E-1,-1.022754E0,-1.2123002E0,-4.9287412E-1,1.733722E0,-1.4528702E0,-1.3086166E0,1.3631439E-1,-8.7203467E-1,-9.9124146E-1,-1.0904572E0,-1.5579209E-1,-1.1440539E0,3.9814302E-1,6.0466766E-1,-1.4236573E0,-1.4083435E-1,-1.0128037E0,-1.3310684E0,4.7239658E-1,1.8602723E0,-6.007767E-1,-6.2340535E-2,-1.0266864E0,-1.0875367E0,-1.377829E0,-8.752242E-2,-1.2151434E0,-6.6467136E-1,-1.0659113E0,4.2485047E-2,-1.0683441E0,-1.1546303E0,9.8086166E-1,5.9046024E-1,-1.0752009E0,-8.385564E-1,-5.87226E-1,-1.4552213E0,-1.2389306E0,-1.1656457E0,-8.279435E-1,-6.189408E-1,1.4616929E-1,-8.41138E-1,-9.291188E-1,7.171693E-2,-1.05861E0,-1.0467957E0,8.2811433E-1,-1.2162338E0,-9.4537634E-1,-1.2436994E0,-7.995926E-1,3.246605E0,-4.440941E0,-1.8024326E1,5.588332E1,4.8340195E1,5.0521763E1,-5.291066E0,2.8515626E-2],"split_indices":[8,19,1,18,13,0,15,14,8,20,18,4,12,17,12,10,17,10,17,12,16,3,7,23,20,18,9,13,0,7,8,0,18,16,15,12,0,20,1,21,18,9,0,14,3,18,2,0,0,7,20,0,14,1,15,0,11,0,0,0,19,17,14,13,0,21,16,19,10,12,7,15,12,4,14,0,0,0,0,16,0,11,11,0,0,23,0,20,23,4,4,0,0,0,0,16,0,1,0,0,4,19,10,12,0,0,8,0,2,9,17,11,7,23,0,17,9,12,2,10,18,12,10,9,0,0,0,13,22,9,0,14,0,21,20,0,0,0,0,0,0,0,0,0,0,0,0,0,0,0,0,0,0,0,0,0,0,0,0,0,0,0,0,0,0,0,0,0,0,0,0,0,0,0,0,0,0,0,0,0,0,0,0,0,0,0,0,0,0,0,0,0,0,0,0,0,0,0,0,0,0,0,0,0,0,0,0],"split_type":[0,0,0,0,0,0,0,0,0,0,0,0,0,0,0,0,0,0,0,0,0,0,0,0,0,0,0,0,0,0,0,0,0,0,0,0,0,0,0,0,0,0,0,0,0,0,0,0,0,0,0,0,0,0,0,0,0,0,0,0,0,0,0,0,0,0,0,0,0,0,0,0,0,0,0,0,0,0,0,0,0,0,0,0,0,0,0,0,0,0,0,0,0,0,0,0,0,0,0,0,0,0,0,0,0,0,0,0,0,0,0,0,0,0,0,0,0,0,0,0,0,0,0,0,0,0,0,0,0,0,0,0,0,0,0,0,0,0,0,0,0,0,0,0,0,0,0,0,0,0,0,0,0,0,0,0,0,0,0,0,0,0,0,0,0,0,0,0,0,0,0,0,0,0,0,0,0,0,0,0,0,0,0,0,0,0,0,0,0,0,0,0,0,0,0,0,0,0,0,0,0,0,0,0,0,0,0],"sum_hessian":[2.7644E4,9.179E3,1.8465E4,5.7E2,8.609E3,1.7264E4,1.201E3,3.29E2,2.41E2,5.92E2,8.017E3,7.3E1,1.128E3,2.77E2,5.2E1,2.1E1,2.2E2,2.44E2,3.48E2,3.034E3,4.983E3,1.2E1,6.1E1,1.123E3,5E0,2.45E2,3.2E1,4.9E1,3E0,1.6E1,5E0,3.7E1,1.83E2,2.28E2,1.6E1,3.31E2,1.7E1,1.37E2,2.897E3,4.801E3,1.82E2,1E1,2E0,4.8E1,1.3E1,1.118E3,5E0,2E0,3E0,5.3E1,1.92E2,1.2E1,2E1,7E0,4.2E1,2E0,1.4E1,4E0,1E0,1.1E1,1.72E2,3.2E1,1.96E2,1.4E1,2E0,1.4E2,1.91E2,1.7E1,1.2E2,2.541E3,3.56E2,4.757E3,4.4E1,8E0,1.74E2,9E0,1E0,4.6E1,2E0,1E1,3E0,1.8E1,1.1E3,2E0,3E0,3.2E1,2.1E1,5E0,1.87E2,6E0,6E0,3E0,1.7E1,3E0,4E0,4E1,2E0,5E0,9E0,3E0,8E0,8.6E1,8.6E1,2.6E1,6E0,1.79E2,1.7E1,1.1E1,3E0,1.27E2,1.3E1,4.7E1,1.44E2,1E1,7E0,5.6E1,6.4E1,2.489E3,5.2E1,2.78E2,7.8E1,4.601E3,1.56E2,3.5E1,9E0,1E0,7E0,4.6E1,1.28E2,4E0,6E0,7E0,1.1E1,1.094E3,6E0,1.4E1,1.8E1,3E0,2E0,6E0,1.81E2,1E0,5E0,1E0,5E0,1E0,2E0,1E0,3.9E1,3E0,2E0,7E0,1E0,4.2E1,4.4E1,6E0,8E1,2.3E1,3E0,5E0,1E0,2E1,1.59E2,1E0,1.6E1,2E0,1E0,9.4E1,3.3E1,9E0,4E0,1E1,3.7E1,7.9E1,6.5E1,4E0,6E0,4.6E1,1E1,2.9E1,3.5E1,2.158E3,3.31E2,1.8E1,3.4E1,1.36E2,1.42E2,3.4E1,4.4E1,7.65E2,3.836E3,9.5E1,6.1E1,2.9E1,6E0,2.4E1,2.2E1,2.7E1,1.01E2,2E0,2E0,4E0,3E0,3.64E2,7.3E2,2E0,4E0],"tree_param":{"num_deleted":"0","num_feature":"26","num_nodes":"207","size_leaf_vector":"1"}},{"base_weights":[1.9149171E-2,-1.3221979E-1,9.462319E-2,-1.30848E-1,-2.4324323E-1,9.99942E-3,1.8503293E-2,-1.2599583E-1,-1.5739813E-1,-1.717647E-1,-4.5925924E-1,-8.272727E-2,2.8545622E-2,-1.317702E-1,-8.9438625E-2,-3.5471696E-1,-1.4951743E-1,-3.6785713E-1,-7.4137926E-2,-7.416667E-1,-2.1874999E-1,-5.9999996E-1,-1.3265302E-2,3.1893384E-2,-1.5499999E-1,-1.3669617E-1,-8.591331E-2,-5.5555184E-4,-1.0768348E-1,-6.1538458E-2,-4.390244E-1,-1.4089131E-1,-3.0724636E-1,-6.8888885E-1,-2.05E-1,-1.9999964E-3,-4.6666664E-1,5.0000004E-3,-8.1818186E-2,-6.7499995E-2,-6.1538458E-2,6.6666673E-3,-7.272727E-1,-1.3488372E-1,8.035714E-2,4.1390732E-2,-1.5300542E-2,-4.8571426E-1,2.1428574E-2,-1.10947825E-1,-1.4424032E-1,-1.9078946E-1,-7.1803845E-2,2.3391817E-2,-4.1E-1,-2.3466666E-1,-9.561403E-2,-4.2499998E-1,9.000001E-3,-1.9285713E-1,-5.4642856E-1,-2.2981365E-1,-1.279714E-1,-5.9999996E-1,-2.3508771E-1,5.0000004E-3,-7.875E-2,8.888889E-3,-4.0833333E-1,-4.2499998E-1,3.4042556E-2,-6.285714E-1,6.6666673E-3,8.75E-3,-2.4999999E-1,-8.1E-2,5.0000004E-3,-4.0714285E-1,-3.3333297E-3,-1.75E-1,9.811321E-3,4.3285243E-2,-2.4999999E-1,-4.1666666E-1,-1.6853896E-3,6.6666673E-3,-7.2E-2,-1.75E-1,9.09091E-3,-1.4460285E-1,-9.184845E-2,-2.418269E-1,-1.3961537E-1,-1.4428571E-1,-6.285714E-1,-1.0263929E-1,-2.5974022E-2,-1.3181818E-1,4.6000004E-2,-7.2E-2,-8.333333E-2,-3.0925924E-1,-4.0909085E-2,-4.5454544E-1,-9.048223E-2,5.0000004E-3,-6E-2,-7.2E-2,9.000001E-3,6.6666673E-3,-5.9615386E-1,-3.215909E-1,-1.1756756E-1,9.722223E-3,-1.353321E-1,6.6666673E-3,-7.272727E-1,3.1250004E-2,-3.3095238E-1,7.5000003E-3,-5.7777774E-1,5.0000004E-3,-6E-2,-4.4999998E-2,5.4347828E-2,-7.5E-2,5.0000004E-3,-6E-2,7.5000003E-3,7.5000003E-3,-5.454545E-1,-6E-2,6.071429E-2,6.6666673E-3,-4.4999998E-2,1.0928998E-3,5.396384E-2,-6E-2,7.5000003E-3,6.6666673E-3,-6.7499995E-2,-2.05E-1,2.3899375E-2,6.6666673E-3,-4.4999998E-2,-2.2721088E-2,-1.089855E-2,-2.3918917E-2,-7.8070173E-3,-1.7806452E-2,-4.2037036E-2,-1.8346094E-2,-1.3197983E-2,-2.4473684E-2,-2.424242E-3,-7.5E-2,5.0000004E-3,-4.9773753E-3,-1.983471E-2,-1.1222222E-2,2.8873242E-3,-5.1999997E-2,-1.6666662E-3,-2.4999999E-2,5.7931035E-3,8E-3,-4.4999998E-2,-2.0249998E-2,-5.733333E-2,9.333334E-3,-2.875E-2,7.5000003E-3,-6.625E-2,-1.2538631E-2,-4.315476E-3,-3.1000001E-2,-7.294118E-2,-1.9482758E-2,-5.4838713E-2,-4.5454543E-2,-5.7812496E-3,-2.4711538E-2,-1.2334352E-2,-8.1E-2,5.0000004E-3,-4.4999998E-2,9.333334E-3,-5.565217E-2,-5.4999995E-3,-7.714286E-2,6.6666673E-3,-4.4999998E-2,7.5555556E-3,-6.888889E-2,6.6666673E-3,-4.4999998E-2,9.62963E-3,-7.076923E-3,4.0336135E-3,6.2439027E-3,3.8095276E-4,-5.3749997E-2,1.5384619E-3,-4.25E-2,3.5256413E-3],"categories":[],"categories_nodes":[],"categories_segments":[],"categories_sizes":[],"default_left":[0,0,0,0,0,0,0,0,0,0,0,0,0,0,0,0,0,0,0,0,0,0,0,0,0,0,0,0,0,0,0,0,0,0,0,0,0,0,0,0,0,0,0,0,0,0,0,0,0,0,0,0,0,0,0,0,0,0,0,0,0,0,0,0,0,0,0,0,0,0,0,0,0,0,0,0,0,0,0,0,0,0,0,0,0,0,0,0,0,0,0,0,0,0,0,0,0,0,0,0,0,0,0,0,0,0,0,0,0,0,0,0,0,0,0,0,0,0,0,0,0,0,0,0,0,0,0,0,0,0,0,0,0,0,0,0,0,0,0,0,0,0,0,0,0,0,0,0,0,0,0,0,0,0,0,0,0,0,0,0,0,0,0,0,0,0,0,0,0,0,0,0,0,0,0,0,0,0,0,0,0,0,0,0,0,0,0,0,0,0,0,0,0,0,0,0,0,0,0,0,0,0,0,0,0],"id":4,"left_children":[1,3,5,7,9,-1,11,13,15,17,19,21,23,25,27,29,31,33,35,37,39,41,43,45,47,49,51,53,55,57,59,61,63,65,67,69,71,-1,-1,-1,73,-1,75,77,79,81,83,85,87,89,91,93,95,97,99,101,103,105,-1,107,109,111,113,115,117,-1,-1,-1,119,121,123,125,-1,-1,127,-1,-1,129,131,133,-1,135,137,139,141,-1,-1,143,-1,145,147,149,151,153,155,157,159,161,163,-1,165,167,169,171,173,-1,-1,-1,-1,-1,175,177,179,-1,181,-1,183,185,187,-1,189,-1,-1,-1,191,-1,-1,-1,-1,-1,193,-1,195,-1,-1,197,199,-1,-1,-1,-1,201,203,-1,-1,-1,-1,-1,-1,-1,-1,-1,-1,-1,-1,-1,-1,-1,-1,-1,-1,-1,-1,-1,-1,-1,-1,-1,-1,-1,-1,-1,-1,-1,-1,-1,-1,-1,-1,-1,-1,-1,-1,-1,-1,-1,-1,-1,-1,-1,-1,-1,-1,-1,-1,-1,-1,-1,-1,-1,-1,-1,-1,-1,-1],"loss_changes":[3.155551E2,1.3678131E0,7.533478E0,1.1499176E0,1.6350126E0,0E0,1.2385358E0,1.609848E0,2.1224213E0,1.5999568E0,1.6716437E0,3.9444265E0,6.851586E-1,1.4863586E0,1.7043028E0,1.28299E0,1.7894249E0,1.3226824E0,1.6414069E0,7.6780224E-1,1.1061058E0,1.151515E0,1.1266876E0,4.8829365E-1,1.1773572E0,1.146965E0,9.422164E-1,1.7745117E0,1.3140059E0,7.542692E-1,9.78632E-1,1.4399948E0,1.3165522E0,6.9513893E-1,1.2314445E0,7.767681E-1,8.190476E-1,0E0,0E0,0E0,3.8701922E-1,0E0,7.47818E-1,1.538722E0,2.7108157E-1,5.109718E-1,9.993307E-1,9.539046E-1,2.0698051E-1,8.61557E-1,2.0545578E0,1.4565525E0,8.042617E-1,6.0610545E-1,9.526665E-1,1.0713143E0,1.4287596E0,3.6249995E-1,0E0,2.1522856E0,8.933611E-1,1.6207542E0,1.8679924E0,1.151515E0,1.4656878E0,0E0,0E0,0E0,1.0261111E0,3.6249995E-1,4.8640144E-1,6.142857E-1,0E0,0E0,7.2749996E-1,0E0,0E0,9.745128E-1,1.1828809E0,2.958333E-1,0E0,4.058913E-1,7.2749996E-1,7.9416656E-1,9.30812E-1,0E0,0E0,2.958333E-1,0E0,1.4198952E0,1.7495446E0,2.2930937E0,1.4555359E0,8.381609E-1,6.142857E-1,1.7154663E0,1.0959805E0,9.747273E-1,5.442206E-1,0E0,3.9533332E-1,1.4062867E0,7.5509846E-1,1.2610228E0,1.2963033E0,0E0,0E0,0E0,0E0,0E0,7.653208E-1,2.423109E0,1.4637955E0,0E0,1.4222107E0,0E0,7.47818E-1,5.2004164E-1,2.5837402E0,0E0,1.1746027E0,0E0,0E0,0E0,5.260193E-1,0E0,0E0,0E0,0E0,0E0,1.0117173E0,0E0,5.521561E-1,0E0,0E0,5.189333E-1,3.053851E-1,0E0,0E0,0E0,0E0,1.473827E0,8.2559264E-1,0E0,0E0,0E0,0E0,0E0,0E0,0E0,0E0,0E0,0E0,0E0,0E0,0E0,0E0,0E0,0E0,0E0,0E0,0E0,0E0,0E0,0E0,0E0,0E0,0E0,0E0,0E0,0E0,0E0,0E0,0E0,0E0,0E0,0E0,0E0,0E0,0E0,0E0,0E0,0E0,0E0,0E0,0E0,0E0,0E0,0E0,0E0,0E0,0E0,0E0,0E0,0E0,0E0,0E0,0E0,0E0,0E0,0E0,0E0,0E0,0E0,0E0],"parents":[2147483647,0,0,1,1,2,2,3,3,4,4,6,6,7,7,8,8,9,9,10,10,11,11,12,12,13,13,14,14,15,15,16,16,17,17,18,18,19,19,20,20,21,21,22,22,23,23,24,24,25,25,26,26,27,27,28,28,29,29,30,30,31,31,32,32,33,33,34,34,35,35,36,36,40,40,42,42,43,43,44,44,45,45,46,46,47,47,48,48,49,49,50,50,51,51,52,52,53,53,54,54,55,55,56,56,57,57,59,59,60,60,61,61,62,62,63,63,64,64,68,68,69,69,70,70,71,71,74,74,77,77,78,78,79,79,81,81,82,82,83,83,84,84,87,87,89,89,90,90,91,91,92,92,93,93,94,94,95,95,96,96,97,97,98,98,100,100,101,101,102,102,103,103,104,104,110,110,111,111,112,112,114,114,116,116,117,117,118,118,120,120,124,124,130,130,132,132,135,135,136,136,141,141,142,142],"right_children":[2,4,6,8,10,-1,12,14,16,18,20,22,24,26,28,30,32,34,36,38,40,42,44,46,48,50,52,54,56,58,60,62,64,66,68,70,72,-1,-1,-1,74,-1,76,78,80,82,84,86,88,90,92,94,96,98,100,102,104,106,-1,108,110,112,114,116,118,-1,-1,-1,120,122,124,126,-1,-1,128,-1,-1,130,132,134,-1,136,138,140,142,-1,-1,144,-1,146,148,150,152,154,156,158,160,162,164,-1,166,168,170,172,174,-1,-1,-1,-1,-1,176,178,180,-1,182,-1,184,186,188,-1,190,-1,-1,-1,192,-1,-1,-1,-1,-1,194,-1,196,-1,-1,198,200,-1,-1,-1,-1,202,204,-1,-1,-1,-1,-1,-1,-1,-1,-1,-1,-1,-1,-1,-1,-1,-1,-1,-1,-1,-1,-1,-1,-1,-1,-1,-1,-1,-1,-1,-1,-1,-1,-1,-1,-1,-1,-1,-1,-1,-1,-1,-1,-1,-1,-1,-1,-1,-1,-1,-1,-1,-1,-1,-1,-1,-1,-1,-1,-1,-1,-1,-1],"split_conditions":[8.5032745E2,8.8749933E-1,7.0710677E-1,2.05221E2,7.818315E-1,5.071915E1,9.674194E2,2.2937523E2,2.2323893E-1,1.7872376E0,2.1473018E2,-2.2252093E-1,5E-1,1.397139E1,1.9736476E2,-1.2765852E-1,2.2346738E-1,2.0948334E0,2.295953E2,1.9052747E2,2.5311403E1,9.42237E2,6.234898E-1,8.995379E0,-7.818315E-1,1.8749985E2,1.9022513E2,1.5205891E1,-7.818315E-1,3.0165802E1,2.6239946E0,3.1842607E1,2.0696077E2,1.3934357E-1,4.986582E-1,7.5248486E-1,2.0825095E2,1.1452271E0,-1.2361674E0,-1.2901185E0,2.2733142E2,6.260847E1,7.919376E0,1.1056793E3,2.1410587E-1,8.980315E-1,1.0905557E3,1.637357E-1,-9.193127E-2,1.2246469E-16,1.9514648E2,9.691959E-1,5.350475E-1,-1.578534E-1,4.3388373E-1,2.2955753E2,2.0293633E2,2.0343367E2,1.0688174E-1,5.340386E-1,3E0,5.3897625E-1,1.8186871E2,6.2616485E-1,2.2105585E2,9.7665256E-1,-1.2400467E0,1.1351227E0,1.897845E2,1.8631006E2,1.7351772E2,9.659258E-1,2.1591141E0,7.310135E-1,2.2817722E2,-1.7263E1,7.0406975E1,2.164266E0,1.2103048E2,-4.3388373E-1,5.1414936E1,6.7516565E-1,-4.3388373E-1,9.7388684E2,4.5061758E-1,1.053833E2,-1.1199712E1,1.0046877E3,5.0452884E-2,-1.219397E-1,2.5740844E-1,1.9620842E2,2.1228085E2,3E0,1.9694998E2,4.2662853E-1,0E0,-2.2252093E-1,1.00959085E-1,-9.5279086E-1,3E0,2.0741962E2,5.011253E0,1.1E1,7.0710677E-1,1.9540116E0,-8.033066E-1,-1.3110336E0,4.2975312E-1,2.2417512E0,5.319872E-1,2.6184952E1,9.5507866E-1,2.7209383E-1,4.4475636E-1,5.135895E-1,9.7668964E-1,7.198243E-1,4.649768E0,1.8747025E0,2.0285814E2,3.8630235E0,-1.0970811E0,-4.0743104E-1,1.942514E2,-8.051956E-1,2.1573822E0,-3.9111176E-1,2.4328614E-2,2.9219453E0,8.660821E0,-1.6716038E1,8.562955E2,5.1123566E1,-1.5559405E1,2.6580408E2,1.1416549E3,-6.0686083E0,5.861156E1,5.380479E1,-3.1243134E0,1.0042084E3,8.823075E2,1.1462089E2,-4.76196E0,-9.957016E-1,-6.225113E-1,-7.20668E-1,-7.405454E-1,-8.9512026E-1,-8.294568E-1,-9.751671E-1,-8.2192963E-1,-1.1907806E0,-3.4718123E-1,-1.4756714E0,1.965477E0,-6.232922E-1,-8.346774E-1,-8.281418E-1,1.2648378E-1,-9.399002E-1,-6.0873693E-1,-4.3529817E-1,3.146988E-1,9.701843E-1,-1.3847717E0,-6.325745E-1,-1.1973114E0,1.6934586E-1,-1.135373E0,2.256569E0,-1.430719E0,-7.4936706E-1,-6.5191346E-1,-1.1697525E0,-1.3102463E0,-1.1841935E0,-1.1584536E0,-9.6942085E-1,-7.225772E-1,-9.598722E-1,-8.198767E-1,-1.2700547E0,4.192941E0,-1.2972015E0,3.8784027E-2,-1.2307564E0,-8.5958713E-1,-1.2555436E0,7.364029E-1,-6.190979E-1,4.2914963E-1,-2.159611E1,3.0236223E0,-5.146291E0,4.5331787E1,-1.4218355E1,4.4192196E1,4.568008E1,1.52647505E1,-1.636833E1,2.5254786E0,-1.7610723E1,4.4294117E1],"split_indices":[8,21,1,10,2,0,10,15,20,12,14,3,0,13,11,18,18,13,15,10,22,16,3,12,2,17,9,13,2,22,12,22,17,13,12,20,16,0,0,0,15,0,12,15,20,23,15,13,18,0,11,19,21,18,2,14,14,9,0,23,7,20,17,19,8,0,0,0,9,8,8,0,0,0,15,0,0,13,22,2,0,19,2,9,23,0,0,11,0,18,20,10,14,4,10,21,2,3,12,0,4,17,12,7,0,0,0,0,0,0,23,22,13,0,23,0,19,12,13,0,11,0,0,0,11,0,0,0,0,0,13,0,8,0,0,22,14,0,0,0,0,10,17,0,0,0,0,0,0,0,0,0,0,0,0,0,0,0,0,0,0,0,0,0,0,0,0,0,0,0,0,0,0,0,0,0,0,0,0,0,0,0,0,0,0,0,0,0,0,0,0,0,0,0,0,0,0,0,0,0,0,0,0,0,0],"split_type":[0,0,0,0,0,0,0,0,0,0,0,0,0,0,0,0,0,0,0,0,0,0,0,0,0,0,0,0,0,0,0,0,0,0,0,0,0,0,0,0,0,0,0,0,0,0,0,0,0,0,0,0,0,0,0,0,0,0,0,0,0,0,0,0,0,0,0,0,0,0,0,0,0,0,0,0,0,0,0,0,0,0,0,0,0,0,0,0,0,0,0,0,0,0,0,0,0,0,0,0,0,0,0,0,0,0,0,0,0,0,0,0,0,0,0,0,0,0,0,0,0,0,0,0,0,0,0,0,0,0,0,0,0,0,0,0,0,0,0,0,0,0,0,0,0,0,0,0,0,0,0,0,0,0,0,0,0,0,0,0,0,0,0,0,0,0,0,0,0,0,0,0,0,0,0,0,0,0,0,0,0,0,0,0,0,0,0,0,0,0,0,0,0,0,0,0,0,0,0,0,0,0,0,0,0],"sum_hessian":[2.7619E4,9.189E3,1.843E4,9.079E3,1.1E2,1.7215E4,1.215E3,7.681E3,1.398E3,8.4E1,2.6E1,1.09E2,1.106E3,6.631E3,1.05E3,5.2E1,1.346E3,2.7E1,5.7E1,1.1E1,1.5E1,1.2E1,9.7E1,1.087E3,1.9E1,5.986E3,6.45E2,1.79E2,8.71E2,1.2E1,4E1,1.278E3,6.8E1,8E0,1.9E1,4.9E1,8E0,1E0,1E1,3E0,1.2E1,2E0,1E1,4.2E1,5.5E1,9.05E2,1.82E2,6E0,1.3E1,1.36E3,4.626E3,7.5E1,5.7E2,1.7E2,9E0,7.4E1,7.97E2,3E0,9E0,1.3E1,2.7E1,1.6E2,1.118E3,1.2E1,5.6E1,1E0,7E0,8E0,1.1E1,3E0,4.6E1,6E0,2E0,7E0,5E0,9E0,1E0,1.3E1,2.9E1,3E0,5.2E1,9E2,5E0,5E0,1.77E2,2E0,4E0,3E0,1E1,4.9E2,8.7E2,2.07E2,4.419E3,6.9E1,6E0,3.4E2,2.3E2,2.1E1,1.49E2,4E0,5E0,5.3E1,2.1E1,1E1,7.87E2,1E0,2E0,4E0,9E0,2E0,2.5E1,8.7E1,7.3E1,3.5E1,1.083E3,2E0,1E1,1.5E1,4.1E1,3E0,8E0,1E0,2E0,1E0,4.5E1,5E0,1E0,2E0,3E0,3E0,1E1,2E0,2.7E1,2E0,1E0,1.82E2,7.18E2,2E0,3E0,2E0,3E0,1.9E1,1.58E2,2E0,1E0,1.46E2,3.44E2,7.3E1,7.97E2,1.54E2,5.3E1,6.52E2,3.767E3,3.7E1,3.2E1,5E0,1E0,2.2E2,1.2E2,8.9E1,1.41E2,4E0,1.7E1,5E0,1.44E2,4E0,1E0,3.9E1,1.4E1,1.4E1,7E0,3E0,7E0,4.52E2,3.35E2,9E0,1.6E1,5.7E1,3E1,1E1,6.3E1,1.03E2,9.8E2,9E0,1E0,1E0,1.4E1,2.2E1,1.9E1,6E0,2E0,1E0,4.4E1,8E0,2E0,1E0,2.6E1,6.4E1,1.18E2,6.14E2,1.04E2,7E0,1.2E1,3E0,1.55E2],"tree_param":{"num_deleted":"0","num_feature":"26","num_nodes":"205","size_leaf_vector":"1"}},{"base_weights":[2.4136817E-2,-1.1615127E-1,9.453366E-2,-9.50482E-2,-1.2301428E-1,9.999421E-3,1.6790127E-2,-2.1726617E-1,-8.708022E-2,-1.3173312E-1,-9.596491E-2,-1.2537313E-1,2.5065277E-2,2.758621E-2,-2.7927926E-1,-8.060516E-2,-1.8759689E-1,-2.0180412E-1,-1.261623E-1,-8.77943E-2,-2.3092782E-1,-6.363636E-1,-2.45614E-2,3.202677E-2,-4.51923E-2,6.071429E-2,-4.4999998E-2,-1.7916666E-1,-4.525E-1,-1.7637795E-1,-7.412698E-2,-7.076923E-2,-3.0153844E-1,-1.7415383E-1,-3.3906248E-1,-1.2891135E-1,-4.166666E-2,-7.750177E-2,-1.5776698E-1,-1.7831324E-1,-5.0666666E-1,-8E-2,6.6666673E-3,-3.6363634E-1,5.5319153E-2,2.3300974E-2,9.916667E-3,3.1081084E-2,-2.2580644E-1,9.62963E-3,-4.4999998E-2,-4.3157893E-1,-8.7037034E-2,-1.5625E-1,-6.2399995E-1,-7.2E-2,-1.5284552E-1,-7.8048743E-3,-8.214709E-2,-6.7499995E-2,-3.0645156E-2,-3.660714E-1,9.000001E-3,-1.6363636E-1,-6.285714E-1,-6.3157886E-2,-4.4565216E-1,-1.6127595E-1,-1.2352796E-1,-8.6111106E-2,5.714286E-2,6.5573774E-2,-8.3914004E-2,-1.9935064E-1,-3.396226E-2,-4.6875E-1,-1.07352935E-1,-5.9999996E-1,6.6666673E-3,-5.833333E-1,-8.333333E-2,9.767442E-3,-3.2E-1,8.384616E-2,1.3408525E-2,9.800001E-3,-1.03999995E-1,-6.285714E-1,-1.03999995E-1,-5.3125E-1,7.5000003E-3,-4.1E-1,-1.3333329E-2,-3.5555553E-1,8.75E-3,-7.473684E-1,-1.9999999E-1,-1.2966101E-1,-5.833333E-1,-1.5357143E-1,1.5168543E-2,-9.5560744E-2,-3.920595E-2,4.878049E-2,-1.7727272E-1,-2.2222219E-2,-4.2291665E-1,-2.292857E-1,-1.1166666E-1,5.0000004E-3,-7.5E-2,-3.2E-1,2.666667E-2,-4.9761903E-1,8E-3,-4.9504947E-2,-1.80662E-1,-1.1431877E-1,-1.4985754E-1,-4.2352937E-2,-2.375E-1,9.767442E-3,-1.9999999E-1,9.824562E-3,-3.2E-1,-6.898855E-2,-1.3543046E-1,3.5478955E-9,-2.2910447E-1,-2.3888887E-1,6.944445E-2,8E-3,-6.583333E-1,8.888892E-3,-3.2083333E-1,6.6666673E-3,-7.272727E-1,5.0000004E-3,-7.2E-2,-4.4999998E-2,8E-3,-6E-2,6.6666673E-3,-6E-2,9.921875E-3,1.6434897E-2,-2.875E-1,-3.1E-1,3.1250004E-2,5.0000004E-3,-7.5E-2,-5.3749996E-1,9.444444E-3,-7.1E-2,-2E-2,6.6666673E-3,-5.3749997E-2,6.206897E-3,-1.4117646E-2,-8.333333E-3,-6.7499995E-2,-7.9444446E-2,5.0000004E-3,8E-3,-6E-2,-1.0956521E-2,-6.7499995E-2,-7.2E-2,5.0000004E-3,-4.1E-2,-1.0526312E-3,-3.0555553E-3,8.450705E-3,-8.575129E-3,-1.8425196E-2,2.2471948E-4,-1.1970802E-2,9.7058825E-3,-1.625E-2,-3.1249996E-3,-4.8571426E-2,8.75E-3,-4.4999998E-2,-6.1538457E-3,-5.4166663E-2,-3.9069768E-2,-1.5612245E-2,-1.9615384E-2,-4.660194E-3,-6E-2,6.6666673E-3,-4.4999998E-2,9.2857145E-3,-5.435897E-2,7.5000003E-3,2.4096422E-4,-2.736842E-2,-1.577922E-2,-2.7256636E-2,-1.2204694E-2,-6.6901403E-3,-1.41375875E-2,-3.1372547E-2,-8.333333E-3,9.5E-3,8.888889E-3,-4.0625002E-2,8E-3,-6E-2,-6E-2,6.6666673E-3,-6.2499996E-3,-2.6666665E-2,-4.55E-2,-1.1236749E-2,9.411765E-3,-3.2E-2,-4.9545452E-2,-1.7522125E-2,-4.0833335E-2,8.571429E-3,9.7058825E-3,-2.6666665E-2,-8.1E-2,6.6666673E-3,-3.2E-2,4.8780493E-3,-2.05E-2,-7.2E-2,-8.1E-2,5.0000004E-3,-5.7812496E-3,2.2939562E-3,-5.1999997E-2,7.5000003E-3,8E-3,-5.8333334E-2,9.333334E-3,-4.4999998E-2,6.6666673E-3,-7.5E-2],"categories":[],"categories_nodes":[],"categories_segments":[],"categories_sizes":[],"default_left":[0,0,0,0,0,0,0,0,0,0,0,0,0,0,0,0,0,0,0,0,0,0,0,0,0,0,0,0,0,0,0,0,0,0,0,0,0,0,0,0,0,0,0,0,0,0,0,0,0,0,0,0,0,0,0,0,0,0,0,0,0,0,0,0,0,0,0,0,0,0,0,0,0,0,0,0,0,0,0,0,0,0,0,0,0,0,0,0,0,0,0,0,0,0,0,0,0,0,0,0,0,0,0,0,0,0,0,0,0,0,0,0,0,0,0,0,0,0,0,0,0,0,0,0,0,0,0,0,0,0,0,0,0,0,0,0,0,0,0,0,0,0,0,0,0,0,0,0,0,0,0,0,0,0,0,0,0,0,0,0,0,0,0,0,0,0,0,0,0,0,0,0,0,0,0,0,0,0,0,0,0,0,0,0,0,0,0,0,0,0,0,0,0,0,0,0,0,0,0,0,0,0,0,0,0,0,0,0,0,0,0,0,0,0,0,0,0,0,0,0,0,0,0,0,0,0,0,0,0,0,0,0,0,0,0,0,0,0,0,0,0],"id":5,"left_children":[1,3,5,7,9,-1,11,13,15,17,19,21,23,25,27,29,31,33,35,37,39,41,43,45,47,49,-1,51,53,55,57,59,61,63,65,67,69,71,73,75,77,-1,-1,79,81,83,-1,85,87,-1,-1,89,91,93,95,-1,97,99,101,-1,103,105,-1,107,109,111,113,115,117,119,121,123,125,127,129,131,133,135,-1,137,139,-1,141,143,145,-1,147,149,151,153,-1,155,157,159,-1,161,163,165,167,169,171,173,175,177,179,181,183,185,187,-1,-1,189,191,193,-1,195,197,199,201,203,205,-1,207,-1,209,211,213,215,217,219,221,-1,223,225,227,-1,229,-1,-1,-1,-1,-1,-1,-1,-1,231,233,235,237,-1,-1,239,-1,-1,-1,-1,-1,-1,-1,-1,-1,-1,-1,-1,-1,-1,-1,-1,-1,-1,-1,-1,-1,-1,-1,-1,-1,-1,-1,-1,-1,-1,-1,-1,-1,-1,-1,-1,-1,-1,-1,-1,-1,-1,-1,-1,-1,-1,-1,-1,-1,-1,-1,-1,-1,-1,-1,-1,-1,-1,-1,-1,-1,-1,-1,-1,-1,-1,-1,-1,-1,-1,-1,-1,-1,-1,-1,-1,-1,-1,-1,-1,-1,-1,-1,-1,-1,-1,-1,-1,-1],"loss_changes":[2.7431238E2,1.3324814E0,7.8498535E0,2.2033596E0,1.6382294E0,0E0,1.4324956E0,2.1182876E0,1.3803043E0,2.0399017E0,1.8653936E0,3.435797E0,5.6342065E-1,4.8614526E-1,1.8438425E0,1.2377186E0,1.6958475E0,1.4135017E0,1.1337433E0,1.1501694E0,1.3169193E0,1.318788E0,1.5639893E0,6.1048746E-1,1.4397278E0,5.521561E-1,0E0,1.6367717E0,1.9347754E0,1.5146298E0,1.0046701E0,1.5551872E0,1.6753101E0,1.4504242E0,1.854003E0,8.074951E-1,6.8999994E-1,1.2981663E0,1.0537696E0,1.6602652E0,8.426666E-1,0E0,0E0,6.287879E-1,7.784027E-1,5.540933E-1,0E0,6.791135E-1,1.4554691E0,0E0,0E0,9.991772E-1,1.2799261E0,8.084028E-1,1.1582308E0,0E0,1.151984E0,6.8882436E-1,9.673853E-1,0E0,7.3069876E-1,1.0851884E0,0E0,1.0627527E0,6.142857E-1,4.4687718E-1,1.2963676E0,1.4514809E0,9.711952E-1,7.0538723E-1,5.302325E-1,7.9988027E-1,1.0279121E0,9.134426E-1,1.1397012E0,1.7172081E0,1.6902957E0,1.151515E0,0E0,5.553334E-1,3.9533332E-1,0E0,5.813333E-1,1.426155E0,7.314324E-1,0E0,7.0622504E-1,6.142857E-1,2.2014055E0,8.053746E-1,0E0,6.435833E-1,4.4254765E-1,7.263887E-1,0E0,7.5292397E-1,8.319999E-1,1.2192081E0,5.553334E-1,1.0227482E0,5.6692046E-1,1.1012955E0,1.3451059E0,4.339831E-1,9.756899E-1,4.6180552E-1,2.0265217E0,1.5923238E0,9.8034334E-1,0E0,0E0,5.813333E-1,5.150476E-1,1.1463652E0,0E0,1.176115E0,1.1634426E0,1.0999718E0,1.4191837E0,4.8636273E-1,1.3579861E0,0E0,8.319999E-1,0E0,5.813333E-1,1.3275447E0,2.1746807E0,6.6258824E-1,1.836328E0,1.0250397E0,3.6001635E-1,0E0,1.3734999E0,6.0600543E-1,9.6208334E-1,0E0,7.47818E-1,0E0,0E0,0E0,0E0,0E0,0E0,0E0,0E0,3.8334328E-1,7.132501E-1,1.1126666E0,5.2004164E-1,0E0,0E0,1.0770831E0,0E0,0E0,0E0,0E0,0E0,0E0,0E0,0E0,0E0,0E0,0E0,0E0,0E0,0E0,0E0,0E0,0E0,0E0,0E0,0E0,0E0,0E0,0E0,0E0,0E0,0E0,0E0,0E0,0E0,0E0,0E0,0E0,0E0,0E0,0E0,0E0,0E0,0E0,0E0,0E0,0E0,0E0,0E0,0E0,0E0,0E0,0E0,0E0,0E0,0E0,0E0,0E0,0E0,0E0,0E0,0E0,0E0,0E0,0E0,0E0,0E0,0E0,0E0,0E0,0E0,0E0,0E0,0E0,0E0,0E0,0E0,0E0,0E0,0E0,0E0,0E0,0E0,0E0,0E0,0E0,0E0,0E0,0E0,0E0,0E0,0E0,0E0,0E0,0E0],"parents":[2147483647,0,0,1,1,2,2,3,3,4,4,6,6,7,7,8,8,9,9,10,10,11,11,12,12,13,13,14,14,15,15,16,16,17,17,18,18,19,19,20,20,21,21,22,22,23,23,24,24,25,25,27,27,28,28,29,29,30,30,31,31,32,32,33,33,34,34,35,35,36,36,37,37,38,38,39,39,40,40,43,43,44,44,45,45,47,47,48,48,51,51,52,52,53,53,54,54,56,56,57,57,58,58,60,60,61,61,63,63,64,64,65,65,66,66,67,67,68,68,69,69,70,70,71,71,72,72,73,73,74,74,75,75,76,76,77,77,79,79,80,80,82,82,83,83,84,84,86,86,87,87,88,88,89,89,91,91,92,92,93,93,95,95,96,96,97,97,98,98,99,99,100,100,101,101,102,102,103,103,104,104,105,105,106,106,107,107,108,108,111,111,112,112,113,113,115,115,116,116,117,117,118,118,119,119,120,120,122,122,124,124,125,125,126,126,127,127,128,128,129,129,130,130,132,132,133,133,134,134,136,136,145,145,146,146,147,147,148,148,151,151],"right_children":[2,4,6,8,10,-1,12,14,16,18,20,22,24,26,28,30,32,34,36,38,40,42,44,46,48,50,-1,52,54,56,58,60,62,64,66,68,70,72,74,76,78,-1,-1,80,82,84,-1,86,88,-1,-1,90,92,94,96,-1,98,100,102,-1,104,106,-1,108,110,112,114,116,118,120,122,124,126,128,130,132,134,136,-1,138,140,-1,142,144,146,-1,148,150,152,154,-1,156,158,160,-1,162,164,166,168,170,172,174,176,178,180,182,184,186,188,-1,-1,190,192,194,-1,196,198,200,202,204,206,-1,208,-1,210,212,214,216,218,220,222,-1,224,226,228,-1,230,-1,-1,-1,-1,-1,-1,-1,-1,232,234,236,238,-1,-1,240,-1,-1,-1,-1,-1,-1,-1,-1,-1,-1,-1,-1,-1,-1,-1,-1,-1,-1,-1,-1,-1,-1,-1,-1,-1,-1,-1,-1,-1,-1,-1,-1,-1,-1,-1,-1,-1,-1,-1,-1,-1,-1,-1,-1,-1,-1,-1,-1,-1,-1,-1,-1,-1,-1,-1,-1,-1,-1,-1,-1,-1,-1,-1,-1,-1,-1,-1,-1,-1,-1,-1,-1,-1,-1,-1,-1,-1,-1,-1,-1,-1,-1,-1,-1,-1,-1,-1,-1,-1],"split_conditions":[7.5037836E2,3.9368023E1,7.0710677E-1,2.2030394E2,7.216953E0,4.5665447E1,1.0958038E3,1.7766281E2,2.134973E2,4.368841E-1,2.1930371E-1,2E0,1.1488727E3,2.1795703E2,4.196384E0,1.9549098E2,2.2755432E2,4.3120834E-1,1.0407433E2,4E0,9.219719E-1,6.234898E-1,-7.818315E-1,1.01700543E3,4.3388373E-1,1.2692317E-2,-1.1766068E0,7E0,7.297156E-1,3.5254556E-1,1.9562216E2,2.2345134E2,1E0,2.642887E1,1.9811154E2,2.1091098E2,8.660254E-1,1.9298875E2,8.2343216E1,5.2506374E1,4E0,-7.2980456E0,4.808778E1,9.7850946E2,2.3E1,-7.818315E-1,4.3439133E1,1.1115209E3,3E0,4.685979E-1,-3.4695894E-1,1.2902817E1,1.9240233E2,1.9410808E2,1.9936191E2,-7.034683E-1,7.919587E-1,6.964497E-1,8.5943915E-2,-3.500931E-1,2.245197E2,-7.818315E-1,3.3823854E-1,1.9979712E2,6.16927E-1,0E0,9.749279E-1,-7.818315E-1,2.0382736E2,2.2820924E2,9.503574E-1,7.4124944E-1,6.6359025E-1,2.8138655E-1,4.0781307E-1,1.9661058E2,4.3388373E-1,4.3898675E-1,1.7014023E0,8.72384E2,4.1081598E-1,4.2585358E1,4.3388373E-1,9.7633606E2,2.2592003E1,4.632717E1,-7.818315E-1,1.0147113E3,9.6389233E2,7.8096175E-1,1.5690202E0,-2.5881904E-1,2.0010896E2,5.319033E-2,1.6154922E0,1.9903297E1,3.133952E0,2.048205E1,7.818315E-1,-9.9961795E-2,6.0131087E0,5.0177794E-2,5.4953046E0,7.0710677E-1,7.528262E-1,7.0710677E-1,1.6307062E0,1.913169E2,4.4336224E-1,2.4077516E0,-9.1661686E-1,2.0565562E2,5.314583E-1,1.9228268E-1,1.9871369E-1,2.0134102E2,2.0320909E2,2.0257495E2,1.7677673E1,8.755804E0,1E1,4.5044985E-1,7.818315E-1,4.6195784E-1,1.5325482E0,2.4587288E1,4.4114067E1,7.431337E-1,3.8388056E-1,6.378297E-2,1.0670634E2,2.4977417E-1,8.743298E-1,1.9074667E2,1.8E1,1.8681488E0,6.691949E-1,5.0219463E1,-1.2709297E1,-1.8372345E0,5.8094707E1,-1.5348739E1,5.004496E1,-2.1003313E1,4.2255352E1,8.72384E2,1.019548E3,8.2968225E2,1.5061499E3,6.227952E1,-2.3338415E1,9.3595435E2,4.3977882E1,-1.406572E0,-1.1130341E0,2.1805284E0,-1.2921143E0,1.4246874E-1,-9.4060916E-1,-1.391095E0,-8.9921874E-1,-1.2551584E0,3.1911638E0,1.2428391E0,-7.9803467E-1,-6.845474E-1,-5.8554995E-1,-1.1923981E0,3.7023346E0,-8.993576E-1,-1.6058318E-1,-4.7060457E-1,4.4104385E-1,-5.916763E-1,-8.681117E-1,-9.605994E-3,-7.3190945E-1,3.069852E-1,-2.607666E-1,-3.5924408E-1,-5.7818455E-1,2.697998E-1,-7.838883E-1,-1.0760442E0,-1.089368E0,-1.1328135E0,-8.316553E-1,-8.263669E-1,-6.286481E-1,-1.0253311E0,2.0500138E0,-5.3999025E-1,1.0674247E0,-1.1317549E0,1.9292663E0,-5.79299E-3,-6.306546E-1,-7.3393065E-1,-9.893568E-1,-7.0494753E-1,-4.537076E-1,-7.6770467E-1,-1.2053003E0,-5.9365237E-1,4.9516296E-1,6.918152E-1,-1.1352152E0,1.2505798E-1,-9.3983155E-1,-9.8840946E-1,1.6164078E0,-4.6435332E-1,-1.2159075E0,-1.0369873E0,-7.626707E-1,3.5153872E-1,-5.423935E-1,-1.0601752E0,-8.359782E-1,-1.0857755E0,5.76944E-1,2.4687317E-1,-4.7647402E-1,-1.2716538E0,3.4984345E0,-1.3111649E0,2.234929E-1,-8.7831575E-1,-1.2781632E0,-1.1194108E0,3.33985E0,-1.3894553E1,3.955571E1,-1.3156209E1,5.4318195E1,8.097343E1,-1.00797415E1,1.4456482E-1,-4.9413148E-1,5.6347626E1,-1.55367E1],"split_indices":[17,22,1,15,12,0,15,8,16,23,18,4,15,14,12,11,14,23,22,4,19,3,2,11,2,18,0,7,19,12,10,15,3,13,11,14,0,10,22,22,4,0,0,11,7,2,0,10,4,0,0,13,10,10,9,0,21,12,18,0,8,2,0,11,19,2,2,2,10,14,19,20,21,20,20,10,2,23,0,8,12,0,2,11,12,0,2,9,10,23,0,0,9,18,0,12,13,13,2,18,13,18,12,0,23,0,12,8,20,0,0,9,13,18,0,10,8,11,13,13,7,0,2,0,13,12,22,23,21,18,22,0,19,9,7,0,20,0,0,0,0,0,0,0,0,8,9,11,11,0,0,16,0,0,0,0,0,0,0,0,0,0,0,0,0,0,0,0,0,0,0,0,0,0,0,0,0,0,0,0,0,0,0,0,0,0,0,0,0,0,0,0,0,0,0,0,0,0,0,0,0,0,0,0,0,0,0,0,0,0,0,0,0,0,0,0,0,0,0,0,0,0,0,0,0,0,0,0,0,0,0,0,0,0,0,0,0,0,0,0,0],"split_type":[0,0,0,0,0,0,0,0,0,0,0,0,0,0,0,0,0,0,0,0,0,0,0,0,0,0,0,0,0,0,0,0,0,0,0,0,0,0,0,0,0,0,0,0,0,0,0,0,0,0,0,0,0,0,0,0,0,0,0,0,0,0,0,0,0,0,0,0,0,0,0,0,0,0,0,0,0,0,0,0,0,0,0,0,0,0,0,0,0,0,0,0,0,0,0,0,0,0,0,0,0,0,0,0,0,0,0,0,0,0,0,0,0,0,0,0,0,0,0,0,0,0,0,0,0,0,0,0,0,0,0,0,0,0,0,0,0,0,0,0,0,0,0,0,0,0,0,0,0,0,0,0,0,0,0,0,0,0,0,0,0,0,0,0,0,0,0,0,0,0,0,0,0,0,0,0,0,0,0,0,0,0,0,0,0,0,0,0,0,0,0,0,0,0,0,0,0,0,0,0,0,0,0,0,0,0,0,0,0,0,0,0,0,0,0,0,0,0,0,0,0,0,0,0,0,0,0,0,0,0,0,0,0,0,0,0,0,0,0,0,0],"sum_hessian":[2.7774E4,9.28E3,1.8494E4,2.281E3,6.999E3,1.728E4,1.214E3,1.38E2,2.143E3,5.29E3,1.709E3,6.6E1,1.148E3,2.8E1,1.1E2,2.015E3,1.28E2,3.87E2,4.903E3,1.613E3,9.6E1,1E1,5.6E1,1.045E3,1.03E2,2.7E1,1E0,7.1E1,3.9E1,1.26E2,1.889E3,6.4E1,6.4E1,3.24E2,6.3E1,4.748E3,1.55E2,1.408E3,2.05E2,8.2E1,1.4E1,8E0,2E0,1E1,4.6E1,9.26E2,1.19E2,7.3E1,3E1,2.6E1,1E0,1.8E1,5.3E1,1.5E1,2.4E1,4E0,1.22E2,2.04E2,1.685E3,3E0,6.1E1,5.5E1,9E0,3.18E2,6E0,1.8E1,4.5E1,6.73E2,4.075E3,1.07E2,4.8E1,6E1,1.348E3,1.53E2,5.2E1,1.5E1,6.7E1,1.2E1,2E0,5E0,5E0,4.2E1,4E0,1.29E2,7.97E2,4.9E1,2.4E1,6E0,2.4E1,1.5E1,3E0,9E0,4.4E1,8E0,7E0,1.8E1,6E0,1.17E2,5E0,2.7E1,1.77E2,1.283E3,4.02E2,4E1,2.1E1,8E0,4.7E1,1.39E2,1.79E2,1E0,5E0,4E0,1.4E1,4.1E1,4E0,1E2,5.73E2,3.023E3,1.052E3,8.4E1,2.3E1,4.2E1,6E0,5.6E1,4E0,1.047E3,3.01E2,2E1,1.33E2,1.7E1,3.5E1,4E0,1.1E1,4.4E1,2.3E1,2E0,1E1,1E0,4E0,1E0,4E0,2E0,2E0,2E0,1.27E2,7.9E2,7E0,9E0,1.5E1,1E0,5E0,7E0,1.7E1,9E0,6E0,2E0,7E0,2.8E1,1.6E1,5E0,3E0,1.7E1,1E0,4E0,2E0,1.14E2,3E0,4E0,1E0,9E0,1.8E1,1.07E2,7E1,1.157E3,1.26E2,2.66E2,1.36E2,3.3E1,7E0,1.5E1,6E0,7E0,1E0,1.2E1,3.5E1,4.2E1,9.7E1,7.7E1,1.02E2,2E0,2E0,1E0,1.3E1,3.8E1,3E0,8.2E1,1.8E1,4.61E2,1.12E2,2.598E3,4.25E2,1.002E3,5E1,6.5E1,1.9E1,8E0,1.5E1,4E0,2E0,2E0,2E0,1.015E3,3.2E1,1.9E1,2.82E2,1.6E1,4E0,2.1E1,1.12E2,1.1E1,6E0,3.3E1,2E0,9E0,2E0,4E0,4E1,1.9E1,4E0,9E0,1E0,6.3E1,7.27E2,4E0,3E0,4E0,5E0,1.4E1,1E0,2E0,5E0],"tree_param":{"num_deleted":"0","num_feature":"26","num_nodes":"241","size_leaf_vector":"1"}},{"base_weights":[2.8489938E-2,-1.0472846E-1,9.44535E-2,-1.1508166E-1,-8.887964E-2,9.99942E-3,1.5339971E-2,-1.0288338E-1,-1.4503768E-1,-7.905811E-2,-1.3670473E-1,2.177349E-2,-9.264705E-2,-1.0991949E-1,-4.728506E-2,-1.5717407E-1,-6.863636E-2,-7.381118E-2,-1.8962961E-1,1.9801984E-2,-1.6725145E-1,-8.7142855E-2,2.8878508E-2,-3.6363634E-1,-3.9655168E-2,-1.0874711E-1,-3.7333333E-1,-1.8032786E-1,-2.5916226E-2,-8.3812945E-2,-1.7563868E-1,-1.2462686E-1,1.8390808E-2,3.787879E-2,-7.642218E-2,-5.6896545E-2,-2.8589743E-1,-2.7272725E-1,5.494506E-2,-1.8971291E-1,-6.770833E-2,-4.9166664E-1,-3.3898267E-3,3.2350145E-2,-1.5499999E-1,8E-3,-6.285714E-1,-4.125E-1,1.9607846E-2,-1.0304194E-1,-1.605263E-1,-6.6249996E-1,-3.7499994E-2,-4.0416667E-1,-3.421052E-2,2.209945E-2,-6.881188E-2,-3.6363634E-1,-7.201492E-2,-1.9252232E-1,-9.950248E-2,3.4375004E-2,-1.7281553E-1,6.769231E-2,-1.2173913E-1,6.71875E-2,-6E-2,-8.203522E-2,-1.6597506E-2,-1.9583333E-1,4.0000003E-2,-3.362319E-1,9.000001E-3,8E-3,-4.8571426E-1,9.861111E-3,-1.05E-1,-7.2E-2,-1.8285023E-1,7.792211E-3,-3.55E-1,-6.8888885E-1,7.5000003E-3,4.2592596E-2,-4.1666666E-1,-4.0999994E-2,4.002101E-2,8.333337E-3,-3.5555553E-1,5.0000004E-3,-7.5E-2,-7.2E-2,7.5000003E-3,-2.4999999E-1,5.4347828E-2,1.7567571E-2,-1.0593442E-1,-1.1585365E-1,-2.7216494E-1,-7.714286E-2,5.0000004E-3,-4.4999998E-2,8.571429E-3,-2.2222219E-2,-5.9375E-1,-2.4444443E-1,3.0000003E-2,3.6571432E-2,-3.4285712E-1,-1.2045454E-1,2.8169017E-2,-6.285714E-1,8E-3,-4.635193E-2,-2.361111E-1,-8.469387E-2,-2.0550688E-1,-6.994535E-2,-3.7894735E-1,9.655173E-3,-4.2499998E-1,-3.7837833E-2,-2.4477611E-1,9.830508E-3,-1.9999999E-1,-2.1874999E-1,8.75E-3,9.824562E-3,-1.625E-1,-8.8805966E-2,-2.6258988E-2,-4.1666666E-1,-6.3559283E-3,9.000001E-3,-3.7333333E-1,6.764706E-2,-4.4999998E-2,-8.2352936E-2,-4.1132075E-1,-7.2E-2,6.6666673E-3,-4.1666666E-1,2.666667E-2,-3.728813E-2,-2.0646067E-1,-1.5625E-1,5E-2,8.571429E-3,-5.5E-1,-7.875E-2,5.0000004E-3,7.884616E-2,-6E-2,-6.7499995E-2,6.6666673E-3,-3.6363634E-1,-1.1111074E-3,6.125761E-2,1.7173916E-2,9.000001E-3,-2.6666665E-1,7.5000003E-3,-5.833333E-1,-6E-2,7.5000003E-3,7.5555556E-2,-4.4999998E-2,-3.2E-2,4.1428576E-3,-2.4255319E-2,-1.0376165E-2,-2.048E-2,-2.3770488E-3,-2.1882353E-2,-6E-2,8.75E-3,-4.4999998E-2,6.6666673E-3,-6.928571E-2,8E-3,-5.1999997E-2,6.206897E-3,-4.4999998E-2,-1.04E-2,5.960265E-3,-5.1999997E-2,6.6666673E-3,-2.9166667E-2,-5.56701E-3,5.507247E-3,-6E-2,5.0000004E-3,-7.5E-2,5.441177E-3,-8.73494E-3,-4.041667E-2,9.230769E-3,-3.6923077E-2,-4.0697674E-3,-2.5246305E-2,-1.5659897E-2,-1.221374E-2,6.037736E-3,8E-3,-5.0666668E-2,5.0000004E-3,-6E-2,-5.1999997E-2,3.636364E-3,-9.1891885E-3,-4.1935485E-2,-4.25E-2,7.5000003E-3,-6.7499995E-2,-6.1538457E-3,-4.25E-2,8E-3,-8.444954E-3,-1.8383838E-2,1.7486342E-3,-1.09375E-2,-6.7499995E-2,6.6666673E-3,-4.7552446E-3,5.638298E-3,-6.0999997E-2,8.333334E-3,-8.333333E-3,9.655173E-3,-3.4285713E-2,9.09091E-3,-5.138889E-2,-1.8333333E-2,-6.7499995E-2,6.6666673E-3,9.2857145E-3,-4.4999998E-2,9.714286E-3,-2.24E-2,-3.0294118E-2,-1.6705882E-2,8.75E-3,-3.5555553E-2,-4.4999998E-2,6.5573775E-3,-8.1E-2,8E-3,-5.7142857E-3,9.782609E-3,8E-3,-6.285714E-2,-8.2E-3,9.7560985E-3,7.1459697E-3,-7.428571E-3,9.912281E-3,-9.798267E-4,5.0000004E-3,-4.4999998E-2,5.0000004E-3,-7.2E-2,9.761905E-3,-1.75E-2],"categories":[],"categories_nodes":[],"categories_segments":[],"categories_sizes":[],"default_left":[0,0,0,0,0,0,0,0,0,0,0,0,0,0,0,0,0,0,0,0,0,0,0,0,0,0,0,0,0,0,0,0,0,0,0,0,0,0,0,0,0,0,0,0,0,0,0,0,0,0,0,0,0,0,0,0,0,0,0,0,0,0,0,0,0,0,0,0,0,0,0,0,0,0,0,0,0,0,0,0,0,0,0,0,0,0,0,0,0,0,0,0,0,0,0,0,0,0,0,0,0,0,0,0,0,0,0,0,0,0,0,0,0,0,0,0,0,0,0,0,0,0,0,0,0,0,0,0,0,0,0,0,0,0,0,0,0,0,0,0,0,0,0,0,0,0,0,0,0,0,0,0,0,0,0,0,0,0,0,0,0,0,0,0,0,0,0,0,0,0,0,0,0,0,0,0,0,0,0,0,0,0,0,0,0,0,0,0,0,0,0,0,0,0,0,0,0,0,0,0,0,0,0,0,0,0,0,0,0,0,0,0,0,0,0,0,0,0,0,0,0,0,0,0,0,0,0,0,0,0,0,0,0,0,0,0,0,0,0,0,0,0,0,0,0,0,0,0,0,0,0,0,0,0,0,0,0,0,0,0,0,0,0],"id":6,"left_children":[1,3,5,7,9,-1,11,13,15,17,19,21,23,25,27,29,31,33,35,37,39,41,43,45,47,49,51,53,55,57,59,61,63,65,67,69,71,73,75,77,79,81,83,85,87,-1,89,91,93,95,97,99,101,103,105,107,109,111,113,115,117,119,121,123,125,127,-1,129,131,133,135,137,-1,-1,139,-1,141,-1,143,145,147,149,-1,151,153,155,157,159,161,-1,-1,-1,-1,163,165,167,169,171,173,-1,-1,-1,-1,175,177,179,181,183,185,187,189,191,-1,193,195,197,199,201,203,-1,205,207,209,-1,211,213,-1,-1,215,217,219,221,223,-1,225,227,-1,229,231,-1,-1,233,235,237,239,241,243,-1,245,-1,-1,247,-1,-1,-1,249,251,253,255,-1,257,-1,259,-1,-1,261,-1,-1,-1,-1,-1,-1,-1,-1,-1,-1,-1,-1,-1,-1,-1,-1,-1,-1,-1,-1,-1,-1,-1,-1,-1,-1,-1,-1,-1,-1,-1,-1,-1,-1,-1,-1,-1,-1,-1,-1,-1,-1,-1,-1,-1,-1,-1,-1,-1,-1,-1,-1,-1,-1,-1,-1,-1,-1,-1,-1,-1,-1,-1,-1,-1,-1,-1,-1,-1,-1,-1,-1,-1,-1,-1,-1,-1,-1,-1,-1,-1,-1,-1,-1,-1,-1,-1,-1,-1,-1,-1,-1,-1,-1,-1,-1,-1],"loss_changes":[2.4186111E2,1.4854202E0,8.06749E0,1.998497E0,1.6829891E0,0E0,8.398694E-1,1.5279007E0,1.4653702E0,1.7230034E0,2.9339228E0,8.8393474E-1,9.620759E-1,1.0334816E0,1.2519195E0,1.8451233E0,1.074285E0,8.3693314E-1,1.7087531E0,1.0533031E0,1.1341629E0,2.3699398E0,6.8805903E-1,1.3431689E0,1.2896509E0,1.006752E0,1.4318333E0,1.9812838E0,7.883123E-1,8.915918E-1,1.3897057E0,1.03266E0,6.0929036E-1,1.2742093E0,9.371929E-1,7.88658E-1,1.5060668E0,8.6524665E-1,6.459135E-1,1.3895292E0,2.085071E0,1.3927779E0,1.1389517E0,5.929955E-1,6.581113E-1,0E0,6.142857E-1,1.2532499E0,4.9126172E-1,1.0913544E0,1.6740894E0,6.594641E-1,4.4517857E-1,1.7246525E0,5.203041E-1,9.685165E-1,1.0150801E0,1.3431689E0,1.1176571E0,1.2370911E0,1.6336719E0,9.550323E-1,9.911847E-1,5.5232334E-1,4.8600546E-1,4.725191E-1,0E0,9.6255684E-1,9.848105E-1,1.25125E0,5.0458825E-1,1.281507E0,0E0,0E0,9.539046E-1,0E0,8.3183336E-1,0E0,1.4151297E0,5.4094964E-1,1.7659287E0,6.9513893E-1,0E0,1.3053062E0,7.9416656E-1,1.2865565E0,4.6085322E-1,2.935E-1,9.2638874E-1,0E0,0E0,0E0,0E0,7.2749996E-1,5.260193E-1,6.09305E-1,8.8019943E-1,2.0099847E0,1.5649619E0,0E0,0E0,0E0,0E0,4.6180552E-1,1.0934229E0,8.462222E-1,4.897241E-1,5.7276666E-1,5.4247624E-1,1.4478911E0,1.2329372E0,6.142857E-1,0E0,9.672888E-1,2.0242414E0,1.2117903E0,1.7953873E0,1.2521055E0,1.1542456E0,0E0,3.6249995E-1,1.3426634E0,1.7497168E0,0E0,4.6499997E-1,1.1061058E0,0E0,0E0,5.4324996E-1,9.2757034E-1,1.0127031E0,7.9416656E-1,6.1265254E-1,0E0,1.6720002E0,1.5642323E-1,0E0,7.9847205E-1,1.1451511E0,0E0,0E0,7.9416656E-1,5.150476E-1,1.5026517E0,1.3027287E0,8.084028E-1,5.1229507E-1,0E0,2.3579998E0,0E0,0E0,1.3980529E-1,0E0,0E0,0E0,1.3431689E0,7.263327E-1,6.870413E-1,1.0177279E0,0E0,1.9666664E-1,0E0,5.553334E-1,0E0,0E0,2.658492E-1,0E0,0E0,0E0,0E0,0E0,0E0,0E0,0E0,0E0,0E0,0E0,0E0,0E0,0E0,0E0,0E0,0E0,0E0,0E0,0E0,0E0,0E0,0E0,0E0,0E0,0E0,0E0,0E0,0E0,0E0,0E0,0E0,0E0,0E0,0E0,0E0,0E0,0E0,0E0,0E0,0E0,0E0,0E0,0E0,0E0,0E0,0E0,0E0,0E0,0E0,0E0,0E0,0E0,0E0,0E0,0E0,0E0,0E0,0E0,0E0,0E0,0E0,0E0,0E0,0E0,0E0,0E0,0E0,0E0,0E0,0E0,0E0,0E0,0E0,0E0,0E0,0E0,0E0,0E0,0E0,0E0,0E0,0E0,0E0,0E0,0E0,0E0,0E0,0E0,0E0,0E0,0E0,0E0,0E0,0E0,0E0,0E0],"parents":[2147483647,0,0,1,1,2,2,3,3,4,4,6,6,7,7,8,8,9,9,10,10,11,11,12,12,13,13,14,14,15,15,16,16,17,17,18,18,19,19,20,20,21,21,22,22,23,23,24,24,25,25,26,26,27,27,28,28,29,29,30,30,31,31,32,32,33,33,34,34,35,35,36,36,37,37,38,38,39,39,40,40,41,41,42,42,43,43,44,44,46,46,47,47,48,48,49,49,50,50,51,51,52,52,53,53,54,54,55,55,56,56,57,57,58,58,59,59,60,60,61,61,62,62,63,63,64,64,65,65,67,67,68,68,69,69,70,70,71,71,74,74,76,76,78,78,79,79,80,80,81,81,83,83,84,84,85,85,86,86,87,87,88,88,93,93,94,94,95,95,96,96,97,97,98,98,103,103,104,104,105,105,106,106,107,107,108,108,109,109,110,110,111,111,113,113,114,114,115,115,116,116,117,117,118,118,120,120,121,121,122,122,124,124,125,125,128,128,129,129,130,130,131,131,132,132,134,134,135,135,137,137,138,138,141,141,142,142,143,143,144,144,145,145,146,146,148,148,151,151,155,155,156,156,157,157,158,158,160,160,162,162,165,165],"right_children":[2,4,6,8,10,-1,12,14,16,18,20,22,24,26,28,30,32,34,36,38,40,42,44,46,48,50,52,54,56,58,60,62,64,66,68,70,72,74,76,78,80,82,84,86,88,-1,90,92,94,96,98,100,102,104,106,108,110,112,114,116,118,120,122,124,126,128,-1,130,132,134,136,138,-1,-1,140,-1,142,-1,144,146,148,150,-1,152,154,156,158,160,162,-1,-1,-1,-1,164,166,168,170,172,174,-1,-1,-1,-1,176,178,180,182,184,186,188,190,192,-1,194,196,198,200,202,204,-1,206,208,210,-1,212,214,-1,-1,216,218,220,222,224,-1,226,228,-1,230,232,-1,-1,234,236,238,240,242,244,-1,246,-1,-1,248,-1,-1,-1,250,252,254,256,-1,258,-1,260,-1,-1,262,-1,-1,-1,-1,-1,-1,-1,-1,-1,-1,-1,-1,-1,-1,-1,-1,-1,-1,-1,-1,-1,-1,-1,-1,-1,-1,-1,-1,-1,-1,-1,-1,-1,-1,-1,-1,-1,-1,-1,-1,-1,-1,-1,-1,-1,-1,-1,-1,-1,-1,-1,-1,-1,-1,-1,-1,-1,-1,-1,-1,-1,-1,-1,-1,-1,-1,-1,-1,-1,-1,-1,-1,-1,-1,-1,-1,-1,-1,-1,-1,-1,-1,-1,-1,-1,-1,-1,-1,-1,-1,-1,-1,-1,-1,-1,-1,-1],"split_conditions":[7.5037836E2,8.428735E-1,7.0710677E-1,7.691441E-1,2.049686E2,4.112827E1,7.717296E-1,1.3109711E1,2.2835349E2,9.9353814E-1,1.8631006E2,1.0958038E3,-1.12773895E-1,8.980315E-1,4.7910273E-1,1.8691876E2,7.1175975E-1,2.1634449E-1,5.1519096E1,2.5528702E-1,9.141749E1,2E0,1.1115209E3,9.833998E2,9.8542236E2,7.436017E-1,4.888956E-1,1.9901617E2,3.13891E0,2.5844252E-1,6.9925123E-1,-2.2252093E-1,2.0376993E2,2.040511E2,2.0363197E2,1.2246469E-16,2.2820924E2,2E0,4.737284E2,1.9152318E2,6.949739E-1,5.4603938E-2,2.3E1,9.725291E2,5.280984E-1,5.828252E1,-7.818315E-1,3E0,4.7978577E-1,1.9169691E2,6.0131087E0,2.2E1,0E0,1.8691876E2,8E0,8.7807536E-1,5.838825E-1,1.9562216E2,7.591493E1,5.9914356E-1,1.1199468E1,6.969814E-1,2.0151346E2,8.363774E-1,5E-1,9.659258E-1,-1.1406983E0,2.2949747E2,1.897845E2,1.9901617E2,2.2302519E1,2.2239105E2,9.180237E-1,1.4262848E-1,2.1196255E2,4.036374E-1,-2.2252093E-1,-1.1567688E0,2.0010896E2,2.2166377E2,1.1E1,7.818315E-1,2.836441E-1,1.0938079E3,4.3388373E-1,-2.2252093E-1,6.234898E-1,8.8543296E-1,1.262527E0,5.0070824E1,-1.8486675E1,-1.1840587E1,4.771781E1,1.4184767E0,8.9162785E-1,6.0811806E-1,4.081549E-1,2.1267316E0,2.2918484E2,-1.0077057E0,2.5629013E0,-9.1595614E-1,5.7736207E-2,6.234898E-1,4E0,2.1835902E2,2.6291853E-1,1.9693257E2,8.660254E-1,4.512525E0,3.3518032E1,-2.5881904E-1,2.230484E-1,1.9541379E2,2.2859726E2,1.93729E2,4.7232113E0,2.1365495E2,4.5244607E-1,3.0409896E-1,5E-1,2.967813E-1,8.1000334E-1,2.2723007E-1,1.5E1,2.1201468E2,1.459488E-1,9.2504597E-1,1.9989879E2,2.0310114E2,6.2157013E-2,4.3388373E-1,5.745782E-1,2.3049317E-1,2.002897E2,4.4089386E-1,-6.1752474E-1,1.7417009E0,7.0408875E-1,-8.2412875E-1,1.8679138E0,4.125078E1,7.717296E-1,9.663808E-2,5.38365E-1,6.505458E-3,4.2140526E-1,1.1566162E-2,7.0710677E-1,-6.568242E0,5.4482563E1,4.1081598E-1,-1.1438369E1,-1.3813866E1,4.5040462E1,9.334953E2,3E0,1.1456537E3,9.905034E2,2.540556E-1,5E-1,6.163025E-3,5E-1,-1.9387358E1,5.775719E1,5.196397E2,-9.417319E0,-1.1771576E0,2.6298982E-1,-7.3762006E-1,-6.508774E-1,-1.046415E0,-1.2118194E-1,-8.714089E-1,-1.1428667E0,2.2885132E-1,-1.0205902E0,2.5199586E-1,-1.2350882E0,3.6292115E-1,-1.094992E0,1.3037018E-1,-7.0611574E-2,-1.026062E0,2.25504E-1,-1.1217988E0,1.0226166E0,-9.6073973E-1,-3.1983092E-1,1.3919984E-1,-1.1122391E0,1.381241E-1,-9.1190493E-1,2.4508178E-1,-6.316516E-1,-1.0330198E0,5.016257E-1,-1.1294863E0,-8.04773E-2,-8.5401917E-1,-6.691525E-1,-6.588173E-1,3.1318727E-1,2.1049378E0,-1.0981568E0,1.6922287E0,-1.0608368E0,-7.7419895E-1,1.6664399E-1,-6.818657E-1,-1.0244788E0,-9.626679E-1,1.2224778E0,-3.138199E-1,-6.6762483E-1,-9.247513E-1,6.4317477E-1,-5.8805084E-1,-8.8460267E-1,6.9069065E-2,-7.511383E-1,-1.394844E0,2.0246124E-1,-2.9889083E-1,4.267343E-1,-1.2226517E0,9.503174E-3,-9.4711304E-1,9.296109E-1,-4.753357E-1,7.242801E-1,-9.990293E-1,-1.217451E0,-8.46904E-1,2.345349E0,5.647144E-1,-7.3869175E-1,6.1179125E-1,-8.7009734E-1,-9.8920745E-1,-8.8194656E-1,7.823639E-2,-1.2023468E0,-1.1548996E0,4.912932E-1,-1.1089112E0,2.3747423E0,-1.653511E0,3.400291E1,4.3094402E1,-1.3983029E1,-1.5898658E1,4.0223373E1,3.796851E1,-2.0876661E1,4.140958E1,-1.2194471E1,9.3763176E1,-2.3259385E0,1.0573794E2,-9.071767E0,4.149083E1,-2.3975702E1],"split_indices":[17,19,1,19,10,0,20,13,14,19,8,15,18,23,23,17,23,20,22,20,22,4,10,10,11,20,20,10,12,13,20,3,11,10,10,0,14,4,10,9,20,18,7,10,21,0,2,4,13,10,13,7,0,17,7,23,20,10,22,12,12,20,16,19,0,0,0,15,9,10,13,15,0,0,10,0,3,0,9,14,7,2,0,14,2,3,3,19,13,0,0,0,0,12,23,19,23,13,15,0,0,0,0,3,7,14,18,11,0,12,13,0,0,10,15,9,12,8,23,0,0,21,19,0,7,9,0,0,11,10,18,2,21,0,11,23,0,13,23,0,0,22,20,18,23,18,23,0,0,0,0,12,0,0,0,17,4,14,11,0,0,0,0,0,0,22,0,0,0,0,0,0,0,0,0,0,0,0,0,0,0,0,0,0,0,0,0,0,0,0,0,0,0,0,0,0,0,0,0,0,0,0,0,0,0,0,0,0,0,0,0,0,0,0,0,0,0,0,0,0,0,0,0,0,0,0,0,0,0,0,0,0,0,0,0,0,0,0,0,0,0,0,0,0,0,0,0,0,0,0,0,0,0,0,0,0,0,0,0,0,0,0,0],"split_type":[0,0,0,0,0,0,0,0,0,0,0,0,0,0,0,0,0,0,0,0,0,0,0,0,0,0,0,0,0,0,0,0,0,0,0,0,0,0,0,0,0,0,0,0,0,0,0,0,0,0,0,0,0,0,0,0,0,0,0,0,0,0,0,0,0,0,0,0,0,0,0,0,0,0,0,0,0,0,0,0,0,0,0,0,0,0,0,0,0,0,0,0,0,0,0,0,0,0,0,0,0,0,0,0,0,0,0,0,0,0,0,0,0,0,0,0,0,0,0,0,0,0,0,0,0,0,0,0,0,0,0,0,0,0,0,0,0,0,0,0,0,0,0,0,0,0,0,0,0,0,0,0,0,0,0,0,0,0,0,0,0,0,0,0,0,0,0,0,0,0,0,0,0,0,0,0,0,0,0,0,0,0,0,0,0,0,0,0,0,0,0,0,0,0,0,0,0,0,0,0,0,0,0,0,0,0,0,0,0,0,0,0,0,0,0,0,0,0,0,0,0,0,0,0,0,0,0,0,0,0,0,0,0,0,0,0,0,0,0,0,0,0,0,0,0,0,0,0,0,0,0,0,0,0,0,0,0,0,0,0,0,0,0],"sum_hessian":[2.7521E4,9.114E3,1.8407E4,5.509E3,3.605E3,1.7202E4,1.205E3,3.918E3,1.591E3,2.993E3,6.12E2,1.138E3,6.7E1,3.477E3,4.41E2,1.372E3,2.19E2,2.859E3,1.34E2,1E2,5.12E2,6.9E1,1.069E3,1E1,5.7E1,3.463E3,1.4E1,6E1,3.81E2,2.77E2,1.095E3,1.33E2,8.6E1,6.5E1,2.794E3,5.7E1,7.7E1,1E1,9E1,4.17E2,9.5E1,1.1E1,5.8E1,1.05E3,1.9E1,4E0,6E0,7E0,5E1,3.122E3,3.41E2,7E0,7E0,2.3E1,3.7E1,1.8E2,2.01E2,1E1,2.67E2,8.95E2,2E2,3.1E1,1.02E2,6.4E1,2.2E1,6.3E1,2E0,2.554E3,2.4E2,2.3E1,3.4E1,6.8E1,9E0,4E0,6E0,7.1E1,1.9E1,4E0,4.13E2,7.6E1,1.9E1,8E0,3E0,5.3E1,5E0,9.9E1,9.51E2,1.1E1,8E0,1E0,5E0,4E0,3E0,5E0,4.5E1,7.3E1,3.049E3,2.45E2,9.6E1,6E0,1E0,1E0,6E0,8E0,1.5E1,8E0,2.9E1,1.74E2,6E0,1.31E2,7E1,6E0,4E0,2.32E2,3.5E1,9.7E1,7.98E2,1.82E2,1.8E1,2.8E1,3E0,3.6E1,6.6E1,5.8E1,6E0,1.5E1,7E0,5.6E1,7E0,2.277E3,2.77E2,5E0,2.35E2,9E0,1.4E1,3.3E1,1E0,1.6E1,5.2E1,4E0,2E0,5E0,1.4E1,5.8E1,3.55E2,1.5E1,6.1E1,6E0,1.3E1,7E0,1E0,5.1E1,2E0,3E0,2E0,1E1,8.9E1,4.92E2,4.59E2,9E0,2E0,3E0,5E0,2E0,3E0,4.4E1,1E0,4E0,6.9E1,4.6E1,3.003E3,1.24E2,1.21E2,8.4E1,1.2E1,7E0,1E0,2E0,1.3E1,4E0,4E0,2.8E1,1E0,2.4E1,1.5E2,4E0,2E0,3.5E1,9.6E1,6.8E1,2E0,1E0,5E0,6.7E1,1.65E2,2.3E1,1.2E1,1.2E1,8.5E1,4.05E2,3.93E2,1.3E2,5.2E1,4E0,1.4E1,1E0,2E0,4E0,3.2E1,3.6E1,3E1,3E0,3E0,3E0,1.2E1,3E0,4E0,2.179E3,9.8E1,1.82E2,9.5E1,3E0,2E0,1.42E2,9.3E1,9E0,5E0,5E0,2.8E1,6E0,1E1,3.5E1,1.7E1,3E0,2E0,1.3E1,1E0,3.4E1,2.4E1,1.01E2,2.54E2,7E0,8E0,1E0,6E1,9E0,4E0,6E0,4.5E1,4E0,6E0,4.9E1,4E1,4.58E2,3.4E1,1.13E2,3.46E2,1E0,1E0,1E0,4E0,4.1E1,3E0],"tree_param":{"num_deleted":"0","num_feature":"26","num_nodes":"263","size_leaf_vector":"1"}},{"base_weights":[3.0389398E-2,-9.862315E-2,9.48486E-2,-8.911488E-2,-1.1899727E-1,9.999422E-3,1.794651E-2,-8.718362E-2,-2.197802E-1,-1.7647058E-1,-1.1011014E-1,-5.5033553E-2,2.8684475E-2,-1.02526054E-1,-7.684635E-2,-1.2878788E-1,-4.4230768E-1,-5.5E-1,-1.6216931E-1,-8.763308E-2,-1.3078669E-1,-4.352941E-1,-6.015034E-3,3.0456353E-2,-4.2499998E-1,-1.0036275E-1,-4.7857141E-1,-4.7716144E-2,-9.118712E-2,-1.3333329E-2,-3.590909E-1,-5.7142854E-2,-5.55E-1,8E-3,-8.1E-2,-1.3111888E-1,-2.5591397E-1,-9.684115E-2,2.6315826E-3,-1.1990008E-1,-2.3688523E-1,-6.583333E-1,8.333334E-3,-2.588235E-1,3.0769235E-2,3.4308784E-2,-1.8333332E-1,-6E-2,5.0000004E-3,-6.0987256E-2,-1.13646165E-1,-7.1E-1,8E-3,-7.489597E-2,-8.893277E-3,-1.0183896E-1,-4.5780584E-2,-2.1874999E-1,9.666667E-3,1.5384618E-2,-8.1E-2,8.333334E-3,-4.4999998E-2,-6.2777776E-1,6.6666673E-3,-2.3026314E-1,-9.4786726E-2,8.75E-3,-2.848837E-1,-1.3223818E-1,-6.897105E-2,2.9702973E-2,-1.9285713E-1,-1.1533897E-1,-3.590909E-1,-2.669643E-1,9.09091E-3,5.0000004E-3,-7.272727E-1,8.888889E-3,-5.7777774E-1,-3.396226E-2,8.3076924E-2,1.21085625E-2,5.4970764E-2,-5.833333E-1,1.5384618E-2,-5.7017505E-3,-9.2269324E-2,-1.0477053E-1,-1.8693466E-1,5.0000004E-3,-8E-2,1.2173916E-2,-9.1268525E-2,-6.024059E-4,-4.6666664E-1,-5.9164416E-2,-1.2667191E-1,-2.9977623E-2,-2.9642856E-1,-4.6666664E-1,8.75E-3,9.09091E-3,-2.6666665E-1,-7.1875E-1,6.6666673E-3,-1.265306E-1,-4.0357143E-1,-4.692307E-2,-1.6951218E-1,-3.1375E-1,8.571429E-3,-1.680645E-1,-6.910112E-2,7.5555556E-2,-8.01038E-2,4.6875004E-2,-2.4999999E-1,-4.125E-1,8.571429E-3,-1.1333899E-1,-6.7499995E-2,-5.75E-1,-9.0909086E-2,-6.999999E-2,-3.3493975E-1,-8.1E-2,5.0000004E-3,-7.714286E-2,6.6666673E-3,-2.4E-1,4.6153847E-2,9.830508E-3,-5.7142854E-2,3.794118E-2,-5.071428E-2,5.870842E-2,-6E-2,5.0000004E-3,-7.2E-2,9.166667E-3,-4.4999998E-2,2.1354172E-3,-1.4594594E-2,-1.9139785E-2,-6.213592E-3,-5.154639E-3,-1.160322E-2,-6.625E-2,-1.6614584E-2,-9.677419E-3,5.176471E-3,-1.7803468E-2,-5.6551723E-3,3.735409E-3,-4.0909084E-3,-7.5E-2,7.5000003E-3,-4.5705964E-3,-2.232143E-2,-3.6999997E-2,-1.2069243E-2,-8.310811E-3,-3.666663E-4,-1.9583333E-2,-7.2E-2,7.5000003E-3,-7.5E-2,5.0000004E-3,-4.4999998E-2,-1.75E-2,-8.307692E-2,-4.125E-2,-6.904762E-3,8.571429E-3,-5.4090906E-2,-2.7272725E-2,-2.583333E-3,-3.4814816E-2,-8.035714E-3,-2.4927536E-2,-6.583333E-2,-1.9776952E-2,2.6190479E-3,-2.7215185E-3,-3.8095236E-2,9.767442E-3,-2.6666665E-2,-1.7258879E-3,-1.1230366E-2,5.684211E-3,-4.4999998E-2,7.5000003E-3,-6E-2,-5.8333334E-2,6.6666673E-3,-6.1538457E-3,-1.2883978E-2,6.6666673E-3,-7.1E-2,-6E-2,8.888889E-3,-5.1999997E-2,1.9230772E-3,-2.4590163E-2,-5.565217E-2,3.3866276E-10,-7.2E-2,-4.4999998E-2,7.1052634E-3,-4.4999998E-2,8.333334E-3,5.943775E-3,-2.065217E-3,-1.51785705E-2,1.6470592E-3,6.40873E-3,-2.875E-2],"categories":[],"categories_nodes":[],"categories_segments":[],"categories_sizes":[],"default_left":[0,0,0,0,0,0,0,0,0,0,0,0,0,0,0,0,0,0,0,0,0,0,0,0,0,0,0,0,0,0,0,0,0,0,0,0,0,0,0,0,0,0,0,0,0,0,0,0,0,0,0,0,0,0,0,0,0,0,0,0,0,0,0,0,0,0,0,0,0,0,0,0,0,0,0,0,0,0,0,0,0,0,0,0,0,0,0,0,0,0,0,0,0,0,0,0,0,0,0,0,0,0,0,0,0,0,0,0,0,0,0,0,0,0,0,0,0,0,0,0,0,0,0,0,0,0,0,0,0,0,0,0,0,0,0,0,0,0,0,0,0,0,0,0,0,0,0,0,0,0,0,0,0,0,0,0,0,0,0,0,0,0,0,0,0,0,0,0,0,0,0,0,0,0,0,0,0,0,0,0,0,0,0,0,0,0,0,0,0,0,0,0,0,0,0,0,0,0,0,0,0,0,0,0,0,0,0,0,0,0,0,0,0,0,0,0,0,0,0],"id":7,"left_children":[1,3,5,7,9,-1,11,13,15,17,19,21,23,25,27,29,31,33,35,37,39,41,43,45,47,49,51,53,55,57,59,61,63,-1,-1,65,67,69,71,73,75,77,-1,79,81,83,85,-1,-1,87,89,91,-1,93,95,97,99,101,-1,103,-1,-1,-1,105,-1,107,109,-1,111,113,115,117,119,121,123,125,-1,-1,127,-1,129,131,133,135,137,139,141,143,145,147,149,-1,-1,151,153,155,157,159,161,163,165,167,-1,-1,169,171,-1,173,175,177,179,181,-1,183,185,187,189,191,193,195,-1,197,-1,199,201,203,205,-1,-1,-1,-1,207,209,-1,211,213,215,217,-1,-1,-1,-1,-1,-1,-1,-1,-1,-1,-1,-1,-1,-1,-1,-1,-1,-1,-1,-1,-1,-1,-1,-1,-1,-1,-1,-1,-1,-1,-1,-1,-1,-1,-1,-1,-1,-1,-1,-1,-1,-1,-1,-1,-1,-1,-1,-1,-1,-1,-1,-1,-1,-1,-1,-1,-1,-1,-1,-1,-1,-1,-1,-1,-1,-1,-1,-1,-1,-1,-1,-1,-1,-1,-1,-1,-1,-1,-1,-1,-1],"loss_changes":[2.3023076E2,1.7762909E0,7.303406E0,1.5688744E0,1.4781532E0,0E0,9.098375E-1,9.759102E-1,1.7856307E0,1.9995079E0,1.1699276E0,2.7747133E0,8.256602E-1,1.9808426E0,1.5454998E0,1.750121E0,1.0968189E0,2.3579998E0,1.0667315E0,1.0151062E0,1.4985771E0,2.021323E0,1.2447808E0,8.364886E-1,3.6249995E-1,1.2907333E0,1.8665712E0,1.2930074E0,1.1972389E0,1.0379583E0,3.7272584E0,4.238095E-1,9.467225E-1,0E0,0E0,1.0083818E0,9.501486E-1,1.0839415E0,6.090337E-1,1.2688408E0,1.2271576E0,6.223488E-1,0E0,1.936732E0,3.9897817E-1,4.5390642E-1,1.4397435E0,0E0,0E0,1.0855651E0,1.1864071E0,7.2400045E-1,0E0,1.0289378E0,1.9201609E0,2.124693E0,1.8686184E0,1.255625E0,0E0,3.0116552E-1,0E0,0E0,0E0,1.1850696E0,0E0,1.3152418E0,7.467158E-1,0E0,9.4690275E-1,1.0899658E0,1.0068367E0,4.9682856E-1,8.9196426E-1,1.2442884E0,1.2215908E0,1.4760938E0,0E0,0E0,7.47818E-1,0E0,1.1746027E0,8.8594484E-1,1.4441124E-1,7.7928287E-1,1.2910768E0,5.553334E-1,5.027564E-1,8.682479E-1,1.185926E0,9.866142E-1,1.8573322E0,0E0,0E0,5.010438E-1,1.8183632E0,7.6341844E-1,1.4374999E0,1.6280279E0,1.8046169E0,6.2456274E-1,1.0520594E0,1.4374999E0,0E0,0E0,1.9666664E-1,8.291826E-1,0E0,7.7699834E-1,1.9278893E0,6.120343E-1,1.2779801E0,1.6132445E0,0E0,1.7939873E0,2.3147006E0,3.6667702E-1,1.167701E0,5.010098E-1,7.2749996E-1,6.937499E-1,0E0,9.371414E-1,0E0,1.086833E0,1.0602019E0,1.2146155E0,1.5006771E0,0E0,0E0,0E0,0E0,1.7279998E0,5.1376516E-1,0E0,4.238095E-1,4.2947665E-1,9.531658E-1,9.700173E-1,0E0,0E0,0E0,0E0,0E0,0E0,0E0,0E0,0E0,0E0,0E0,0E0,0E0,0E0,0E0,0E0,0E0,0E0,0E0,0E0,0E0,0E0,0E0,0E0,0E0,0E0,0E0,0E0,0E0,0E0,0E0,0E0,0E0,0E0,0E0,0E0,0E0,0E0,0E0,0E0,0E0,0E0,0E0,0E0,0E0,0E0,0E0,0E0,0E0,0E0,0E0,0E0,0E0,0E0,0E0,0E0,0E0,0E0,0E0,0E0,0E0,0E0,0E0,0E0,0E0,0E0,0E0,0E0,0E0,0E0,0E0,0E0,0E0,0E0,0E0,0E0,0E0,0E0,0E0,0E0,0E0],"parents":[2147483647,0,0,1,1,2,2,3,3,4,4,6,6,7,7,8,8,9,9,10,10,11,11,12,12,13,13,14,14,15,15,16,16,17,17,18,18,19,19,20,20,21,21,22,22,23,23,24,24,25,25,26,26,27,27,28,28,29,29,30,30,31,31,32,32,35,35,36,36,37,37,38,38,39,39,40,40,41,41,43,43,44,44,45,45,46,46,49,49,50,50,51,51,53,53,54,54,55,55,56,56,57,57,59,59,63,63,65,65,66,66,68,68,69,69,70,70,71,71,72,72,73,73,74,74,75,75,78,78,80,80,81,81,82,82,83,83,84,84,85,85,86,86,87,87,88,88,89,89,90,90,93,93,94,94,95,95,96,96,97,97,98,98,99,99,100,100,101,101,104,104,105,105,107,107,108,108,109,109,110,110,111,111,113,113,114,114,115,115,116,116,117,117,118,118,119,119,121,121,123,123,124,124,125,125,126,126,131,131,132,132,134,134,135,135,136,136,137,137],"right_children":[2,4,6,8,10,-1,12,14,16,18,20,22,24,26,28,30,32,34,36,38,40,42,44,46,48,50,52,54,56,58,60,62,64,-1,-1,66,68,70,72,74,76,78,-1,80,82,84,86,-1,-1,88,90,92,-1,94,96,98,100,102,-1,104,-1,-1,-1,106,-1,108,110,-1,112,114,116,118,120,122,124,126,-1,-1,128,-1,130,132,134,136,138,140,142,144,146,148,150,-1,-1,152,154,156,158,160,162,164,166,168,-1,-1,170,172,-1,174,176,178,180,182,-1,184,186,188,190,192,194,196,-1,198,-1,200,202,204,206,-1,-1,-1,-1,208,210,-1,212,214,216,218,-1,-1,-1,-1,-1,-1,-1,-1,-1,-1,-1,-1,-1,-1,-1,-1,-1,-1,-1,-1,-1,-1,-1,-1,-1,-1,-1,-1,-1,-1,-1,-1,-1,-1,-1,-1,-1,-1,-1,-1,-1,-1,-1,-1,-1,-1,-1,-1,-1,-1,-1,-1,-1,-1,-1,-1,-1,-1,-1,-1,-1,-1,-1,-1,-1,-1,-1,-1,-1,-1,-1,-1,-1,-1,-1,-1,-1,-1,-1,-1,-1],"split_conditions":[8.5032745E2,2.0394965E2,7.0710677E-1,8.8749933E-1,2.7208814E-1,3.7002914E1,9.725291E2,1.9527315E2,7.818315E-1,2.1598088E2,2.0310114E2,-2.2252093E-1,8.980315E-1,3.0870804E-1,1.978459E2,2.2502591E2,4.9325237E-1,1.9877563E2,1.8E1,2.1164354E2,2.2723572E2,9.674194E2,1.4269653E2,5E-1,-4.3388373E-1,1.825144E2,1.982162E2,1.9015146E2,2.2932573E2,4.315114E1,5.8778687E1,1.9664432E2,2.0239919E2,4.4529113E-1,-1.3069474E0,4.125078E1,2.0447629E2,6.163906E-1,1.2508737E1,8.8797563E-1,8.0680716E-1,8.937787E2,3.8784966E1,1.1E1,6.234898E-1,1.0021302E3,-7.818315E-1,-8.475586E0,4.4997986E1,-7.117033E-2,9.749279E-1,2.245197E2,4.1303253E-1,1.9206738E2,7.8115994E-1,5.0628838E1,6.21852E2,7.0710677E-1,2.9748386E-1,2.293613E2,-9.6602935E-1,6.603714E-1,-5.009735E-1,2.2866869E2,8.330475E-1,7.8974634E-1,4.3388373E-1,9.2679447E-1,2.5695633E2,6.195638E-1,6.386697E-1,5.2E1,2.0182388E2,3.3518032E1,2.1236246E2,4.262049E-1,1.3016436E0,5.437981E1,7.919376E0,3.8519726E1,4E0,1.1056793E3,8.062869E-1,6.238235E0,2.4E1,3.853482E-2,7.431337E-1,1E0,3.3040103E-1,1.9621906E2,2.0505188E-1,2.8360292E-1,-1.1932877E0,3.470343E1,1.9770828E2,1.978617E2,7.92954E-1,2.2904536E2,1.00959085E-1,1.99707E2,8.600688E-1,1.8633804E2,4.7609407E-1,1.16529085E-1,-2.5881904E-1,0E0,1.7953186E-1,2.250592E2,1.5009733E0,6.292146E-1,6.0828743E1,2.035371E2,1.4318069E0,9.749279E-1,9.386572E1,1.1199468E1,4.4057515E-1,1.9903297E1,2.002897E2,2.1693356E2,1.8196366E0,1.5325482E0,-2.7452698E-1,4.4336224E-1,8.8957727E-1,