{"learner":{"attributes":{"scikit_learn":"{\"_estimator_type\": \"regressor\"}"},"feature_names":["hour_sin","hour_cos","dow_sin","dow_cos","week_of_year","is_weekend","is_holiday","day_of_month","req_rate_1m","req_rate_5m","req_rate_15m","req_rate_30m","latency_std_5m","latency_std_15m","req_max_5m","req_max_15m","ewma_03","ewma_07","rate_of_change","autocorr_lag1","cpu_util","memory_pressure","active_connections","cache_hit_ratio","replica_count","queue_depth"],"feature_types":["float","float","float","float","float","float","float","float","float","float","float","float","float","float","float","float","float","float","float","float","float","float","float","float","float","float"],"gradient_booster":{"model":{"cats":{"enc":[],"feature_segments":[],"sorted_idx":[]},"gbtree_model_param":{"num_parallel_tree":"1","num_trees":"200"},"iteration_indptr":[0,1,2,3,4,5,6,7,8,9,10,11,12,13,14,15,16,17,18,19,20,21,22,23,24,25,26,27,28,29,30,31,32,33,34,35,36,37,38,39,40,41,42,43,44,45,46,47,48,49,50,51,52,53,54,55,56,57,58,59,60,61,62,63,64,65,66,67,68,69,70,71,72,73,74,75,76,77,78,79,80,81,82,83,84,85,86,87,88,89,90,91,92,93,94,95,96,97,98,99,100,101,102,103,104,105,106,107,108,109,110,111,112,113,114,115,116,117,118,119,120,121,122,123,124,125,126,127,128,129,130,131,132,133,134,135,136,137,138,139,140,141,142,143,144,145,146,147,148,149,150,151,152,153,154,155,156,157,158,159,160,161,162,163,164,165,166,167,168,169,170,171,172,173,174,175,176,177,178,179,180,181,182,183,184,185,186,187,188,189,190,191,192,193,194,195,196,197,198,199,200],"tree_info":[0,0,0,0,0,0,0,0,0,0,0,0,0,0,0,0,0,0,0,0,0,0,0,0,0,0,0,0,0,0,0,0,0,0,0,0,0,0,0,0,0,0,0,0,0,0,0,0,0,0,0,0,0,0,0,0,0,0,0,0,0,0,0,0,0,0,0,0,0,0,0,0,0,0,0,0,0,0,0,0,0,0,0,0,0,0,0,0,0,0,0,0,0,0,0,0,0,0,0,0,0,0,0,0,0,0,0,0,0,0,0,0,0,0,0,0,0,0,0,0,0,0,0,0,0,0,0,0,0,0,0,0,0,0,0,0,0,0,0,0,0,0,0,0,0,0,0,0,0,0,0,0,0,0,0,0,0,0,0,0,0,0,0,0,0,0,0,0,0,0,0,0,0,0,0,0,0,0,0,0,0,0,0,0,0,0,0,0,0,0,0,0,0,0,0,0,0,0,0,0],"trees":[{"base_weights":[1.0136976E-3,-9.792073E-2,1.1785232E-1,-9.8120674E-2,4.1666666E-1,1.158582E-1,3.4234232E-1,-7.620663E-2,-9.999276E-3,6.7499995E-2,-6.6666687E-3,2.7210647E-3,1.1718912E-1,1.5769228E-1,7.558823E-1,6E-2,-7.786262E-2,1.0882351E-1,-2.8947392E-2,1.0364503E-1,1.23564966E-1,6.7499995E-2,1.2799998E-1,8.6666666E-2,2.8749996E-1,-8.553642E-2,-1.8382376E-2,-9.473687E-3,3.4374997E-1,4.4999998E-2,-3.7168164E-2,1.3578242E-1,9.211871E-2,2.0611109E-1,1.2174964E-1,7.3437475E-2,4.083333E-1,5.2E-1,-7.5000017E-3,-7.626265E-2,-9.7561E-2,2.8749996E-1,-3.7209325E-2,-8.000002E-3,4.9166664E-1,-6.70213E-2,1.04999974E-1,1.4701644E-1,-7.792231E-3,8.288358E-2,1.4298439E-1,7.23404E-2,2.514925E-1,1.3836102E-1,1.1440291E-1,2.944444E-1,-1.276598E-2,6.285714E-1,8.333331E-2,-5.0000013E-3,6.7499995E-2,-7.913795E-2,3.9999977E-2,-5.416669E-2,-9.9766385E-3,-8.000002E-3,6.7499995E-2,3.2E-1,-5.1200025E-2,-6.6666687E-3,6.0999995E-1,1.7499998E-1,-7.69231E-2,3.5555553E-1,-9.166669E-3,1.3483123E-2,1.602941E-1,-3.2000024E-2,6E-2,1.4860137E-1,7.429479E-2,1.9239998E-1,8.049998E-2,2.588235E-1,-3.2258086E-2,4.4230768E-1,2.036697E-1,1.3447855E-1,3.169811E-1,8.675189E-2,1.2869632E-1,4.9166664E-1,-8.57143E-3,-5.2272752E-2,4.2499998E-1,-5.0000013E-3,7.5E-2,-8.000002E-3,4.4999998E-2,-8.186717E-3,-1.2500023E-3,3.2E-2,-9.090912E-3,-9.56522E-3,4.4999998E-2,-6.6666687E-3,6E-2,-7.155966E-3,8.2352925E-3,7.714286E-2,1.7499998E-2,4.4999998E-2,-6.6666687E-3,5.714284E-3,-8.705885E-3,-7.5000017E-3,5.8333334E-2,1.1666665E-2,-7.7083358E-3,1.1214468E-2,1.9738954E-2,4.4999998E-2,-4.459462E-3,1.13833975E-2,4.029412E-2,6.4224578E-3,1.31306965E-2,1.4117645E-2,3.3906247E-2,6.7499995E-2,6.8020285E-3,-8.57143E-3,4.5454543E-2,4.4999998E-2,-6.333336E-3,7.066666E-2,7.499998E-3,7.169809E-3,3.22807E-2,1.1996525E-2,1.6787147E-2,-9.000002E-3,4.022727E-2,1.2737428E-2,7.131781E-3,1.3678195E-2,8.766023E-3,6.0999997E-2,-6.6666687E-3,-9.750003E-3,3.2E-2,-5.0000013E-3,6E-2],"categories":[],"categories_nodes":[],"categories_segments":[],"categories_sizes":[],"default_left":[0,0,0,0,0,0,0,0,0,0,0,0,0,0,0,0,0,0,0,0,0,0,0,0,0,0,0,0,0,0,0,0,0,0,0,0,0,0,0,0,0,0,0,0,0,0,0,0,0,0,0,0,0,0,0,0,0,0,0,0,0,0,0,0,0,0,0,0,0,0,0,0,0,0,0,0,0,0,0,0,0,0,0,0,0,0,0,0,0,0,0,0,0,0,0,0,0,0,0,0,0,0,0,0,0,0,0,0,0,0,0,0,0,0,0,0,0,0,0,0,0,0,0,0,0,0,0,0,0,0,0,0,0,0,0,0,0,0,0,0,0,0,0,0,0,0,0,0,0,0,0,0,0],"id":0,"left_children":[1,3,5,7,9,11,13,15,-1,-1,-1,17,19,21,23,-1,25,27,29,31,33,-1,35,-1,37,39,41,-1,43,-1,45,47,49,51,53,55,57,59,-1,61,63,65,67,-1,69,71,73,75,77,79,81,83,85,87,89,91,93,95,97,-1,-1,99,101,103,-1,-1,-1,105,107,-1,109,111,113,115,-1,117,119,121,-1,123,125,127,129,131,133,135,137,139,141,143,145,147,-1,149,151,-1,-1,-1,-1,-1,-1,-1,-1,-1,-1,-1,-1,-1,-1,-1,-1,-1,-1,-1,-1,-1,-1,-1,-1,-1,-1,-1,-1,-1,-1,-1,-1,-1,-1,-1,-1,-1,-1,-1,-1,-1,-1,-1,-1,-1,-1,-1,-1,-1,-1,-1,-1,-1,-1,-1,-1,-1,-1],"loss_changes":[3.192927E2,1.5798187E0,5.629959E0,6.057892E-1,7.9416656E-1,1.890152E0,8.356783E0,1.3691921E0,0E0,0E0,0E0,4.9708495E-1,1.0587921E0,1.1116849E0,1.5150757E0,0E0,5.3657055E-1,1.6585041E0,4.6557993E-1,1.4610443E0,1.2384033E0,0E0,1.1171896E0,0E0,7.1325004E-1,1.08979225E-1,7.9389876E-1,0E0,1.0422084E0,0E0,4.8662788E-1,1.6914864E0,1.3649902E0,1.0745339E0,9.913635E-1,1.2230588E0,8.0654764E-1,4.755E-1,0E0,2.0173383E-1,3.7757397E-2,1.1932501E0,6.6107535E-1,0E0,8.3350015E-1,2.3872751E-1,1.0181112E0,1.7212048E0,1.1521246E0,1.3904552E0,1.3708906E0,9.251242E-1,1.1327076E0,1.7091179E0,2.2527008E0,1.3917063E0,8.3506775E-1,6.142857E-1,3.9533332E-1,0E0,0E0,1.0446119E-1,5.789091E-1,5.4501814E-1,0E0,0E0,0E0,5.813333E-1,3.4577924E-1,0E0,5.672138E-1,2.9583335E-1,1.2863088E-1,9.2638886E-1,0E0,8.406952E-1,1.5567951E0,4.7536218E-1,0E0,2.4831533E0,1.2534924E0,1.8302755E0,1.4379221E0,1.1853322E0,4.9307528E-1,2.4716287E0,1.6906343E0,1.1788635E0,1.8759446E0,1.2166405E0,1.2402306E0,8.3350015E-1,0E0,7.720228E-1,3.6249995E-1,0E0,0E0,0E0,0E0,0E0,0E0,0E0,0E0,0E0,0E0,0E0,0E0,0E0,0E0,0E0,0E0,0E0,0E0,0E0,0E0,0E0,0E0,0E0,0E0,0E0,0E0,0E0,0E0,0E0,0E0,0E0,0E0,0E0,0E0,0E0,0E0,0E0,0E0,0E0,0E0,0E0,0E0,0E0,0E0,0E0,0E0,0E0,0E0,0E0,0E0,0E0,0E0,0E0,0E0,0E0,0E0,0E0,0E0],"parents":[2147483647,0,0,1,1,2,2,3,3,4,4,5,5,6,6,7,7,11,11,12,12,13,13,14,14,16,16,17,17,18,18,19,19,20,20,22,22,24,24,25,25,26,26,28,28,30,30,31,31,32,32,33,33,34,34,35,35,36,36,37,37,39,39,40,40,41,41,42,42,44,44,45,45,46,46,47,47,48,48,49,49,50,50,51,51,52,52,53,53,54,54,55,55,56,56,57,57,58,58,61,61,62,62,63,63,67,67,68,68,70,70,71,71,72,72,73,73,75,75,76,76,77,77,79,79,80,80,81,81,82,82,83,83,84,84,85,85,86,86,87,87,88,88,89,89,90,90,91,91,93,93,94,94],"right_children":[2,4,6,8,10,12,14,16,-1,-1,-1,18,20,22,24,-1,26,28,30,32,34,-1,36,-1,38,40,42,-1,44,-1,46,48,50,52,54,56,58,60,-1,62,64,66,68,-1,70,72,74,76,78,80,82,84,86,88,90,92,94,96,98,-1,-1,100,102,104,-1,-1,-1,106,108,-1,110,112,114,116,-1,118,120,122,-1,124,126,128,130,132,134,136,138,140,142,144,146,148,-1,150,152,-1,-1,-1,-1,-1,-1,-1,-1,-1,-1,-1,-1,-1,-1,-1,-1,-1,-1,-1,-1,-1,-1,-1,-1,-1,-1,-1,-1,-1,-1,-1,-1,-1,-1,-1,-1,-1,-1,-1,-1,-1,-1,-1,-1,-1,-1,-1,-1,-1,-1,-1,-1,-1,-1,-1,-1,-1,-1],"split_conditions":[2.552985E3,2.9659216E3,3.1218994E3,-1.8369701E-16,2.9936108E3,2.0734861E-1,3.4450176E3,-8.660254E-1,-2.1926932E2,1.9043701E1,-1.2029785E1,1.5009733E0,-5.8243647E-2,2.2557665E-1,7.528262E-1,7.056543E0,1.0657582E1,7.8900206E-1,2.808725E3,-1.6290805E-1,3.2365664E3,1.7250782E1,7.4142224E-1,2.4130837E3,4.2887425E0,6.8122566E-1,1.1004891E1,-2.4010305E0,5.457766E-1,1.7013086E1,2.2604677E-1,1.3624297E1,7.080278E-1,7.2221005E-1,1.0064776E-2,3.0231416E3,7.436017E-1,5.9914356E-1,-4.1357033E1,6.75718E-1,9.703897E2,1.1159692E3,4.154493E-1,-2.7844654E1,6.1844254E-1,4.1371238E-1,3.2857288E3,2.8741765E3,-1.6546842E-1,4.204204E2,2.999585E3,1.6307062E0,2.6917036E3,8.888391E-3,6.7176476E-2,6.2113934E0,1.2291113E1,3.0099507E3,3.1925757E3,-4.7497803E1,1.9540844E3,1.1488727E3,7.342856E-1,1.5450843E-1,-2.1148381E2,-5.320176E1,1.0242652E1,-4.3388373E-1,1.3733572E1,-3.748462E0,3.026512E3,-4.3388373E-1,2.0505188E-1,3E0,-3.8936467E0,3.2290842E3,3.4557865E0,2.5608027E3,1.7836401E1,9.749279E-1,1.2541929E3,3.008454E3,4.0594688E-1,2.8217036E3,2.4099784E-1,6.183938E-1,3.4829803E-2,8.7578416E-1,1.6187488E0,-8.660254E-1,2.2806944E-1,3.39941E3,-1.1926124E1,3.3993967E3,-9.659258E-1,-5.7707546E1,1.6366968E1,-1.1983398E1,9.104566E0,-2.1077534E2,-3.3775945E0,1.4202807E1,-4.862514E1,-2.1075645E2,1.1535303E1,-2.2170499E2,1.7733252E1,-6.0918926E1,1.2669898E1,1.5346362E1,1.4763306E1,8.985132E0,-2.857749E1,1.3867627E1,-5.888977E0,-6.8075686E0,1.8825489E1,1.1990843E1,-6.7615547E0,9.831025E0,1.3823883E1,1.684436E1,-1.5175946E0,1.135763E1,1.6730167E1,8.194064E0,1.3631299E1,1.2436885E1,1.5581386E1,6.6256347E0,5.9552054E0,-1.653987E1,1.589449E1,6.0091553E0,-2.877223E0,1.81162E1,1.4250389E1,1.0810639E1,1.7527004E1,1.0571986E1,1.2694776E1,-4.0718036E0,1.7117657E1,1.03186865E1,8.15835E0,1.1516052E1,1.0725839E1,1.3479224E1,-2.3897095E1,-3.1223674E0,1.5551246E1,-5.5044436E0,1.3303515E1],"split_indices":[8,9,11,1,10,20,8,0,0,0,0,13,18,20,23,0,12,13,10,18,15,0,21,0,12,23,12,0,23,0,21,12,21,19,18,17,20,12,0,23,11,14,23,0,19,23,14,16,18,22,16,12,17,18,18,13,13,10,9,0,0,15,19,18,0,0,0,2,13,0,11,2,12,4,0,14,13,8,0,2,22,10,23,16,21,23,18,19,13,1,18,14,0,8,0,0,0,0,0,0,0,0,0,0,0,0,0,0,0,0,0,0,0,0,0,0,0,0,0,0,0,0,0,0,0,0,0,0,0,0,0,0,0,0,0,0,0,0,0,0,0,0,0,0,0,0,0,0,0,0,0,0,0],"split_type":[0,0,0,0,0,0,0,0,0,0,0,0,0,0,0,0,0,0,0,0,0,0,0,0,0,0,0,0,0,0,0,0,0,0,0,0,0,0,0,0,0,0,0,0,0,0,0,0,0,0,0,0,0,0,0,0,0,0,0,0,0,0,0,0,0,0,0,0,0,0,0,0,0,0,0,0,0,0,0,0,0,0,0,0,0,0,0,0,0,0,0,0,0,0,0,0,0,0,0,0,0,0,0,0,0,0,0,0,0,0,0,0,0,0,0,0,0,0,0,0,0,0,0,0,0,0,0,0,0,0,0,0,0,0,0,0,0,0,0,0,0,0,0,0,0,0,0,0,0,0,0,0,0],"sum_hessian":[2.762E4,1.4956E4,1.2664E4,1.4951E4,5E0,1.2554E4,1.1E2,1.18E3,1.3771E4,3E0,2E0,1.46E2,1.2408E4,7.7E1,3.3E1,2E0,1.178E3,3.3E1,1.13E2,3.977E3,8.431E3,3E0,7.4E1,2.6E1,7E0,1.043E3,1.35E2,1.8E1,1.5E1,1E0,1.12E2,1.047E3,2.93E3,1.79E2,8.252E3,6.3E1,1.1E1,4E0,3E0,5.93E2,4.5E2,7E0,1.28E2,4E0,1.1E1,9.3E1,1.9E1,9.71E2,7.6E1,2.482E3,4.48E2,4.6E1,1.33E2,2.525E3,5.727E3,1.7E1,4.6E1,6E0,5E0,1E0,3E0,5.79E2,1.4E1,2.3E1,4.27E2,4E0,3E0,4E0,1.24E2,2E0,9E0,3E0,9E1,8E0,1.1E1,8.8E1,8.83E2,7.4E1,2E0,2.85E2,2.197E3,2.49E2,1.99E2,1.6E1,3E1,2.5E1,1.08E2,2.473E3,5.2E1,1.954E3,3.773E3,1.1E1,6E0,4.3E1,3E0,1E0,5E0,4E0,1E0,5.56E2,2.3E1,4E0,1E1,2.2E1,1E0,2E0,2E0,1.08E2,1.6E1,6E0,3E0,1E0,2E0,6E0,8.4E1,3E0,5E0,4.1E1,4.7E1,3.86E2,4.97E2,1E0,7.3E1,2.52E2,3.3E1,1.869E3,3.28E2,1.86E2,6.3E1,3E0,1.96E2,6E0,1E1,1E0,2.9E1,1.4E1,1.1E1,5.2E1,5.6E1,1.727E3,7.46E2,9E0,4.3E1,5.36E2,1.418E3,3.15E3,6.23E2,9E0,2E0,3.9E1,4E0,1E0,2E0],"tree_param":{"num_deleted":"0","num_feature":"26","num_nodes":"153","size_leaf_vector":"1"}},{"base_weights":[-3.4786914E-3,-9.66112E-2,1.06926076E-1,-5.723852E-2,-9.999282E-3,1.0541031E-1,3.0309275E-1,-6.10313E-2,2.9230767E-1,7.669663E-2,1.08480945E-1,1.3968252E-1,5.885714E-1,1.6249998E-1,-6.250002E-2,7.2E-2,2.22222E-2,-4.269665E-2,8.599117E-2,9.038063E-2,1.1218943E-1,2.0588212E-2,2.6999998E-1,7.5E-1,1.0999998E-1,-8.333336E-3,6E-2,-5.0481953E-2,-9.106631E-2,4.4999998E-2,-8.750002E-3,-6.1728418E-2,1.3333331E-1,4.0714285E-1,8.190729E-2,5.833333E-1,8.880864E-2,1.1935335E-1,9.5717244E-2,4.2499998E-1,-3.2258086E-2,5.1666665E-1,-9.230772E-3,-5.0000013E-3,7.84E-2,-8.750002E-3,6E-2,-7.9322055E-2,-3.451495E-2,2.6666665E-1,-9.391307E-2,-8.472224E-2,1.0999998E-1,6E-2,-8.57143E-3,7.5E-2,1.3333331E-1,9.988582E-2,1.7813742E-2,7.2E-2,-5.0000013E-3,1.7289696E-2,9.762454E-2,1.1568657E-1,1.6911109E-1,3.6249998E-1,9.343627E-2,-5.0000013E-3,6E-2,1.9999997E-1,-9.600002E-3,2.0999998E-1,8E-2,-8.253427E-2,1.7499998E-1,7.317071E-2,-4.3346796E-2,-5.0000013E-3,4.4999998E-2,-9.673593E-2,2.22222E-2,-9.850749E-3,8.333331E-2,3.2E-1,-8.333336E-3,-8.333336E-3,4.2499998E-1,9.127835E-2,2.7749997E-1,2.7368417E-1,-3.4934736E-3,-5.8585882E-2,8.189653E-2,1.9282049E-1,8.544384E-2,1.2965246E-1,1.0160076E-1,3.7142855E-1,1.4402983E-1,5.9999996E-1,7.499998E-2,3.2974888E-2,9.996108E-2,6E-2,-8.000002E-3,-8.57143E-3,6.7499995E-2,1.1999998E-2,-8.576392E-3,-6.6666687E-3,4.4999998E-2,5.1999997E-2,1.0810788E-3,-5.973336E-3,7.377026E-4,-9.9685555E-3,-4.5000026E-3,4.4999998E-2,-8.750002E-3,4.4999998E-2,-8.000002E-3,-6.6666687E-3,6E-2,6E-2,-5.0000013E-3,8.6253015E-3,3.4374997E-2,6.625E-2,1.7575756E-2,7.499998E-3,5.3749997E-2,4.1666668E-2,-1.4732167E-3,-6.836737E-3,4.4999998E-2,2.5588233E-2,9.6385303E-4,9.8837195E-3,2.6454544E-2,1.579399E-2,7.238459E-3,1.2160057E-2,1.8635169E-2,7.4137906E-3,1.1968545E-2,2.060606E-2,6.7058824E-2,8.798075E-3,2.030769E-2,7.272727E-2,-6.6666687E-3,-8.888892E-3,4.25E-2,3.1764705E-2,1.4448646E-3,7.721408E-3,1.18665695E-2],"categories":[],"categories_nodes":[],"categories_segments":[],"categories_sizes":[],"default_left":[0,0,0,0,0,0,0,0,0,0,0,0,0,0,0,0,0,0,0,0,0,0,0,0,0,0,0,0,0,0,0,0,0,0,0,0,0,0,0,0,0,0,0,0,0,0,0,0,0,0,0,0,0,0,0,0,0,0,0,0,0,0,0,0,0,0,0,0,0,0,0,0,0,0,0,0,0,0,0,0,0,0,0,0,0,0,0,0,0,0,0,0,0,0,0,0,0,0,0,0,0,0,0,0,0,0,0,0,0,0,0,0,0,0,0,0,0,0,0,0,0,0,0,0,0,0,0,0,0,0,0,0,0,0,0,0,0,0,0,0,0,0,0,0,0,0,0,0,0,0,0,0,0,0,0,0,0],"id":1,"left_children":[1,3,5,7,-1,9,11,13,15,17,19,21,23,25,27,-1,29,31,33,35,37,39,41,43,45,-1,-1,47,49,-1,-1,51,53,55,57,59,61,63,65,67,69,71,-1,-1,-1,-1,-1,73,75,77,79,81,83,-1,-1,-1,85,87,89,-1,-1,91,93,95,97,99,101,-1,-1,103,-1,105,-1,107,109,111,113,-1,-1,115,117,-1,119,121,-1,-1,123,125,127,129,131,133,135,137,139,141,143,145,147,149,151,153,155,-1,-1,-1,-1,-1,-1,-1,-1,-1,-1,-1,-1,-1,-1,-1,-1,-1,-1,-1,-1,-1,-1,-1,-1,-1,-1,-1,-1,-1,-1,-1,-1,-1,-1,-1,-1,-1,-1,-1,-1,-1,-1,-1,-1,-1,-1,-1,-1,-1,-1,-1,-1,-1,-1],"loss_changes":[2.8583694E2,2.0019379E0,3.7502747E0,1.6021147E0,0E0,1.1047211E0,4.442849E0,3.9854145E-1,1.4856751E0,1.3608422E0,7.552185E-1,9.722054E-1,2.6214294E0,9.104167E-1,3.991375E-1,0E0,4.6180555E-1,3.0639482E-1,1.4552565E0,1.4546366E0,1.1047897E0,7.403463E-1,2.728769E0,7.463999E-1,1.02025E0,0E0,0E0,3.7946868E-1,3.784213E-1,0E0,0E0,3.291636E-1,9.714285E-1,1.2142854E0,1.2911105E0,5.553334E-1,1.2208605E0,1.1824188E0,1.7138157E0,3.6249995E-1,4.7814193E-1,1.3960004E0,0E0,0E0,0E0,0E0,0E0,2.5544E-1,5.129418E-1,1.9666666E-1,1.1525226E-1,1.7501032E-1,4.326667E-1,0E0,0E0,0E0,6.041667E-1,1.3139057E0,1.3475721E0,0E0,0E0,1.0538433E0,1.9849148E0,1.1944962E0,2.2299728E0,1.5937505E0,1.1206303E0,0E0,0E0,8.32E-1,0E0,1.4329286E0,0E0,2.0129251E-1,2.9583335E-1,1.1368121E0,4.1271025E-1,0E0,0E0,4.6941042E-2,4.6180555E-1,0E0,3.9533332E-1,5.813333E-1,0E0,0E0,3.6249995E-1,1.0322981E0,1.4503942E0,9.555919E-1,1.087488E0,5.232632E-1,1.4558699E0,1.2883377E0,1.4389791E0,1.3830147E0,1.5113945E0,2.2859182E0,1.3125658E0,1.151515E0,7.261112E-1,1.46683E0,1.084732E0,0E0,0E0,0E0,0E0,0E0,0E0,0E0,0E0,0E0,0E0,0E0,0E0,0E0,0E0,0E0,0E0,0E0,0E0,0E0,0E0,0E0,0E0,0E0,0E0,0E0,0E0,0E0,0E0,0E0,0E0,0E0,0E0,0E0,0E0,0E0,0E0,0E0,0E0,0E0,0E0,0E0,0E0,0E0,0E0,0E0,0E0,0E0,0E0,0E0,0E0,0E0,0E0,0E0,0E0],"parents":[2147483647,0,0,1,1,2,2,3,3,5,5,6,6,7,7,8,8,9,9,10,10,11,11,12,12,13,13,14,14,16,16,17,17,18,18,19,19,20,20,21,21,22,22,23,23,24,24,27,27,28,28,31,31,32,32,33,33,34,34,35,35,36,36,37,37,38,38,39,39,40,40,41,41,47,47,48,48,49,49,50,50,51,51,52,52,56,56,57,57,58,58,61,61,62,62,63,63,64,64,65,65,66,66,69,69,71,71,73,73,74,74,75,75,76,76,79,79,80,80,82,82,83,83,86,86,87,87,88,88,89,89,90,90,91,91,92,92,93,93,94,94,95,95,96,96,97,97,98,98,99,99,100,100,101,101,102,102],"right_children":[2,4,6,8,-1,10,12,14,16,18,20,22,24,26,28,-1,30,32,34,36,38,40,42,44,46,-1,-1,48,50,-1,-1,52,54,56,58,60,62,64,66,68,70,72,-1,-1,-1,-1,-1,74,76,78,80,82,84,-1,-1,-1,86,88,90,-1,-1,92,94,96,98,100,102,-1,-1,104,-1,106,-1,108,110,112,114,-1,-1,116,118,-1,120,122,-1,-1,124,126,128,130,132,134,136,138,140,142,144,146,148,150,152,154,156,-1,-1,-1,-1,-1,-1,-1,-1,-1,-1,-1,-1,-1,-1,-1,-1,-1,-1,-1,-1,-1,-1,-1,-1,-1,-1,-1,-1,-1,-1,-1,-1,-1,-1,-1,-1,-1,-1,-1,-1,-1,-1,-1,-1,-1,-1,-1,-1,-1,-1,-1,-1,-1,-1],"split_conditions":[2.5967087E3,-1.8369701E-16,3.2601553E3,2.6359827E3,-1.9740526E2,2.5740844E-1,1.6426593E3,-5E-1,4.9325237E-1,4.4268408E-1,4.982721E2,3.3755823E3,7.5676066E-1,1E1,7.4737185E-1,8.688306E0,2.661329E3,3.1719648E3,4.486698E-1,6.0175186E-1,3.3885784E3,2.7399346E3,3.4140964E3,4E0,1.0570796E1,-2.334878E1,8.208106E0,9.733527E2,9.386572E1,2.2508213E3,-9.212451E0,8.660254E-1,0E0,2.97271E3,7.3890824E0,0E0,2.8494397E3,3.129252E3,2.5608027E3,2.6209453E3,1.5920347E0,5.1794267E0,-3.3137472E0,-6.911086E1,2.212942E3,-3.722134E1,1.8409915E3,1.1491958E3,9.8146124E2,0E0,8.424783E-1,1.2788152E1,2.9474233E3,1.5278613E1,-1.9546705E1,1.4022754E1,3.0465105E3,3.07769E3,5.062776E-1,1.5358643E1,-3.2109377E-1,2.9594998E3,2.9151333E3,2.984599E3,-9.659258E-1,5.737605E-1,2.9402473E3,-1.3674927E1,1.2131299E1,3.0563572E3,-7.9292E0,3.3993967E3,1.8251612E1,-2.449381E-1,9.3593945E2,6.558882E-1,1.1375555E3,-2.0562923E2,2.0428541E1,1.1488727E3,1.1221556E3,-7.0269237E0,1.6310753E1,2.5213877E3,-9.553223E-2,-1.6605469E0,-2.5881904E-1,7.216953E0,2.8837898E3,3.3045143E-1,3.0804617E2,2.927325E3,3.3642615E3,3.2934568E0,3.2599228E2,3.0080278E3,3.0993094E0,5.399087E-1,8.254554E-1,3.0323574E3,3.0095786E3,6.337154E-1,3.4182278E3,1.8529785E1,-6.341138E0,-1.2052002E0,1.0834595E1,9.651758E0,-1.906698E2,-3.9647095E1,7.9077883E0,1.9272719E3,1.0144894E1,-1.902894E2,3.0969875E0,-1.9105586E2,-8.874758E0,3.3146656E1,-1.6992895E1,8.086621E0,-1.1034717E1,-1.5220679E1,1.7455128E1,4.1928225E0,-1.3087451E1,8.687735E0,1.6289082E1,1.688777E1,1.2866969E1,1.5493189E1,1.8631666E1,1.5710547E1,-9.985699E-1,-1.8281397E0,9.599072E0,1.5553574E1,2.2764542E0,8.319639E0,1.4271851E1,1.1414351E1,7.9683595E0,1.0736197E1,1.2859265E1,9.245429E0,1.0573183E1,1.4009346E1,1.77543E1,9.190354E0,1.3401563E1,1.804833E1,-1.0048022E1,-1.9979614E1,1.7139332E1,7.179512E2,2.298918E0,8.611599E0,9.950837E0],"split_indices":[17,1,16,8,0,20,22,0,23,23,22,8,23,7,23,0,8,16,23,19,14,8,8,7,13,0,0,17,22,0,0,0,2,11,12,0,9,9,8,8,13,13,0,0,0,0,0,15,17,2,21,12,10,0,0,0,9,11,13,0,0,11,10,10,1,23,11,0,0,11,0,8,0,18,8,19,14,0,0,15,15,0,12,10,0,0,0,12,17,13,22,16,15,13,22,11,13,21,19,10,9,19,14,0,0,0,0,0,0,0,0,0,0,0,0,0,0,0,0,0,0,0,0,0,0,0,0,0,0,0,0,0,0,0,0,0,0,0,0,0,0,0,0,0,0,0,0,0,0,0,0,0,0,0,0,0,0],"split_type":[0,0,0,0,0,0,0,0,0,0,0,0,0,0,0,0,0,0,0,0,0,0,0,0,0,0,0,0,0,0,0,0,0,0,0,0,0,0,0,0,0,0,0,0,0,0,0,0,0,0,0,0,0,0,0,0,0,0,0,0,0,0,0,0,0,0,0,0,0,0,0,0,0,0,0,0,0,0,0,0,0,0,0,0,0,0,0,0,0,0,0,0,0,0,0,0,0,0,0,0,0,0,0,0,0,0,0,0,0,0,0,0,0,0,0,0,0,0,0,0,0,0,0,0,0,0,0,0,0,0,0,0,0,0,0,0,0,0,0,0,0,0,0,0,0,0,0,0,0,0,0,0,0,0,0,0,0],"sum_hessian":[2.7797E4,1.5078E4,1.2719E4,1.194E3,1.3884E4,1.2623E4,9.6E1,1.182E3,1.2E1,1.222E3,1.1401E4,6.2E1,3.4E1,7E0,1.175E3,4E0,8E0,8.8E1,1.134E3,1.943E3,9.458E3,3.3E1,2.9E1,2.5E1,9E0,5E0,2E0,8.29E2,3.46E2,1E0,7E0,8E1,8E0,1.3E1,1.121E3,5E0,1.938E3,6.587E3,2.871E3,3E0,3E1,1.7E1,1.2E1,1E0,2.4E1,7E0,2E0,2.94E2,5.35E2,2E0,3.44E2,7.1E1,9E0,2E0,6E0,5E0,8E0,8.75E2,2.46E2,4E0,1E0,2.13E2,1.725E3,6.138E3,4.49E2,2.3E1,2.848E3,1E0,2E0,6E0,2.4E1,9E0,8E0,2.91E2,3E0,4E1,4.95E2,1E0,1E0,3.36E2,8E0,6.6E1,5E0,4E0,5E0,5E0,3E0,8.36E2,3.9E1,1.8E1,2.28E2,9.8E1,1.15E2,1.94E2,1.531E3,3.078E3,3.06E3,4.8E1,4.01E2,1.2E1,1.1E1,2.78E2,2.57E3,2E0,4E0,6E0,3E0,4E0,2.87E2,2E0,1E0,4E0,3.6E1,3.74E2,1.21E2,3.17E2,1.9E1,1E0,7E0,1E0,4E0,2E0,2E0,2E0,1E0,8.21E2,1.5E1,7E0,3.2E1,1.1E1,7E0,5E0,2.23E2,9.7E1,1E0,3.3E1,8.2E1,8.5E1,1.09E2,2.32E2,1.299E3,2.698E3,3.8E2,1.217E3,1.843E3,3.2E1,1.6E1,2.07E2,1.94E2,1E1,2E0,8E0,3E0,1.6E1,2.62E2,1.162E3,1.408E3],"tree_param":{"num_deleted":"0","num_feature":"26","num_nodes":"157","size_leaf_vector":"1"}},{"base_weights":[-9.592774E-3,-9.626675E-2,9.318969E-2,-5.2936267E-2,-9.99928E-3,9.13974E-2,3.0280373E-1,1.5357141E-1,-5.78541E-2,1.1553874E-1,8.3671086E-2,1.3424656E-1,6.457143E-1,5.3749996E-1,-2.2706532E-8,-9.225094E-2,-4.7374327E-2,5.4742523E-2,1.23878896E-1,4.8088755E-2,8.6973466E-2,3.5555534E-2,2.827586E-1,7.884615E-2,2.0999998E-1,-5.0000013E-3,6.285714E-1,1.9999997E-1,-9.333336E-3,-9.583335E-2,3.749998E-2,-3.091875E-2,-7.545457E-2,3.720236E-2,2.2647056E-1,3.1470585E-1,1.213772E-1,3.0499998E-1,4.154038E-2,8.5144386E-2,1.4473681E-1,1.9999997E-1,-6.2068988E-2,1.6666643E-2,6.583333E-1,3.749998E-2,6E-2,-5.0000013E-3,7.5E-2,-8.000002E-3,6E-2,-5.925928E-2,-9.957986E-3,4.4999998E-2,-8.57143E-3,2.6573403E-2,-5.023587E-2,-8.3278716E-2,1.9230746E-2,2.2499998E-1,2.00647E-2,-2.1428594E-2,3.8095236E-1,6.363636E-1,1.5416664E-1,1.18121825E-1,2.447761E-1,4.7857141E-1,-8.57143E-3,2.6291769E-2,1.1555553E-1,7.057953E-2,9.200346E-2,5.230769E-1,1.24803126E-1,-1.5384638E-2,7.2E-2,-9.629632E-3,2.6666665E-1,6E-2,-9.375002E-3,-5.0000013E-3,7.272727E-1,-8.57143E-3,4.4999998E-2,5.7142835E-2,-9.523812E-3,-2.5000023E-2,1.8055554E-1,-1.90955E-2,-7.743365E-2,-4.8333358E-2,-9.146344E-2,-5.2173935E-2,4.2499998E-1,3.55E-1,-8.888892E-3,-1.3362093E-2,1.1923075E-1,2.6666665E-1,-9.166669E-3,5.733333E-1,-8.57143E-3,-5.0000013E-3,7.1E-1,-2.666669E-2,4.0999997E-1,6.893489E-2,1.2549105E-1,1.1489359E-1,5.238095E-1,8E-2,-8.333336E-3,2.777754E-3,8.376961E-2,9.457362E-2,4.8571426E-1,8.503786E-2,5.0177597E-2,9.106016E-2,3.04E-1,-7.5000017E-3,7.1E-1,-5.925928E-2,1.4605261E-1,4.4999998E-2,-9.166669E-3,4.4999998E-2,-5.0000013E-3,8.1E-2,-5.0000013E-3,-8.333336E-3,4.4999998E-2,1.0399998E-2,-6.3095265E-3,2.9166646E-3,4.4615384E-2,-3.1413638E-3,2.4444444E-2,-8.571431E-3,1.0999998E-2,2.6666665E-2,-6.3793133E-3,-9.539751E-3,3.749998E-3,4.4999998E-2,-9.545457E-3,6E-2,-5.0000013E-3,-8.000002E-3,4.6874996E-2,1.9047616E-2,-3.349059E-3,3.2083333E-2,2.9090885E-3,-5.0000013E-3,4.4999998E-2,6.76923E-2,-6.6666687E-3,8E-2,-5.0000013E-3,-9.285717E-3,4.4999998E-2,-7.5000017E-3,6.285714E-2,2.5806447E-2,4.9675303E-3,1.2287135E-2,2.969697E-2,-5.000002E-3,2.4999997E-2,8.333332E-3,6.5625004E-2,-2.5155304E-3,6.3945553E-3,4.0999997E-2,6.538459E-3,4.842103E-3,2.1714283E-2,7.2E-2,-6.6666687E-3,7.617049E-3,1.668831E-2,-4.2763396E-4,7.0230844E-3,9.871575E-3,7.113205E-3,4.3157894E-2,-8.57143E-3,-5.0000013E-3,8E-2,-9.600002E-3,2.6666665E-2,8.416665E-3,2.1284401E-2],"categories":[],"categories_nodes":[],"categories_segments":[],"categories_sizes":[],"default_left":[0,0,0,0,0,0,0,0,0,0,0,0,0,0,0,0,0,0,0,0,0,0,0,0,0,0,0,0,0,0,0,0,0,0,0,0,0,0,0,0,0,0,0,0,0,0,0,0,0,0,0,0,0,0,0,0,0,0,0,0,0,0,0,0,0,0,0,0,0,0,0,0,0,0,0,0,0,0,0,0,0,0,0,0,0,0,0,0,0,0,0,0,0,0,0,0,0,0,0,0,0,0,0,0,0,0,0,0,0,0,0,0,0,0,0,0,0,0,0,0,0,0,0,0,0,0,0,0,0,0,0,0,0,0,0,0,0,0,0,0,0,0,0,0,0,0,0,0,0,0,0,0,0,0,0,0,0,0,0,0,0,0,0,0,0,0,0,0,0,0,0,0,0,0,0,0,0,0,0,0,0,0,0,0,0,0,0,0,0,0,0,0,0,0,0],"id":2,"left_children":[1,3,5,7,-1,9,11,13,15,17,19,21,23,25,27,29,31,33,35,37,39,41,43,-1,45,-1,47,49,-1,51,53,55,57,59,61,63,65,67,69,71,73,75,77,79,81,83,-1,-1,-1,-1,-1,85,-1,-1,-1,87,89,91,93,95,97,99,101,103,105,107,109,111,-1,113,115,117,119,121,123,125,-1,-1,127,-1,-1,-1,129,-1,-1,131,-1,133,135,137,139,141,143,145,147,149,-1,151,153,155,-1,157,-1,-1,159,161,163,165,167,169,171,-1,-1,173,175,177,179,181,183,185,187,-1,189,191,193,-1,-1,-1,-1,-1,-1,-1,-1,-1,-1,-1,-1,-1,-1,-1,-1,-1,-1,-1,-1,-1,-1,-1,-1,-1,-1,-1,-1,-1,-1,-1,-1,-1,-1,-1,-1,-1,-1,-1,-1,-1,-1,-1,-1,-1,-1,-1,-1,-1,-1,-1,-1,-1,-1,-1,-1,-1,-1,-1,-1,-1,-1,-1,-1,-1,-1,-1,-1,-1,-1],"loss_changes":[2.4675838E2,2.4208374E0,4.73304E0,1.219445E0,0E0,2.3341904E0,6.0979176E0,1.6508927E0,4.155786E-1,1.5366821E0,1.1148224E0,1.0598934E0,2.0113182E0,4.5946455E-1,4.1066667E-1,1.2956047E-1,4.1122556E-1,1.1030538E0,1.2392998E0,1.351717E0,9.0823364E-1,7.348352E-1,2.8872125E0,0E0,6.502501E-1,0E0,6.142857E-1,8.32E-1,0E0,3.02732E-2,4.4517857E-1,6.299249E-1,2.4607599E-1,1.0768714E0,1.3102239E0,1.657609E0,1.0328064E0,1.3973571E0,8.908353E-1,8.3747864E-1,1.9408145E0,1.915077E0,3.5197955E-1,1.215625E0,6.223488E-1,4.4517857E-1,0E0,0E0,0E0,0E0,0E0,1.18518524E-1,0E0,0E0,0E0,1.1401321E0,3.5762775E-1,8.281469E-2,7.754933E-1,1.1741112E0,1.0258673E0,3.0773813E-1,1.9344761E0,5.914545E-1,1.1212499E0,9.254341E-1,2.3680015E0,2.595238E0,0E0,8.890773E-1,1.0025605E0,7.948284E-1,1.1201782E0,1.5065765E0,1.0021076E0,5.027565E-1,0E0,0E0,1.9666666E-1,0E0,0E0,0E0,7.47818E-1,0E0,0E0,4.2380953E-1,0E0,5.3730476E-1,1.434498E0,6.536966E-1,3.601973E-1,3.0920118E-1,1.2838602E-1,5.4284585E-1,3.6249995E-1,1.0271251E0,0E0,9.582654E-1,1.4081159E0,1.9666666E-1,0E0,1.0395899E0,0E0,0E0,7.2400045E-1,5.1504767E-1,1.1072145E0,1.2183652E0,9.697647E-1,1.0595746E0,1.1703868E0,0E0,0E0,8.0123514E-1,1.1187627E0,7.192241E-1,9.539046E-1,1.136879E0,1.2298675E0,8.6502457E-1,1.2799759E0,0E0,7.2400045E-1,3.489185E-1,9.245124E-1,0E0,0E0,0E0,0E0,0E0,0E0,0E0,0E0,0E0,0E0,0E0,0E0,0E0,0E0,0E0,0E0,0E0,0E0,0E0,0E0,0E0,0E0,0E0,0E0,0E0,0E0,0E0,0E0,0E0,0E0,0E0,0E0,0E0,0E0,0E0,0E0,0E0,0E0,0E0,0E0,0E0,0E0,0E0,0E0,0E0,0E0,0E0,0E0,0E0,0E0,0E0,0E0,0E0,0E0,0E0,0E0,0E0,0E0,0E0,0E0,0E0,0E0,0E0,0E0,0E0,0E0,0E0,0E0,0E0,0E0],"parents":[2147483647,0,0,1,1,2,2,3,3,5,5,6,6,7,7,8,8,9,9,10,10,11,11,12,12,13,13,14,14,15,15,16,16,17,17,18,18,19,19,20,20,21,21,22,22,24,24,26,26,27,27,29,29,30,30,31,31,32,32,33,33,34,34,35,35,36,36,37,37,38,38,39,39,40,40,41,41,42,42,43,43,44,44,45,45,51,51,55,55,56,56,57,57,58,58,59,59,60,60,61,61,62,62,63,63,64,64,65,65,66,66,67,67,69,69,70,70,71,71,72,72,73,73,74,74,75,75,78,78,82,82,85,85,87,87,88,88,89,89,90,90,91,91,92,92,93,93,94,94,95,95,97,97,98,98,99,99,101,101,104,104,105,105,106,106,107,107,108,108,109,109,110,110,113,113,114,114,115,115,116,116,117,117,118,118,119,119,120,120,122,122,123,123,124,124],"right_children":[2,4,6,8,-1,10,12,14,16,18,20,22,24,26,28,30,32,34,36,38,40,42,44,-1,46,-1,48,50,-1,52,54,56,58,60,62,64,66,68,70,72,74,76,78,80,82,84,-1,-1,-1,-1,-1,86,-1,-1,-1,88,90,92,94,96,98,100,102,104,106,108,110,112,-1,114,116,118,120,122,124,126,-1,-1,128,-1,-1,-1,130,-1,-1,132,-1,134,136,138,140,142,144,146,148,150,-1,152,154,156,-1,158,-1,-1,160,162,164,166,168,170,172,-1,-1,174,176,178,180,182,184,186,188,-1,190,192,194,-1,-1,-1,-1,-1,-1,-1,-1,-1,-1,-1,-1,-1,-1,-1,-1,-1,-1,-1,-1,-1,-1,-1,-1,-1,-1,-1,-1,-1,-1,-1,-1,-1,-1,-1,-1,-1,-1,-1,-1,-1,-1,-1,-1,-1,-1,-1,-1,-1,-1,-1,-1,-1,-1,-1,-1,-1,-1,-1,-1,-1,-1,-1,-1,-1,-1,-1,-1,-1,-1],"split_conditions":[2.552985E3,-1.8369701E-16,3.1218994E3,8.660254E-1,-1.7761955E2,2.949693E3,3.4450176E3,4.162974E2,1.1205322E3,2.7665353E-1,2.8857014E3,6.8304497E-1,7.528262E-1,-8.660254E-1,-8.660254E-1,1.0264973E3,7.1370786E-1,3.435759E3,-2.2290343E-1,6.0960305E-1,8.424783E-1,3.1097964E3,3.1159878E3,1.9556172E3,6.4819837E0,-3.564502E1,-2.1801084E-1,2.6538472E3,-2.0425546E0,-7.818315E-1,1.0238217E3,1.0874674E3,7.4998856E-1,5.607247E-1,-5E-1,6.999465E-1,3.0215588E3,3.4205952E3,6.7964506E-1,-5.8243647E-2,2.6074883E3,6.4799416E-1,1.0481573E1,7.021525E-1,3.0291216E3,8.086174E-2,1.6568925E3,-1.6073974E0,1.0402369E1,-2.1641602E1,1.5005981E1,9.7633606E2,-1.7391495E2,5.4172657E1,-1.7841304E2,1.00533044E3,4.5253283E-1,5E0,1.1298888E3,2.5077766E-1,8.755804E0,2.8247354E3,7.8096175E-1,-9.659258E-1,2.6149995E3,-7.818315E-1,8.775523E-1,2.8993118E3,-1.1182715E1,6.3652997E0,3.4444636E3,6.871687E-1,9.9856335E-1,3.3704028E3,-9.659258E-1,2.6784304E3,8.996338E0,-8.799785E0,-5E-1,7.3483887E0,-1.267851E1,-2.490354E1,9.8272747E-1,-3.3499195E1,1.2676996E3,9.7825684E2,-4.321893E1,9.766853E2,4.326455E2,4.7252762E-1,1.6310753E1,9.004538E2,1.0459114E3,8.6163983E2,0E0,1.206571E-1,-1.2312232E1,3.2365664E3,5.9544574E2,-8.660254E-1,-1.6985533E1,1.0844473E1,-4.7872314E0,-9.019849E0,1E0,3.0018108E3,9.5507866E-1,2.6917036E3,3.448473E3,2.9126682E3,4E0,1.7008717E1,-7.388965E0,2.998186E3,6.432063E0,9.1115844E-1,3.0126958E3,6.6000456E-1,7.3932076E-1,7.5615273E0,3.0845298E3,-1.7872437E1,2.9718845E3,9.331223E-1,3.4018803E0,6.100879E0,-6.640046E0,6.3791504E0,-5.1775173E1,1.2905103E1,-2.0714453E1,-6.0212893E0,4.7467434E1,3.1325867E1,-8.25534E1,2.0208052E1,5.215877E1,-3.679525E1,1.7345446E3,-1.7410258E2,3.0229904E1,1.9391066E1,-4.218751E1,-1.7214372E2,1.7163087E-2,2.9831984E1,-2.3690016E1,2.2199854E1,-1.8340683E2,-1.4752906E1,1.3206777E1,1.6110209E1,-2.524337E0,1.3185791E1,1.190414E1,-2.9416676E1,5.2422853E0,1.5831792E1,-3.1892335E0,1.6699854E1,-6.766687E1,-1.3559606E1,1.6641724E1,-2.4942677E1,2.0544927E3,1.2826263E1,6.7209563E0,9.806562E0,1.5327931E1,-8.788433E0,1.1368632E1,1.2778785E1,1.4723002E1,-2.514704E0,6.6863503E0,1.556372E1,7.7400384E0,2.4620838E0,1.2919092E1,1.6066528E1,-3.1419142E1,8.339274E0,1.0807695E1,-1.8581732E-1,8.423875E0,8.826846E0,6.1846433E0,1.593882E1,-1.8207031E1,-1.3853149E1,1.4673462E1,-7.4181657E0,7.265869E0,1.0463011E1,1.1886398E1],"split_indices":[8,1,11,0,0,10,8,22,15,20,16,23,23,1,1,10,23,15,18,19,21,10,9,0,13,0,18,17,0,2,8,14,20,12,0,19,11,15,21,18,8,20,12,23,10,18,0,0,0,0,0,11,0,0,0,17,20,7,8,20,13,9,23,0,8,2,19,9,0,12,15,23,19,15,1,8,0,0,0,0,0,0,19,0,0,9,0,10,22,21,12,17,10,8,2,12,0,15,22,0,0,13,0,0,3,11,13,17,15,16,7,0,0,10,12,19,10,23,23,13,9,0,10,19,12,0,0,0,0,0,0,0,0,0,0,0,0,0,0,0,0,0,0,0,0,0,0,0,0,0,0,0,0,0,0,0,0,0,0,0,0,0,0,0,0,0,0,0,0,0,0,0,0,0,0,0,0,0,0,0,0,0,0,0,0,0,0,0,0,0,0,0,0,0,0],"split_type":[0,0,0,0,0,0,0,0,0,0,0,0,0,0,0,0,0,0,0,0,0,0,0,0,0,0,0,0,0,0,0,0,0,0,0,0,0,0,0,0,0,0,0,0,0,0,0,0,0,0,0,0,0,0,0,0,0,0,0,0,0,0,0,0,0,0,0,0,0,0,0,0,0,0,0,0,0,0,0,0,0,0,0,0,0,0,0,0,0,0,0,0,0,0,0,0,0,0,0,0,0,0,0,0,0,0,0,0,0,0,0,0,0,0,0,0,0,0,0,0,0,0,0,0,0,0,0,0,0,0,0,0,0,0,0,0,0,0,0,0,0,0,0,0,0,0,0,0,0,0,0,0,0,0,0,0,0,0,0,0,0,0,0,0,0,0,0,0,0,0,0,0,0,0,0,0,0,0,0,0,0,0,0,0,0,0,0,0,0,0,0,0,0,0,0],"sum_hessian":[2.7697E4,1.5026E4,1.2671E4,1.191E3,1.3835E4,1.2565E4,1.06E2,2.7E1,1.164E3,3.043E3,9.522E3,7.2E1,3.4E1,7E0,2E1,2.7E2,8.94E2,3.68E2,2.675E3,8.1E2,8.712E3,4.4E1,2.8E1,2.5E1,9E0,1E0,6E0,6E0,1.4E1,2.63E2,7E0,5.65E2,3.29E2,3.35E2,3.3E1,3.3E1,2.642E3,1.9E1,7.91E2,8.447E3,2.65E2,1.6E1,2.8E1,1.7E1,1.1E1,7E0,2E0,1E0,5E0,4E0,2E0,2.6E1,2.37E2,1E0,6E0,1.42E2,4.23E2,3.04E2,2.5E1,2.7E1,3.08E2,1.3E1,2E1,1E1,2.3E1,2.576E3,6.6E1,1.3E1,6E0,6.57E2,1.34E2,2.708E3,5.739E3,1.2E1,2.53E2,1.2E1,4E0,2.6E1,2E0,2E0,1.5E1,1E0,1E1,6E0,1E0,6E0,2E1,1.07E2,3.5E1,1.98E2,2.25E2,5.9E1,2.45E2,2.2E1,3E0,1.9E1,8E0,2.31E2,7.7E1,2E0,1.1E1,1.4E1,6E0,1E0,9E0,1.4E1,9E0,3.37E2,2.239E3,4.6E1,2E1,8E0,5E0,4.67E2,1.9E2,1.28E2,6E0,1.583E3,1.125E3,5.715E3,2.4E1,3E0,9E0,2.6E1,2.27E2,1E0,1.1E1,1E0,1E0,9E0,1E0,5E0,1E0,2.4E1,8.3E1,2.3E1,1.2E1,1.9E2,8E0,2.16E2,9E0,2E0,5.7E1,2.38E2,7E0,1E0,2.1E1,2E0,1E0,4E0,1.5E1,2E1,2.11E2,2.3E1,5.4E1,1E0,1E0,1.2E1,2E0,8E0,1E0,1.3E1,1E0,3E0,6E0,3E1,3.07E2,2.207E3,3.2E1,2.1E1,2.5E1,5E0,1.5E1,3.21E2,1.46E2,9E0,1.81E2,9.4E1,3.4E1,4E0,2E0,1.43E3,1.53E2,3.03E2,8.22E2,4.126E3,1.589E3,1.8E1,6E0,1E0,8E0,2.4E1,2E0,1.19E2,1.08E2],"tree_param":{"num_deleted":"0","num_feature":"26","num_nodes":"195","size_leaf_vector":"1"}},{"base_weights":[-1.2711183E-2,-9.540133E-2,8.574483E-2,-4.188396E-2,-9.99928E-3,8.3585165E-2,3.219298E-1,-4.6297897E-2,3.0666664E-1,-2.7380977E-2,8.4328696E-2,1.1267603E-1,6.522727E-1,-8.798452E-2,-3.4531616E-2,6.285714E-1,2.22222E-2,2.7272725E-1,-7.162164E-2,8.964498E-2,7.1313724E-2,4.210524E-2,3.733333E-1,7.6E-1,2.0999998E-1,4.4999998E-2,-9.1828816E-2,-4.4743612E-2,2.3021558E-2,7.5E-2,-5.0000013E-3,4.4999998E-2,-8.750002E-3,-8.333336E-3,5.833333E-1,-8.472224E-2,2.6666665E-1,3.333333E-1,8.9053065E-2,-9.705885E-3,7.289508E-2,5.2E-1,-3.7736082E-3,3.749998E-2,6.6249996E-1,-6.6666687E-3,8.1212126E-2,3.749998E-2,6E-2,-9.959842E-3,1.3333331E-1,-2.0317484E-2,-6.115882E-2,-2.365986E-8,3.5555553E-1,7.2E-2,-5.0000013E-3,9.999978E-3,-9.841273E-3,-5.0000013E-3,4.4999998E-2,-8.57143E-3,5.0666666E-1,1.1961968E-1,8.4413014E-2,4.5602582E-2,8.23352E-2,6.7499995E-2,-5.0000013E-3,-7.17949E-2,1.7333332E-1,4.4999998E-2,-8.57143E-3,7.714286E-2,-5.0000013E-3,4.4999998E-2,-8.57143E-3,-8.57143E-3,6E-2,2.1476487E-2,-5.7485055E-2,-1.6129267E-3,-7.012348E-2,-1.854841E-2,2.8749996E-1,5.833333E-1,-7.5000017E-3,-8.888892E-3,4.4999998E-2,7.272727E-1,-8.000002E-3,8.614773E-2,1.8274997E-1,7.907272E-2,1.0843545E-1,3.077887E-2,1.3888887E-1,1.4653844E-1,7.533386E-2,1.1999998E-1,-9.714289E-3,5.833333E-1,-9.000002E-3,-1.801804E-3,1.3333331E-2,4.4999998E-2,-6.325304E-3,-5.6250026E-3,1.7333332E-2,-7.636366E-3,4.7619026E-3,4.4999998E-2,-2.6016284E-3,5.1999997E-2,-7.5000017E-3,-5.0000013E-3,7.2E-2,8.1E-2,-5.0000013E-3,2.8310479E-3,1.0944442E-2,4.7027025E-2,1.5302196E-2,6.451414E-3,9.5122745E-3,2.4473682E-2,1.045185E-2,4.1666668E-2,2.7812873E-3,1.1393441E-2,7.2E-2,2.1185184E-2,7.5396798E-3,-3.2967057E-3,7.9574995E-3,4.4999998E-2,-7.5000017E-3,7.2E-2,-5.0000013E-3],"categories":[],"categories_nodes":[],"categories_segments":[],"categories_sizes":[],"default_left":[0,0,0,0,0,0,0,0,0,0,0,0,0,0,0,0,0,0,0,0,0,0,0,0,0,0,0,0,0,0,0,0,0,0,0,0,0,0,0,0,0,0,0,0,0,0,0,0,0,0,0,0,0,0,0,0,0,0,0,0,0,0,0,0,0,0,0,0,0,0,0,0,0,0,0,0,0,0,0,0,0,0,0,0,0,0,0,0,0,0,0,0,0,0,0,0,0,0,0,0,0,0,0,0,0,0,0,0,0,0,0,0,0,0,0,0,0,0,0,0,0,0,0,0,0,0,0,0,0,0,0,0,0,0,0,0,0,0,0],"id":3,"left_children":[1,3,5,7,-1,9,11,13,15,17,19,21,23,25,27,29,31,33,35,37,39,41,43,45,47,-1,49,51,53,-1,-1,-1,-1,-1,55,57,59,61,63,-1,65,67,69,71,73,-1,-1,75,-1,-1,77,79,81,83,85,-1,-1,87,-1,-1,-1,-1,89,91,93,95,97,-1,-1,99,101,-1,-1,-1,-1,-1,-1,-1,-1,103,105,107,109,111,113,115,-1,-1,-1,117,-1,119,121,123,125,127,129,131,133,135,-1,137,-1,-1,-1,-1,-1,-1,-1,-1,-1,-1,-1,-1,-1,-1,-1,-1,-1,-1,-1,-1,-1,-1,-1,-1,-1,-1,-1,-1,-1,-1,-1,-1,-1,-1,-1,-1,-1],"loss_changes":[2.2507558E2,3.688034E0,6.4102783E0,1.8434508E0,0E0,1.0342102E0,7.8068113E0,5.732951E-1,1.3594922E0,1.1348002E0,8.5324097E-1,1.290311E0,1.9367714E0,5.7491136E-1,5.4056907E-1,6.142857E-1,4.6180555E-1,1.2651515E0,3.5054433E-1,1.2421188E0,9.6772957E-1,1.2517021E0,1.4318333E0,1.5621834E0,6.502501E-1,0E0,4.628806E-1,3.1150615E-1,1.0641087E0,0E0,0E0,0E0,0E0,0E0,5.553334E-1,9.435314E-2,1.9666666E-1,1.5687618E0,1.2375793E0,0E0,9.17326E-1,4.755E-1,6.509376E-1,4.4517857E-1,6.594641E-1,0E0,0E0,4.4517857E-1,0E0,0E0,9.714285E-1,4.9054933E-1,2.4864173E-1,7.039113E-1,9.2638886E-1,0E0,0E0,4.7511113E-1,0E0,0E0,0E0,0E0,1.9995153E0,2.4291058E0,9.7167206E-1,1.2693292E0,1.1824036E0,0E0,0E0,2.012601E-1,1.672E0,0E0,0E0,0E0,0E0,0E0,0E0,0E0,0E0,6.6064453E-1,5.173004E-1,6.023804E-1,3.0120397E-1,4.4559076E-1,7.1325004E-1,5.553334E-1,0E0,0E0,0E0,7.47818E-1,0E0,1.0182438E0,3.347003E0,1.4554405E0,7.1492195E-1,8.994674E-1,1.7451329E0,1.1921177E0,1.1031504E0,3.5549998E-1,0E0,5.553334E-1,0E0,0E0,0E0,0E0,0E0,0E0,0E0,0E0,0E0,0E0,0E0,0E0,0E0,0E0,0E0,0E0,0E0,0E0,0E0,0E0,0E0,0E0,0E0,0E0,0E0,0E0,0E0,0E0,0E0,0E0,0E0,0E0,0E0,0E0,0E0,0E0,0E0],"parents":[2147483647,0,0,1,1,2,2,3,3,5,5,6,6,7,7,8,8,9,9,10,10,11,11,12,12,13,13,14,14,15,15,16,16,17,17,18,18,19,19,20,20,21,21,22,22,23,23,24,24,26,26,27,27,28,28,34,34,35,35,36,36,37,37,38,38,40,40,41,41,42,42,43,43,44,44,47,47,50,50,51,51,52,52,53,53,54,54,57,57,62,62,63,63,64,64,65,65,66,66,69,69,70,70,79,79,80,80,81,81,82,82,83,83,84,84,85,85,89,89,91,91,92,92,93,93,94,94,95,95,96,96,97,97,98,98,99,99,101,101],"right_children":[2,4,6,8,-1,10,12,14,16,18,20,22,24,26,28,30,32,34,36,38,40,42,44,46,48,-1,50,52,54,-1,-1,-1,-1,-1,56,58,60,62,64,-1,66,68,70,72,74,-1,-1,76,-1,-1,78,80,82,84,86,-1,-1,88,-1,-1,-1,-1,90,92,94,96,98,-1,-1,100,102,-1,-1,-1,-1,-1,-1,-1,-1,104,106,108,110,112,114,116,-1,-1,-1,118,-1,120,122,124,126,128,130,132,134,136,-1,138,-1,-1,-1,-1,-1,-1,-1,-1,-1,-1,-1,-1,-1,-1,-1,-1,-1,-1,-1,-1,-1,-1,-1,-1,-1,-1,-1,-1,-1,-1,-1,-1,-1,-1,-1,-1,-1],"split_conditions":[2.5967087E3,-1.8369701E-16,3.1218994E3,2.6359827E3,-1.598075E2,2.048478E-1,3.3993967E3,1.1205322E3,5.2825487E-1,6.2376773E-1,1.8E1,8.862064E0,7.5676066E-1,9.386572E1,1.1307825E1,1.6E1,2.661329E3,9.514097E2,3.1039192E3,-2.449381E-1,1.5061499E3,2.2557665E-1,3.0977156E3,-7.0710677E-1,4.888956E-1,5.2466063E0,1.0264973E3,4.4078276E-1,4E0,1.1332812E1,-2.934043E1,2.0241282E3,-9.271875E0,-3.2019043E0,7.818315E-1,2.9047222E3,-5E-1,4.4078276E-1,3.147334E3,-7.000398E0,6.061066E2,3E0,6.258043E-1,2.9538599E3,3E0,-1.0766235E1,1.7386123E3,3.081202E-1,2.1524685E3,-1.5587971E2,8.647584E-1,1.4E1,-1.3525137E-1,1.5833189E1,1.397139E1,1.2932642E1,-5.534253E1,2.9524553E3,-5.869048E0,-3.4672853E-1,1.1157886E1,-9.577319E0,2.5845608E3,5.8612984E-1,3.2195098E3,7.272143E-1,-1.5312788E-1,1.4903028E1,-5.7274292E1,2.788317E-1,3.038038E3,3.4775636E0,-1.6552002E1,1.16146E1,-1.377251E1,1.1409296E3,-3.0149267E1,-1.6057173E2,4.8755398E1,1.0286166E3,-5E-1,-1.5095079E-1,1.5833189E1,-8.660254E-1,1.9903297E1,9.837975E2,-1.5624274E2,-1.4130518E1,1.3034472E1,1E0,-2.2971924E1,-4.3388373E-1,2.6672139E3,8.146962E-1,1.4213324E-1,6.0175186E-1,8.8957727E-1,3.3766694E3,4.192905E-1,-5E-1,-3.8794937E0,3.247931E3,-1.1884717E1,-3.1293766E0,1.6130533E1,6.4066405E0,-1.10101135E2,-1.5556364E2,7.983446E2,-1.5542906E2,1.7162056E1,1.0712891E-1,-7.574454E0,1.8069242E3,-1.9166994E2,-2.0097217E2,3.933562E1,1.4496485E1,-2.2391455E1,7.3520684E0,8.486353E0,1.0821496E1,9.4249E0,6.8584146E0,8.5880375E0,1.4248026E1,8.139429E0,1.1995386E1,3.8828628E0,8.709018E0,1.4702197E1,1.0600315E1,6.794745E0,-1.1207199E0,8.0316E0,2.509961E0,-5.470093E0,1.1798144E1,-1.4621729E1],"split_indices":[17,1,11,8,0,20,8,15,23,12,7,12,23,22,13,7,8,22,11,18,11,20,9,1,20,0,10,21,4,0,0,0,0,0,2,10,0,21,14,0,22,4,20,9,4,0,0,21,0,0,19,7,18,12,13,0,0,11,0,0,0,0,8,20,17,21,18,0,0,20,9,0,0,0,0,0,0,0,0,16,0,18,12,0,12,11,0,0,0,3,0,2,17,19,12,19,23,14,23,1,0,17,0,0,0,0,0,0,0,0,0,0,0,0,0,0,0,0,0,0,0,0,0,0,0,0,0,0,0,0,0,0,0,0,0,0,0,0,0],"split_type":[0,0,0,0,0,0,0,0,0,0,0,0,0,0,0,0,0,0,0,0,0,0,0,0,0,0,0,0,0,0,0,0,0,0,0,0,0,0,0,0,0,0,0,0,0,0,0,0,0,0,0,0,0,0,0,0,0,0,0,0,0,0,0,0,0,0,0,0,0,0,0,0,0,0,0,0,0,0,0,0,0,0,0,0,0,0,0,0,0,0,0,0,0,0,0,0,0,0,0,0,0,0,0,0,0,0,0,0,0,0,0,0,0,0,0,0,0,0,0,0,0,0,0,0,0,0,0,0,0,0,0,0,0,0,0,0,0,0,0],"sum_hessian":[2.7644E4,1.5025E4,1.2619E4,1.188E3,1.3837E4,1.2506E4,1.13E2,1.174E3,1.4E1,8.3E1,1.2423E4,7E1,4.3E1,2.57E2,9.17E2,6E0,8E0,1E1,7.3E1,8.816E3,3.607E3,5.6E1,1.4E1,3.4E1,9E0,1E0,2.56E2,7.79E2,1.38E2,5E0,1E0,1E0,7E0,5E0,5E0,7.1E1,2E0,2E1,8.796E3,3.3E1,3.574E3,4E0,5.2E1,7E0,7E0,2E0,3.2E1,7E0,2E0,2.48E2,8E0,3.14E2,4.65E2,1.3E2,8E0,4E0,1E0,9E0,6.2E1,1E0,1E0,6E0,1.4E1,1.156E3,7.64E3,9.2E2,2.654E3,3E0,1E0,3.8E1,1.4E1,1E0,6E0,6E0,1E0,1E0,6E0,6E0,2E0,1.48E2,1.66E2,6.1E1,4.04E2,1.23E2,7E0,5E0,3E0,8E0,1E0,1E1,4E0,7.57E2,3.99E2,6.254E3,1.386E3,7.95E2,1.25E2,2.59E2,2.395E3,4E0,3.4E1,5E0,9E0,1.1E2,3.8E1,1E0,1.65E2,4.7E1,1.4E1,3.84E2,2E1,1E0,1.22E2,4E0,3E0,1E0,4E0,9E0,1E0,2.18E2,5.39E2,3.6E1,3.63E2,3.282E3,2.972E3,3.7E1,1.349E3,5E0,7.9E2,1.21E2,4E0,1.34E2,1.25E2,9E1,2.305E3,1E0,3E0,4E0,1E0],"tree_param":{"num_deleted":"0","num_feature":"26","num_nodes":"139","size_leaf_vector":"1"}},{"base_weights":[-1.7194087E-2,-9.5708095E-2,7.5240396E-2,-4.3919533E-2,-9.999278E-3,7.3222496E-2,2.9911503E-1,7.3437475E-2,-5.0833356E-2,7.423404E-2,-9.864868E-3,1.3874997E-1,6.6764706E-1,5.2E-1,3.4999978E-2,-6.34881E-2,-1.5140869E-2,1.0375397E-1,7.09422E-2,7.619045E-2,3.4999996E-1,7.84E-2,3.0999997E-1,-5.0000013E-3,6.7499995E-2,-4.8780512E-2,2.0499998E-1,2.6666665E-1,-6.465411E-2,3.3888865E-2,-9.904765E-3,2.6938772E-1,9.692688E-2,6.984927E-2,1.4176469E-1,4.9180303E-2,6E-2,9.090907E-2,6.6249996E-1,5.7142835E-2,6.7499995E-2,-9.705885E-3,1.6249998E-1,-8.750002E-3,3.6923075E-1,-5.0000013E-3,4.4999998E-2,-8.803091E-2,-5.325887E-2,6.2111565E-3,2.5499997E-1,6.6249996E-1,1.8809521E-1,1.216389E-1,5.1179223E-2,4.9637657E-2,7.410926E-2,2.6833332E-1,7.207205E-2,4.2499998E-1,2.241377E-2,-8.750002E-3,4.2499998E-1,7.714286E-2,-5.0000013E-3,-8.333336E-3,4.4999998E-2,-7.5000017E-3,3.2E-1,5.7777774E-1,-8.000002E-3,-9.1828816E-2,2.6666665E-1,5.1666643E-2,-6.631801E-2,-9.743593E-3,3.9024368E-2,6.285714E-1,4.999998E-2,-5.0000013E-3,7.714286E-2,6.7499995E-2,1.3333331E-1,5.114153E-2,1.4884545E-1,1.1021503E-1,5.020897E-3,7.4740104E-2,2.4716763E-2,1.1026854E-1,7.141345E-2,1.4634144E-1,5.05E-1,-6.5789707E-3,2.3611109E-1,-5.0000013E-3,6E-2,-9.64286E-3,1.2903224E-1,6E-2,-5.0000013E-3,6E-2,-6.6666687E-3,-6.6666687E-3,7.714286E-2,-8.695675E-4,-9.9574495E-3,4.4999998E-2,-5.0000013E-3,-1.9607868E-3,4.0999997E-2,-8.165377E-3,-1.0869801E-4,2.5833312E-3,4.25E-2,7.5E-2,-5.0000013E-3,-9.090912E-3,4.25E-2,2.8571427E-2,-4.210529E-3,2.4827585E-2,2.0942385E-3,1.8522425E-2,7.3513496E-3,8.3333097E-4,1.9223299E-2,1.6999997E-2,-1.8571453E-3,6.2690037E-3,1.6944444E-2,-2.146467E-3,5.6423587E-3,9.200708E-3,2.5352111E-2,5.1999997E-2,7.114162E-3,2.9565215E-2,-4.210529E-3,8.1E-2,1.8181816E-2,4.25E-2,-3.013701E-3,7.2E-2,1.53124975E-2,3.0999998E-2,4.0909066E-3],"categories":[],"categories_nodes":[],"categories_segments":[],"categories_sizes":[],"default_left":[0,0,0,0,0,0,0,0,0,0,0,0,0,0,0,0,0,0,0,0,0,0,0,0,0,0,0,0,0,0,0,0,0,0,0,0,0,0,0,0,0,0,0,0,0,0,0,0,0,0,0,0,0,0,0,0,0,0,0,0,0,0,0,0,0,0,0,0,0,0,0,0,0,0,0,0,0,0,0,0,0,0,0,0,0,0,0,0,0,0,0,0,0,0,0,0,0,0,0,0,0,0,0,0,0,0,0,0,0,0,0,0,0,0,0,0,0,0,0,0,0,0,0,0,0,0,0,0,0,0,0,0,0,0,0,0,0,0,0,0,0,0,0,0,0,0,0],"id":4,"left_children":[1,3,5,7,-1,9,11,13,15,17,-1,19,21,23,25,27,29,31,33,35,37,-1,39,-1,-1,41,43,45,47,49,-1,51,53,55,57,59,-1,61,63,65,-1,-1,67,-1,69,-1,-1,71,73,75,77,79,81,83,85,87,89,91,93,95,97,-1,99,-1,-1,-1,-1,-1,101,103,-1,105,107,109,111,-1,113,115,117,-1,-1,-1,119,121,123,125,127,129,131,133,135,137,139,141,143,-1,-1,-1,145,-1,-1,-1,-1,-1,-1,-1,-1,-1,-1,-1,-1,-1,-1,-1,-1,-1,-1,-1,-1,-1,-1,-1,-1,-1,-1,-1,-1,-1,-1,-1,-1,-1,-1,-1,-1,-1,-1,-1,-1,-1,-1,-1,-1,-1,-1,-1,-1],"loss_changes":[2.0045663E2,3.3096466E0,5.709076E0,9.3114686E-1,0E0,2.193367E0,6.5856247E0,1.0803437E0,4.868524E-1,1.207428E0,0E0,1.0305892E0,1.1718111E0,4.755E-1,8.645609E-1,3.2405686E-1,1.1717118E0,1.3896456E0,8.6088943E-1,8.6182666E-1,1.3971591E0,0E0,8.843571E-1,0E0,0E0,4.3398315E-1,9.9305785E-1,1.9666666E-1,2.0708704E-1,1.0999889E0,0E0,1.4412842E0,1.3549156E0,9.5041275E-1,1.4802141E0,6.04097E-1,0E0,6.9284093E-1,6.594641E-1,4.2380953E-1,0E0,0E0,3.2325006E-1,0E0,1.2641367E0,0E0,0E0,3.7338853E-1,7.39244E-1,5.513623E-1,1.5002146E0,6.594641E-1,1.0298809E0,1.4903383E0,1.154844E0,1.2067647E0,8.840599E-1,1.6583819E0,1.4336572E0,3.6249995E-1,7.4734825E-1,0E0,3.6249995E-1,0E0,0E0,0E0,0E0,0E0,5.813333E-1,1.174603E0,0E0,1.6462207E-1,1.9666666E-1,1.5404412E0,4.7808695E-1,0E0,6.152663E-1,6.142857E-1,7.784091E-1,0E0,0E0,0E0,1.0546367E0,1.2985704E0,1.5292768E0,1.5526388E0,9.3340343E-1,1.0872049E0,1.423014E0,1.6326022E0,1.0016785E0,1.1660705E0,1.8241363E0,7.855119E-1,1.3353682E0,0E0,0E0,0E0,4.8168916E-1,0E0,0E0,0E0,0E0,0E0,0E0,0E0,0E0,0E0,0E0,0E0,0E0,0E0,0E0,0E0,0E0,0E0,0E0,0E0,0E0,0E0,0E0,0E0,0E0,0E0,0E0,0E0,0E0,0E0,0E0,0E0,0E0,0E0,0E0,0E0,0E0,0E0,0E0,0E0,0E0,0E0,0E0,0E0,0E0,0E0,0E0,0E0,0E0],"parents":[2147483647,0,0,1,1,2,2,3,3,5,5,6,6,7,7,8,8,9,9,11,11,12,12,13,13,14,14,15,15,16,16,17,17,18,18,19,19,20,20,22,22,25,25,26,26,27,27,28,28,29,29,31,31,32,32,33,33,34,34,35,35,37,37,38,38,39,39,42,42,44,44,47,47,48,48,49,49,50,50,51,51,52,52,53,53,54,54,55,55,56,56,57,57,58,58,59,59,60,60,62,62,68,68,69,69,71,71,72,72,73,73,74,74,76,76,77,77,78,78,82,82,83,83,84,84,85,85,86,86,87,87,88,88,89,89,90,90,91,91,92,92,93,93,94,94,98,98],"right_children":[2,4,6,8,-1,10,12,14,16,18,-1,20,22,24,26,28,30,32,34,36,38,-1,40,-1,-1,42,44,46,48,50,-1,52,54,56,58,60,-1,62,64,66,-1,-1,68,-1,70,-1,-1,72,74,76,78,80,82,84,86,88,90,92,94,96,98,-1,100,-1,-1,-1,-1,-1,102,104,-1,106,108,110,112,-1,114,116,118,-1,-1,-1,120,122,124,126,128,130,132,134,136,138,140,142,144,-1,-1,-1,146,-1,-1,-1,-1,-1,-1,-1,-1,-1,-1,-1,-1,-1,-1,-1,-1,-1,-1,-1,-1,-1,-1,-1,-1,-1,-1,-1,-1,-1,-1,-1,-1,-1,-1,-1,-1,-1,-1,-1,-1,-1,-1,-1,-1,-1,-1,-1,-1],"split_conditions":[1.1478888E3,-1.8369701E-16,3.1218994E3,4.291065E-1,-1.4393114E2,6.123234E-17,3.4450176E3,-1.4673305E-1,1.1451932E3,3.3178003E3,-7.8273674E1,8.550114E0,7.5676066E-1,-7.818315E-1,7.818315E-1,9.386572E1,7.818315E-1,2.63722E3,8.757591E-1,1.9240013E1,3.0977156E3,1.5913304E3,8.3586776E-1,-1.6352357E2,1.4812557E3,1.1298888E3,9.9696594E2,9.749279E-1,1.1205322E3,9.871718E0,-1.4806764E2,5.182047E-1,8.5524356E-1,2.9543613E3,2.9907012E3,2.7725078E3,9.256739E0,2.5881904E-1,3E0,1.0570796E1,1.9372216E3,-1.4449965E2,1.033501E3,-1.5252344E1,1.0682604E3,-1.9714937E2,4.721948E0,9.9020916E-1,1.1251066E3,-7.979696E-2,1.2294047E1,-9.659258E-1,2.9810584E-1,2.8782842E3,6.163906E-1,2.9365642E3,2.9653733E3,2.9718845E3,2.5881904E-1,2.838048E3,6.469226E-1,-6.0441893E-1,2.9184907E3,1.045315E1,-1.2395264E1,-2.7134352E1,1.1936406E3,-1.5701233E2,1.0399802E3,2E0,-1.5549202E2,-7.818315E-1,0E0,8.550114E0,7.818315E-1,-1.4114757E2,7.6461977E-1,1.0509335E3,1.5E1,-1.8844727E0,1.3673218E1,1.8217152E3,6.234898E-1,6.356347E-1,3.00728E3,4.7969377E-1,4.3639813E2,1.821063E-1,3.4023794E3,3.3214043E3,2.843779E3,3.3118071E3,-2.2252093E-1,3.3345718E3,4.0829135E2,-1.0738892E1,1.072146E1,-6.1725693E0,3.204392E-1,6.5215087E0,-4.4942455E1,2.21521E1,-1.782636E2,-1.4006845E2,5.36167E1,5.6251235E0,-1.4036131E2,3.0447706E1,-1.492846E2,-1.53786335E1,4.6673412E1,-1.4332713E2,1.5831908E1,1.0091228E1,1.9282618E1,2.5734425E1,-1.9727275E2,-2.3570473E1,1.6463257E1,1.1111272E1,-8.184449E0,1.3027117E1,3.3869748E0,1.0124902E1,1.015581E1,2.6216364E0,1.0281184E1,1.2822779E1,-1.6350101E0,5.3929152E0,9.641049E0,-1.3832234E0,6.540892E0,7.945925E0,1.3602234E1,1.0308179E1,6.859043E0,1.1146E1,-7.0595064E0,1.3083423E1,7.0426354E0,7.7507815E0,-3.4237084E0,1.0936133E1,1.3383815E1,9.730443E0,4.7407646E0],"split_indices":[8,1,11,23,0,1,8,18,15,15,0,12,23,2,2,22,2,17,21,13,9,0,23,0,0,8,8,2,15,12,0,23,19,11,10,17,0,0,4,13,0,0,9,0,8,0,0,19,15,18,12,0,20,16,23,10,11,10,0,9,23,0,8,0,0,0,0,0,9,4,0,2,2,12,2,0,20,9,7,0,0,0,3,19,16,20,22,18,15,8,10,14,3,15,22,0,0,0,20,0,0,0,0,0,0,0,0,0,0,0,0,0,0,0,0,0,0,0,0,0,0,0,0,0,0,0,0,0,0,0,0,0,0,0,0,0,0,0,0,0,0,0,0,0,0,0,0],"split_type":[0,0,0,0,0,0,0,0,0,0,0,0,0,0,0,0,0,0,0,0,0,0,0,0,0,0,0,0,0,0,0,0,0,0,0,0,0,0,0,0,0,0,0,0,0,0,0,0,0,0,0,0,0,0,0,0,0,0,0,0,0,0,0,0,0,0,0,0,0,0,0,0,0,0,0,0,0,0,0,0,0,0,0,0,0,0,0,0,0,0,0,0,0,0,0,0,0,0,0,0,0,0,0,0,0,0,0,0,0,0,0,0,0,0,0,0,0,0,0,0,0,0,0,0,0,0,0,0,0,0,0,0,0,0,0,0,0,0,0,0,0,0,0,0,0,0,0],"sum_hessian":[2.7619E4,1.4934E4,1.2685E4,1.142E3,1.3792E4,1.2573E4,1.12E2,6.3E1,1.079E3,1.25E4,7.3E1,7.9E1,3.3E1,4E0,5.9E1,7.96E2,2.83E2,1.251E3,1.1249E4,6.2E1,1.7E1,2.4E1,9E0,1E0,3E0,4E1,1.9E1,2E0,7.94E2,1.79E2,1.04E2,4.8E1,1.203E3,1.108E4,1.69E2,6E1,2E0,1E1,7E0,6E0,3E0,3.3E1,7E0,7E0,1.2E1,1E0,1E0,2.58E2,5.36E2,1.6E2,1.9E1,7E0,4.1E1,7.8E2,4.23E2,1.931E3,9.149E3,5.9E1,1.1E2,3E0,5.7E1,7E0,3E0,6E0,1E0,5E0,1E0,3E0,4E0,8E0,4E0,2.56E2,2E0,5.9E1,4.77E2,3.8E1,1.22E2,6E0,1.3E1,1E0,6E0,3E0,3.8E1,2.18E2,5.62E2,1.85E2,2.38E2,9.61E2,9.7E2,6.32E2,8.517E3,4E1,1.9E1,7.5E1,3.5E1,1E0,2E0,2.7E1,3E1,2E0,1E0,2E0,2E0,2E0,6E0,2.2E1,2.34E2,1E0,1E0,5E1,9E0,3.86E2,9.1E1,1.19E2,3E0,5E0,1E0,1E1,3E0,2E1,1.8E1,2.8E1,1.9E2,3.78E2,1.84E2,8.3E1,1.02E2,2.9E1,2.09E2,8.54E2,1.07E2,3.95E2,5.75E2,5.62E2,7E1,4E0,8.513E3,2.2E1,1.8E1,9E0,1E1,3E0,7.2E1,4E0,3.1E1,9E0,2.1E1],"tree_param":{"num_deleted":"0","num_feature":"26","num_nodes":"147","size_leaf_vector":"1"}},{"base_weights":[-1.996042E-2,-9.502882E-2,6.955558E-2,-3.757276E-2,-9.999284E-3,6.737829E-2,3.0256408E-1,-4.1387983E-2,5.3749996E-1,6.5441824E-2,1.11619025E-1,1.16455674E-1,6.7179483E-1,-8.138689E-2,-2.9469145E-2,7.5E-2,-6.6666687E-3,7.103503E-2,5.17862E-2,1.8374997E-1,5.069928E-2,4.5454544E-1,6.086954E-2,8E-2,2.7272725E-1,4.4999998E-2,-8.498171E-2,-3.885432E-2,3.3057828E-2,1.0007115E-1,6.530094E-2,7.76117E-3,5.6429677E-2,1.5509257E-1,4.2399997E-1,-1.854841E-2,1.0306746E-1,-8.000002E-3,7.714286E-2,2.588235E-1,-3.7736082E-3,-7.5000017E-3,4.1249996E-1,1.7499998E-1,-8.8518545E-2,-5.6167006E-2,-5.776197E-3,4.1666666E-1,1.2931011E-2,-7.962965E-2,1.0717453E-1,5.3039648E-2,7.994452E-2,-6.9306955E-2,4.085104E-2,1.3658534E-1,5.3171188E-2,2.5857142E-1,1.0476188E-1,5.5294114E-1,1.3333331E-1,6E-2,-3.360658E-2,3.645831E-2,1.9558822E-1,2.22222E-2,4.6666664E-1,-9.722224E-3,1.8333331E-1,6.7499995E-2,1.1999998E-1,-6.6666687E-3,4.4999998E-2,-4.2592615E-2,-9.953919E-3,-1.0869801E-3,-6.766058E-2,1.259259E-1,-1.9920342E-2,-6.6666687E-3,6.7499995E-2,1.3666664E-1,-2.9885082E-2,-9.803924E-3,1.7499998E-1,2.9696968E-1,1.0234846E-1,4.981341E-2,1.4503814E-1,3.8284495E-2,8.710723E-2,-7.9000026E-2,4.4999998E-2,2.3999998E-1,2.7149297E-2,7.1276575E-2,3.3666664E-1,5.168872E-2,2.3749998E-1,1.8245612E-1,5.4999995E-1,2.0317458E-1,3.0588211E-2,6.4E-1,-6.6666687E-3,-8.57143E-3,6E-2,2.4999999E-1,-4.786327E-2,1.8085083E-2,6E-2,-3.1250022E-2,2.6037735E-1,-8.750002E-3,4.4999998E-2,-6.6666687E-3,6.285714E-1,5.833333E-1,-1.5384638E-2,-7.5000017E-3,4.4999998E-2,-5.9615406E-3,2.6666665E-2,-1.0989035E-3,4.4999998E-2,-6.988508E-3,4.4999998E-2,-9.5000025E-3,6.625E-2,-4.450002E-3,7.4999975E-3,-3.8888913E-3,3.6923077E-2,-9.833336E-3,1.1785712E-2,-6.6666687E-3,4.4999998E-2,1.5416664E-2,6.0999997E-2,4.7491617E-3,1.1829744E-2,2.1856264E-3,5.9978166E-3,2.1428547E-3,2.011111E-2,2.4999997E-2,2.604854E-3,2.1754384E-2,8.433467E-3,-9.883723E-3,3.999998E-3,4.0999997E-2,-8.333336E-3,9.950226E-4,1.9047616E-2,2.4999997E-2,2.8985273E-4,1.5499997E-2,6.363636E-2,2.241628E-3,6.0282755E-3,-1.5384638E-3,4.9166664E-2,1.0612243E-2,5.7777774E-2,-6.6666687E-3,6.583333E-2,6.9444417E-3,3.6785714E-2,-2.3547515E-9,5.1999997E-2,8.1E-2,2.4999999E-2,6E-2,-7.5000017E-3,4.4999998E-2,-5.603451E-3,-3.69231E-3,1.3666664E-2,4.4999998E-2,-9.333336E-3,1.911111E-2,5.7777774E-2,-5.0000013E-3,7.5E-2,7.2E-2,-5.0000013E-3,-9.166669E-3,4.4999998E-2],"categories":[],"categories_nodes":[],"categories_segments":[],"categories_sizes":[],"default_left":[0,0,0,0,0,0,0,0,0,0,0,0,0,0,0,0,0,0,0,0,0,0,0,0,0,0,0,0,0,0,0,0,0,0,0,0,0,0,0,0,0,0,0,0,0,0,0,0,0,0,0,0,0,0,0,0,0,0,0,0,0,0,0,0,0,0,0,0,0,0,0,0,0,0,0,0,0,0,0,0,0,0,0,0,0,0,0,0,0,0,0,0,0,0,0,0,0,0,0,0,0,0,0,0,0,0,0,0,0,0,0,0,0,0,0,0,0,0,0,0,0,0,0,0,0,0,0,0,0,0,0,0,0,0,0,0,0,0,0,0,0,0,0,0,0,0,0,0,0,0,0,0,0,0,0,0,0,0,0,0,0,0,0,0,0,0,0,0,0,0,0,0,0,0,0,0,0,0,0,0,0,0,0,0,0,0,0,0,0],"id":5,"left_children":[1,3,5,7,-1,9,11,13,15,17,19,21,23,25,27,-1,-1,29,31,33,35,37,39,-1,41,-1,43,45,47,49,51,53,55,57,59,61,63,-1,-1,65,67,-1,69,71,73,75,77,79,81,83,85,87,89,91,93,95,97,99,101,103,105,-1,107,109,111,113,115,-1,117,-1,119,-1,-1,121,-1,123,125,127,129,-1,-1,131,133,-1,135,137,139,141,143,145,147,149,-1,151,153,155,157,159,161,163,165,167,169,171,-1,-1,-1,173,175,177,-1,179,181,-1,-1,-1,183,185,187,-1,-1,-1,-1,-1,-1,-1,-1,-1,-1,-1,-1,-1,-1,-1,-1,-1,-1,-1,-1,-1,-1,-1,-1,-1,-1,-1,-1,-1,-1,-1,-1,-1,-1,-1,-1,-1,-1,-1,-1,-1,-1,-1,-1,-1,-1,-1,-1,-1,-1,-1,-1,-1,-1,-1,-1,-1,-1,-1,-1,-1,-1,-1,-1,-1,-1,-1,-1,-1,-1],"loss_changes":[1.8664969E2,4.304962E0,6.4069405E0,2.6616664E0,0E0,1.0681229E0,7.961649E0,5.677829E-1,1.0770833E0,9.15081E-1,2.297638E0,1.4569869E0,1.7771568E0,5.6164813E-1,5.429254E-1,0E0,0E0,1.4138374E0,7.14859E-1,1.586627E0,1.0390551E0,1.9249868E0,8.8392615E-1,0E0,5.655681E-1,0E0,2.6651764E-1,4.5953047E-1,9.288318E-1,1.8019924E0,1.2754078E0,8.5713965E-1,8.193922E-1,1.0978751E0,8.632469E-1,1.1751256E0,9.9739397E-1,0E0,0E0,8.256208E-1,9.445231E-1,0E0,5.332501E-1,2.9583335E-1,1.3241625E-1,3.3355224E-1,5.185079E-1,7.9416656E-1,6.186379E-1,2.7028868E-1,1.2079916E0,1.1449881E0,9.652653E-1,5.439516E-1,6.347257E-1,1.5832524E0,8.1926155E-1,1.4524007E0,1.066831E0,9.596863E-1,9.714285E-1,0E0,5.0524735E-1,9.8314047E-1,1.0075092E0,4.6180555E-1,8.190478E-1,0E0,1.4397438E0,0E0,3.5549998E-1,0E0,0E0,3.0017808E-1,0E0,4.1588035E-1,5.335195E-1,3.2636018E0,5.889484E-1,0E0,0E0,1.2391967E0,8.913941E-1,0E0,2.9583335E-1,1.381114E0,1.1492624E0,1.0649233E0,9.0367174E-1,1.2317665E0,9.830513E-1,2.4001634E-1,0E0,8.586667E-1,6.1890936E-1,1.1480266E0,1.5347118E0,7.583847E-1,1.5501604E0,1.6587372E0,9.791665E-1,1.3619049E0,1.2724706E0,7.919998E-1,0E0,0E0,0E0,7.2749996E-1,5.0118995E-1,6.18204E-1,0E0,5.200417E-1,1.0547922E0,0E0,0E0,0E0,6.142857E-1,5.553334E-1,5.027565E-1,0E0,0E0,0E0,0E0,0E0,0E0,0E0,0E0,0E0,0E0,0E0,0E0,0E0,0E0,0E0,0E0,0E0,0E0,0E0,0E0,0E0,0E0,0E0,0E0,0E0,0E0,0E0,0E0,0E0,0E0,0E0,0E0,0E0,0E0,0E0,0E0,0E0,0E0,0E0,0E0,0E0,0E0,0E0,0E0,0E0,0E0,0E0,0E0,0E0,0E0,0E0,0E0,0E0,0E0,0E0,0E0,0E0,0E0,0E0,0E0,0E0,0E0,0E0,0E0,0E0,0E0,0E0,0E0,0E0,0E0],"parents":[2147483647,0,0,1,1,2,2,3,3,5,5,6,6,7,7,8,8,9,9,10,10,11,11,12,12,13,13,14,14,17,17,18,18,19,19,20,20,21,21,22,22,24,24,26,26,27,27,28,28,29,29,30,30,31,31,32,32,33,33,34,34,35,35,36,36,39,39,40,40,42,42,43,43,44,44,45,45,46,46,47,47,48,48,49,49,50,50,51,51,52,52,53,53,54,54,55,55,56,56,57,57,58,58,59,59,60,60,62,62,63,63,64,64,65,65,66,66,68,68,70,70,73,73,75,75,76,76,77,77,78,78,81,81,82,82,84,84,85,85,86,86,87,87,88,88,89,89,90,90,91,91,93,93,94,94,95,95,96,96,97,97,98,98,99,99,100,100,101,101,102,102,103,103,107,107,108,108,109,109,111,111,112,112,116,116,117,117,118,118],"right_children":[2,4,6,8,-1,10,12,14,16,18,20,22,24,26,28,-1,-1,30,32,34,36,38,40,-1,42,-1,44,46,48,50,52,54,56,58,60,62,64,-1,-1,66,68,-1,70,72,74,76,78,80,82,84,86,88,90,92,94,96,98,100,102,104,106,-1,108,110,112,114,116,-1,118,-1,120,-1,-1,122,-1,124,126,128,130,-1,-1,132,134,-1,136,138,140,142,144,146,148,150,-1,152,154,156,158,160,162,164,166,168,170,172,-1,-1,-1,174,176,178,-1,180,182,-1,-1,-1,184,186,188,-1,-1,-1,-1,-1,-1,-1,-1,-1,-1,-1,-1,-1,-1,-1,-1,-1,-1,-1,-1,-1,-1,-1,-1,-1,-1,-1,-1,-1,-1,-1,-1,-1,-1,-1,-1,-1,-1,-1,-1,-1,-1,-1,-1,-1,-1,-1,-1,-1,-1,-1,-1,-1,-1,-1,-1,-1,-1,-1,-1,-1,-1,-1,-1,-1,-1,-1,-1,-1,-1],"split_conditions":[2.552985E3,-1.8369701E-16,3.1218994E3,2.9157727E3,-1.29609E2,3.07769E3,3.4450176E3,1.1205322E3,2.9679539E3,1.8E1,3.088404E3,-1.3525137E-1,7.5676066E-1,9.386572E1,1.0175426E1,1.5431323E1,-1.1894458E1,3.3490364E3,2.7424546E3,3.4471643E3,-1.9702207E-2,-5E-1,3.204392E-1,1.411653E3,1.1245276E0,4.249756E0,1.9961591E-1,1.019548E3,2.2557665E-1,2.1650822E-1,3.421464E3,5.5679065E-1,2.7667937E3,2.9685435E3,7.1175975E-1,3.0804617E2,3.3613021E0,-5.4396975E-1,9.649317E0,6.4067113E-1,6.258043E-1,-2.9947607E1,4.2887425E0,9.5657855E2,1.0905557E3,-1.2007467E-1,3E0,6.448177E-1,1.2063756E1,1.4274304E3,2.63722E3,8.3494514E-1,2.8494796E-1,3.0661436E3,2.8895557E3,7.585656E-1,9.9692124E-1,2.8824604E3,1.4E1,6.4571375E-1,3.0955645E3,6.279785E0,3.3716064E3,8.8749933E-1,5.9544574E2,9.749279E-1,2.3597577E-1,-5.6558013E0,3.0277017E3,1.300496E3,8.650977E0,-1.301578E2,2.740293E1,9.995278E2,-1.2621478E2,1.026877E3,1.1491958E3,1.1475889E3,1.0577747E-1,-1.5703136E2,2.4030664E1,5.524867E0,4.733849E-2,-4.652718E0,2.5881904E-1,1.0716967E3,2.8741765E3,-2.2252093E-1,1.871175E0,2.8359915E3,1.1760049E-1,1.3604913E-2,1.1806177E1,2.9444248E3,1.2541929E3,1.05277E0,-4.718054E-2,3.2167285E3,6.234898E-1,3.0809897E3,5.207949E-1,7.8344405E-1,9.8714656E-1,4.7232113E0,-2.0951416E1,-1.3663867E1,1.5212598E1,3.2833884E3,2.0273E-1,8.6304426E-1,1.3212256E1,-9.659258E-1,4E0,-3.68313E0,8.331055E0,-1.0688965E0,3.0291216E3,3.305822E3,7.1247687E0,-2.4420923E1,1.7434994E3,-3.2230686E1,4.825503E1,-8.642207E0,2.988269E1,-1.2930942E2,3.9061035E1,-1.3686865E2,3.3802345E1,-1.9316805E1,1.8176195E1,-9.719336E1,4.064341E1,-1.3664796E2,4.465261E1,-4.4301685E1,1.4372803E1,1.08156395E1,1.1986157E1,4.763372E0,8.4548025E0,3.9421089E0,5.9761367E0,7.2387924E0,9.842529E0,1.1103656E1,2.0788524E0,1.0619178E1,7.0827217E0,-1.1315856E1,1.4156616E1,1.3854881E1,-4.4057617E0,2.5940375E0,1.080004E1,1.1417417E1,8.766753E-1,1.2607784E1,1.4386841E1,3.3420436E0,5.864856E0,-2.4325919E-1,1.1192691E1,1.157308E1,1.0284327E1,-2.8793702E0,1.4645746E1,7.2006145E0,1.0332509E1,9.9602026E-1,1.2471509E1,1.4141185E1,1.0006396E1,1.4729077E1,-7.8427978E0,1.5096313E1,-2.9214551E0,-1.02540045E1,8.437549E0,7.875684E0,-1.4348673E1,7.979831E0,1.2471802E1,-2.2998291E1,1.2439673E1,9.768847E0,-1.2542285E1,-9.273687E0,9.407837E0],"split_indices":[8,1,11,16,0,11,8,15,16,7,10,18,23,22,12,0,0,15,17,15,18,0,20,0,12,0,21,9,20,21,15,23,17,17,23,22,12,0,0,23,20,0,12,8,15,18,7,23,12,22,17,21,21,11,14,23,19,8,7,20,11,0,15,21,22,2,21,0,9,0,12,0,0,11,0,11,15,15,18,0,0,13,18,0,0,22,16,3,12,16,13,18,0,11,22,12,18,14,3,9,12,19,19,12,0,0,0,14,20,19,0,0,4,0,0,0,10,8,12,0,0,0,0,0,0,0,0,0,0,0,0,0,0,0,0,0,0,0,0,0,0,0,0,0,0,0,0,0,0,0,0,0,0,0,0,0,0,0,0,0,0,0,0,0,0,0,0,0,0,0,0,0,0,0,0,0,0,0,0,0,0,0,0,0,0,0,0,0,0],"split_type":[0,0,0,0,0,0,0,0,0,0,0,0,0,0,0,0,0,0,0,0,0,0,0,0,0,0,0,0,0,0,0,0,0,0,0,0,0,0,0,0,0,0,0,0,0,0,0,0,0,0,0,0,0,0,0,0,0,0,0,0,0,0,0,0,0,0,0,0,0,0,0,0,0,0,0,0,0,0,0,0,0,0,0,0,0,0,0,0,0,0,0,0,0,0,0,0,0,0,0,0,0,0,0,0,0,0,0,0,0,0,0,0,0,0,0,0,0,0,0,0,0,0,0,0,0,0,0,0,0,0,0,0,0,0,0,0,0,0,0,0,0,0,0,0,0,0,0,0,0,0,0,0,0,0,0,0,0,0,0,0,0,0,0,0,0,0,0,0,0,0,0,0,0,0,0,0,0,0,0,0,0,0,0,0,0,0,0,0,0],"sum_hessian":[2.7774E4,1.5106E4,1.2668E4,1.202E3,1.3904E4,1.2552E4,1.16E2,1.195E3,7E0,1.2028E4,5.24E2,7.8E1,3.8E1,2.73E2,9.22E2,5E0,2E0,8.53E3,3.498E3,2.39E2,2.85E2,1E1,6.8E1,2.8E1,1E1,1E0,2.72E2,8.02E2,1.2E2,1.404E3,7.126E3,3.34E2,3.164E3,2.15E2,2.4E1,1.23E2,1.62E2,4E0,6E0,1.6E1,5.2E1,3E0,7E0,3E0,2.69E2,5.26E2,2.76E2,5E0,1.15E2,5.3E1,1.351E3,3.881E3,3.245E3,1E2,2.34E2,1.22E2,3.042E3,6.9E1,1.46E2,1.6E1,8E0,2E0,1.21E2,9.5E1,6.7E1,8E0,8E0,3.5E1,1.7E1,3E0,4E0,2E0,1E0,5.3E1,2.16E2,9.1E1,4.35E2,2.6E1,2.5E2,2E0,3E0,2.9E1,8.6E1,5E1,3E0,3.2E1,1.319E3,3.751E3,1.3E2,4.77E2,2.768E3,9.9E1,1E0,1.4E1,2.2E2,9.3E1,2.9E1,3.019E3,2.3E1,5.6E1,1.3E1,6.2E1,8.4E1,1.4E1,2E0,6E0,2E0,5E0,1.16E2,9.3E1,2E0,1.5E1,5.2E1,7E0,1E0,2E0,6E0,5E0,1.2E1,3E0,1E0,5.1E1,2E0,9E1,1E0,4.34E2,1E0,1.9E1,7E0,1.99E2,5.1E1,1.7E1,1.2E1,5.9E1,2.7E1,2E0,1E0,2.3E1,9E0,2.98E2,1.021E3,1.001E3,2.75E3,4.1E1,8.9E1,2.5E1,4.52E2,5.6E1,2.712E3,8.5E1,1.4E1,9E0,5E0,2E2,2E1,2.5E1,6.8E1,1.9E1,1E1,6.86E2,2.333E3,1.2E1,1.1E1,4.8E1,8E0,2E0,1.1E1,3.5E1,2.7E1,8E1,4E0,9E0,5E0,2E0,3E0,1E0,1.15E2,6.4E1,2.9E1,1E0,1.4E1,4.4E1,8E0,1E0,5E0,4E0,1E0,1.1E1,1E0],"tree_param":{"num_deleted":"0","num_feature":"26","num_nodes":"189","size_leaf_vector":"1"}},{"base_weights":[-2.125938E-2,-9.5008105E-2,6.508397E-2,-3.6120713E-2,-9.9992715E-3,6.3081674E-2,2.954128E-1,-6.1896574E-2,-1.0327046E-2,6.4047344E-2,-9.866669E-3,1.2799998E-1,6.457143E-1,2.6666665E-1,-6.349483E-2,1.6521737E-1,-1.753133E-2,6.606306E-2,1.6926046E-2,2.4571426E-1,2.439022E-2,7.5E-2,3.0999997E-1,4.4999998E-2,-5.0000013E-3,-6.637327E-2,9.090907E-2,-2.666669E-2,4.6666664E-1,-3.510395E-2,4.2519663E-2,6.5418735E-2,2.3555553E-1,1.34765385E-2,6E-2,5.4999977E-2,4.6874997E-1,6E-2,-2.0512844E-2,5.7142835E-2,6.7499995E-2,-4.278353E-2,-7.840002E-2,3.2E-1,-8.57143E-3,-9.285717E-3,4.4999998E-2,-7.5000017E-3,7.5E-2,4.999998E-2,-4.7105286E-2,1.6764703E-1,-3.191513E-3,4.151809E-2,6.948635E-2,1.5277776E-1,5.1E-1,-9.811323E-3,2.6304323E-2,4.2499998E-1,-3.529414E-2,5.4999995E-1,-6.6666687E-3,4.4999998E-2,-4.4736866E-2,-8.333336E-3,4.4999998E-2,4.4999998E-2,-4.7668416E-2,-8.096517E-2,2.6666665E-1,6E-2,-6.6666687E-3,-6.666669E-2,2.2272725E-1,-7.288891E-2,-9.615408E-3,3.733333E-1,4.9999775E-3,-8.166669E-2,1.3142855E-1,7.704631E-3,6.0340174E-2,8.572562E-2,6.416491E-2,6.7499995E-2,8.484846E-2,7.714286E-2,-7.5000017E-3,4.2499998E-1,2.2757087E-2,6E-2,-5.0000013E-3,2.6666665E-1,-9.333336E-3,-6.6666687E-3,6.583333E-1,4.4999998E-2,-7.027029E-2,-6.0112383E-3,9.374998E-3,-9.257953E-3,-4.395607E-3,-5.0000013E-3,4.4999998E-2,2.6666665E-2,-9.677421E-3,4.9166664E-2,-9.090912E-3,-9.921878E-3,-3.7755126E-3,1.8181816E-2,-2.3972627E-3,6.0999997E-2,-8.333336E-3,-9.444447E-3,6E-2,1.7499998E-2,-9.824564E-3,-4.7619073E-3,3.7333332E-2,-2.160922E-3,7.513225E-3,-2.3655938E-3,6.7902417E-3,-1.9802004E-3,9.010349E-3,2.5158206E-3,6.764912E-3,3.225804E-3,6E-2,6E-2,-5.0000013E-3,1.3617019E-2,9.7323366E-4,-5.0000013E-3,4.4999998E-2,-5.0000013E-3,7.272727E-2,4.4999998E-2,-9.722224E-3],"categories":[],"categories_nodes":[],"categories_segments":[],"categories_sizes":[],"default_left":[0,0,0,0,0,0,0,0,0,0,0,0,0,0,0,0,0,0,0,0,0,0,0,0,0,0,0,0,0,0,0,0,0,0,0,0,0,0,0,0,0,0,0,0,0,0,0,0,0,0,0,0,0,0,0,0,0,0,0,0,0,0,0,0,0,0,0,0,0,0,0,0,0,0,0,0,0,0,0,0,0,0,0,0,0,0,0,0,0,0,0,0,0,0,0,0,0,0,0,0,0,0,0,0,0,0,0,0,0,0,0,0,0,0,0,0,0,0,0,0,0,0,0,0,0,0,0,0,0,0,0,0,0,0,0,0,0,0,0,0,0],"id":6,"left_children":[1,3,5,7,-1,9,11,13,15,17,-1,19,21,23,25,27,29,31,33,35,37,-1,39,-1,-1,41,43,45,47,49,51,53,55,57,-1,59,61,-1,63,65,-1,67,69,71,-1,-1,-1,-1,-1,73,75,77,79,81,83,85,87,-1,89,91,93,95,-1,-1,97,-1,-1,-1,99,101,103,-1,-1,105,107,109,111,113,115,117,119,121,123,125,127,-1,129,-1,-1,131,133,-1,-1,135,-1,-1,137,-1,139,-1,-1,-1,-1,-1,-1,-1,-1,-1,-1,-1,-1,-1,-1,-1,-1,-1,-1,-1,-1,-1,-1,-1,-1,-1,-1,-1,-1,-1,-1,-1,-1,-1,-1,-1,-1,-1,-1,-1,-1,-1,-1],"loss_changes":[1.7525838E2,4.353546E0,5.828762E0,7.705916E-1,0E0,1.9698639E0,6.3096495E0,3.215065E-1,7.376707E-1,1.1858826E0,0E0,9.087331E-1,9.92857E-1,1.9666666E-1,2.6292062E-1,1.3428404E0,5.9137917E-1,1.2933388E0,1.0257316E0,1.4629822E0,1.07202E0,0E0,8.843571E-1,0E0,0E0,1.5779209E-1,4.7251952E-1,5.1504767E-1,1.4375001E0,4.4460446E-1,7.269394E-1,1.1579056E0,9.4438887E-1,7.35483E-1,0E0,6.831765E-1,7.327082E-1,0E0,4.646424E-1,4.2380953E-1,0E0,4.8844612E-1,3.5352087E-1,5.813333E-1,0E0,0E0,0E0,0E0,0E0,1.1030303E0,3.6661667E-1,1.1355786E0,1.0037806E0,1.1063037E0,8.761177E-1,1.2197981E0,1.587214E0,0E0,6.4089143E-1,3.6249995E-1,3.2282355E-1,9.791665E-1,0E0,0E0,5.116501E-1,0E0,0E0,0E0,3.45278E-1,1.5625978E-1,1.9666666E-1,0E0,0E0,3.5698926E-1,1.900379E0,2.0439422E-1,4.331174E-1,1.6720002E0,1.2400556E0,2.7250883E-1,1.5337144E0,1.2330225E0,7.1112347E-1,1.163681E0,1.0431576E0,0E0,8.746823E-1,0E0,0E0,3.6249995E-1,6.7374486E-1,0E0,0E0,1.9666666E-1,0E0,0E0,6.223488E-1,0E0,5.6257504E-1,0E0,0E0,0E0,0E0,0E0,0E0,0E0,0E0,0E0,0E0,0E0,0E0,0E0,0E0,0E0,0E0,0E0,0E0,0E0,0E0,0E0,0E0,0E0,0E0,0E0,0E0,0E0,0E0,0E0,0E0,0E0,0E0,0E0,0E0,0E0,0E0,0E0,0E0,0E0,0E0,0E0,0E0],"parents":[2147483647,0,0,1,1,2,2,3,3,5,5,6,6,7,7,8,8,9,9,11,11,12,12,13,13,14,14,15,15,16,16,17,17,18,18,19,19,20,20,22,22,25,25,26,26,27,27,28,28,29,29,30,30,31,31,32,32,33,33,35,35,36,36,38,38,39,39,41,41,42,42,43,43,49,49,50,50,51,51,52,52,53,53,54,54,55,55,56,56,58,58,59,59,60,60,61,61,64,64,68,68,69,69,70,70,73,73,74,74,75,75,76,76,77,77,78,78,79,79,80,80,81,81,82,82,83,83,84,84,86,86,89,89,90,90,93,93,96,96,98,98],"right_children":[2,4,6,8,-1,10,12,14,16,18,-1,20,22,24,26,28,30,32,34,36,38,-1,40,-1,-1,42,44,46,48,50,52,54,56,58,-1,60,62,-1,64,66,-1,68,70,72,-1,-1,-1,-1,-1,74,76,78,80,82,84,86,88,-1,90,92,94,96,-1,-1,98,-1,-1,-1,100,102,104,-1,-1,106,108,110,112,114,116,118,120,122,124,126,128,-1,130,-1,-1,132,134,-1,-1,136,-1,-1,138,-1,140,-1,-1,-1,-1,-1,-1,-1,-1,-1,-1,-1,-1,-1,-1,-1,-1,-1,-1,-1,-1,-1,-1,-1,-1,-1,-1,-1,-1,-1,-1,-1,-1,-1,-1,-1,-1,-1,-1,-1,-1,-1,-1],"split_conditions":[1.1375476E3,-1.8369701E-16,3.1218994E3,1.0023409E3,-1.16658775E2,6.123234E-17,3.4450176E3,1.9455213E-2,1.0322601E3,1.5058618E3,-4.525632E1,8.897021E2,7.528262E-1,4.3388373E-1,1.9903297E1,4.111299E0,4.326455E2,3.2608414E-1,3.4497275E3,7.066537E2,-1.7043144E-1,1.2631719E3,8.3586776E-1,4.354492E0,-1.6310808E2,-1.2007467E-1,-7.818315E-1,6.7388535E-1,9.8810095E2,-4.0428318E-2,-2.2252093E-1,2.8227785E-1,6.1181146E-1,-2.088256E-2,1.9421458E3,3.3059136E3,1.2E1,2.3190918E0,-2.2252093E-1,1.0570796E1,1.5691495E3,4.081549E-1,1.0459114E3,8.428735E-1,-1.4008946E2,-1.1294573E2,8.615796E0,-1.2275417E2,4.613518E1,1.030448E3,1.1412185E3,1.049161E3,1.0140156E3,-5E-1,2.949693E3,2.5077766E-1,2E1,-9.63016E0,2.0273E-1,3.0962937E3,-7.818315E-1,2.5844252E-1,-1.661704E1,2.6906738E-1,2.7492266E3,-2.6952856E1,9.44227E2,1.3339945E3,9.7200155E-1,9.647362E0,-7.818315E-1,5.1235817E1,-1.72481E2,2.20754E-1,1.0140156E3,1.2132684E-1,1.01878613E3,8.0706215E-1,9.608351E-1,9.703897E2,1.1058739E3,3.0240957E3,4.368841E-1,6.155738E-1,2.9485325E3,1.640009E3,1.3636372E3,1.1329956E1,-1.7041065E1,6.234898E-1,4E0,3.982788E0,-4.7724123E0,3.042944E3,-7.2579366E-1,-4.843213E0,2.5845608E3,8.569312E0,2.0273E-1,-1.1141066E2,6.0325436E1,-1.1943239E2,-1.1110561E2,-1.7075488E2,4.2822E1,1.0005005E1,-1.19003174E2,7.5540565E1,-1.22951256E2,-1.1931103E2,-1.1347957E2,4.8238384E1,-1.123494E2,6.5649605E1,-1.115544E2,-1.2362376E2,2.4662647E1,3.3399513E1,-1.1639321E2,-1.461975E1,2.0254541E1,-1.5916889E0,5.6943183E0,-2.560101E0,6.14796E0,-1.4937001E0,7.8021593E0,3.4772503E0,5.9080634E0,5.073553E0,1.4583081E1,1.0366992E1,-3.3355373E1,8.894544E0,2.0746863E0,-6.825342E1,8.4016114E-1,-1.4781959E1,8.781209E0,1.11957035E1,-9.645182E0],"split_indices":[17,1,11,8,0,1,8,12,14,22,0,22,23,2,12,12,22,18,15,22,18,0,23,0,0,18,2,20,11,18,3,21,20,18,0,14,7,0,3,13,0,23,10,19,0,0,0,0,0,8,15,17,10,0,10,20,7,0,20,10,2,13,0,0,17,0,0,0,19,13,2,0,0,20,10,18,8,19,19,11,8,11,23,19,11,0,22,0,0,3,7,0,0,8,0,0,8,0,20,0,0,0,0,0,0,0,0,0,0,0,0,0,0,0,0,0,0,0,0,0,0,0,0,0,0,0,0,0,0,0,0,0,0,0,0,0,0,0,0,0,0],"split_type":[0,0,0,0,0,0,0,0,0,0,0,0,0,0,0,0,0,0,0,0,0,0,0,0,0,0,0,0,0,0,0,0,0,0,0,0,0,0,0,0,0,0,0,0,0,0,0,0,0,0,0,0,0,0,0,0,0,0,0,0,0,0,0,0,0,0,0,0,0,0,0,0,0,0,0,0,0,0,0,0,0,0,0,0,0,0,0,0,0,0,0,0,0,0,0,0,0,0,0,0,0,0,0,0,0,0,0,0,0,0,0,0,0,0,0,0,0,0,0,0,0,0,0,0,0,0,0,0,0,0,0,0,0,0,0,0,0,0,0,0,0],"sum_hessian":[2.7521E4,1.4843E4,1.2678E4,1.159E3,1.3684E4,1.257E4,1.08E2,5.79E2,5.8E2,1.2496E4,7.4E1,7.4E1,3.4E1,2E0,5.77E2,2.2E1,5.58E2,1.1983E4,5.13E2,3.4E1,4E1,2.5E1,9E0,1E0,1E0,5.67E2,1E1,1.4E1,8E0,4.32E2,1.26E2,1.1939E4,4.4E1,5.11E2,2E0,1.9E1,1.5E1,2E0,3.8E1,6E0,3E0,1.93E2,3.74E2,4E0,6E0,1.3E1,1E0,3E0,5E0,5.3E1,3.79E2,3.3E1,9.3E1,1.738E3,1.0201E4,3.5E1,9E0,5.2E1,4.59E2,3E0,1.6E1,1.3E1,2E0,1E0,3.7E1,5E0,1E0,1E0,1.92E2,3.72E2,2E0,2E0,2E0,3.2E1,2.1E1,2.24E2,1.55E2,1.4E1,1.9E1,5.9E1,3.4E1,6.22E2,1.116E3,2.514E3,7.687E3,3E0,3.2E1,6E0,3E0,3E0,4.56E2,2E0,1E0,2E0,1.4E1,2E0,1.1E1,1E0,3.6E1,1.77E2,1.5E1,2.82E2,9E1,1E0,1E0,2E0,3E1,1.1E1,1E1,1.27E2,9.7E1,1E1,1.45E2,9E0,5E0,1.7E1,2E0,3E0,5.6E1,2E1,1.4E1,4.34E2,1.88E2,9.2E1,1.024E3,1E2,2.414E3,6.31E2,7.056E3,3E1,2E0,2E0,1E0,4.6E1,4.1E2,1E0,1E0,1E0,1E1,1E0,3.5E1],"tree_param":{"num_deleted":"0","num_feature":"26","num_nodes":"141","size_leaf_vector":"1"}},{"base_weights":[-2.5079492E-2,4.9592476E-2,-9.999279E-3,-2.810286E-2,5.646881E-2,4.1666666E-1,-3.0454164E-2,5.446334E-2,2.7807015E-1,-6.6666687E-3,6.7499995E-2,-7.320757E-2,-1.722936E-2,7.2E-2,5.4195363E-2,1.06410235E-1,6.324324E-1,4.4999998E-2,-7.689396E-2,-3.0095782E-2,5.581393E-2,2.6387747E-2,5.7228204E-2,4.0999997E-1,6.086954E-2,7.607143E-2,2.0999998E-1,5.7692286E-2,-9.121341E-2,7.8431346E-2,-3.817917E-2,2.0652172E-1,-2.7380977E-2,-1.8217077E-2,3.803243E-2,5.985793E-2,2.3292659E-2,6.285714E-1,-7.5000017E-3,3.582087E-2,6E-2,-8.333336E-3,5.2E-1,-9.444447E-3,3.5555553E-1,-9.533901E-2,1.7499998E-1,1.5909068E-2,4.1249996E-1,-4.3702602E-2,1.21739104E-1,1.5813951E-1,6.7499995E-2,-9.807695E-3,8.484846E-2,6E-2,-2.539065E-2,-3.1250238E-3,6.0787376E-2,5.8219627E-2,1.0456987E-1,1.0066201E-2,1.742424E-1,-5.0000013E-3,7.5E-2,-4.750002E-2,1.5357141E-1,-5.0000013E-3,6.7499995E-2,7.2E-2,-8.000002E-3,-1.5384638E-3,-9.95536E-3,4.4999998E-2,-6.6666687E-3,2.642857E-2,-9.677421E-3,-6.6666687E-3,5.8333334E-2,-1.6917316E-3,-6.167515E-3,4.8571426E-2,-3.5294143E-3,-9.090912E-3,2.3636362E-2,5.8333334E-2,-2.5000023E-3,1.6326507E-3,-8.090912E-3,-1.6119427E-3,2.3888886E-2,8.313006E-3,-1.5972246E-3,6.3602254E-3,4.52325E-3,1.9509202E-2,3.3809503E-3,3.2780822E-3,-4.788735E-3,3.4210503E-3,3.5172414E-2,4.4999998E-2,-7.17949E-3,4.8571426E-2,4.0909066E-3],"categories":[],"categories_nodes":[],"categories_segments":[],"categories_sizes":[],"default_left":[0,0,0,0,0,0,0,0,0,0,0,0,0,0,0,0,0,0,0,0,0,0,0,0,0,0,0,0,0,0,0,0,0,0,0,0,0,0,0,0,0,0,0,0,0,0,0,0,0,0,0,0,0,0,0,0,0,0,0,0,0,0,0,0,0,0,0,0,0,0,0,0,0,0,0,0,0,0,0,0,0,0,0,0,0,0,0,0,0,0,0,0,0,0,0,0,0,0,0,0,0,0,0,0,0],"id":7,"left_children":[1,3,-1,5,7,9,11,13,15,-1,-1,17,19,-1,21,23,25,-1,27,29,31,33,35,37,39,-1,41,43,45,47,49,51,53,55,57,59,61,63,-1,65,-1,-1,67,-1,69,71,73,75,77,79,81,83,-1,-1,85,-1,87,89,91,93,95,97,99,-1,-1,101,103,-1,-1,-1,-1,-1,-1,-1,-1,-1,-1,-1,-1,-1,-1,-1,-1,-1,-1,-1,-1,-1,-1,-1,-1,-1,-1,-1,-1,-1,-1,-1,-1,-1,-1,-1,-1,-1,-1],"loss_changes":[1.5486714E2,7.409092E0,0E0,1.1923385E0,5.6458015E0,7.9416656E-1,6.336889E-1,2.212635E0,6.867298E0,0E0,0E0,5.457206E-1,8.089731E-1,0E0,1.0628929E0,1.053447E0,1.8452959E0,0E0,5.1404333E-1,6.4427656E-1,1.6230723E0,6.463184E-1,1.01408E0,1.1072145E0,9.10318E-1,0E0,9.5266664E-1,1.2117949E0,2.7917528E-1,1.0586607E0,6.06846E-1,9.3589234E-1,6.747919E-1,1.159419E0,9.2361414E-1,7.6745224E-1,1.6354012E0,6.142857E-1,0E0,6.6463697E-1,0E0,0E0,4.755E-1,0E0,1.4862221E0,7.799435E-2,2.9583335E-1,1.2570434E0,6.9375E-1,3.1619918E-1,1.3317355E0,8.5919666E-1,0E0,0E0,1.8215908E0,0E0,5.9423554E-1,1.1108296E0,1.0903628E0,7.093849E-1,2.376205E0,9.9544656E-1,1.6282718E0,0E0,0E0,5.157757E-1,1.0278897E0,0E0,0E0,0E0,0E0,0E0,0E0,0E0,0E0,0E0,0E0,0E0,0E0,0E0,0E0,0E0,0E0,0E0,0E0,0E0,0E0,0E0,0E0,0E0,0E0,0E0,0E0,0E0,0E0,0E0,0E0,0E0,0E0,0E0,0E0,0E0,0E0,0E0,0E0],"parents":[2147483647,0,0,1,1,3,3,4,4,5,5,6,6,7,7,8,8,11,11,12,12,14,14,15,15,16,16,18,18,19,19,20,20,21,21,22,22,23,23,24,24,26,26,27,27,28,28,29,29,30,30,31,31,32,32,33,33,34,34,35,35,36,36,37,37,39,39,42,42,44,44,45,45,46,46,47,47,48,48,49,49,50,50,51,51,54,54,56,56,57,57,58,58,59,59,60,60,61,61,62,62,65,65,66,66],"right_children":[2,4,-1,6,8,10,12,14,16,-1,-1,18,20,-1,22,24,26,-1,28,30,32,34,36,38,40,-1,42,44,46,48,50,52,54,56,58,60,62,64,-1,66,-1,-1,68,-1,70,72,74,76,78,80,82,84,-1,-1,86,-1,88,90,92,94,96,98,100,-1,-1,102,104,-1,-1,-1,-1,-1,-1,-1,-1,-1,-1,-1,-1,-1,-1,-1,-1,-1,-1,-1,-1,-1,-1,-1,-1,-1,-1,-1,-1,-1,-1,-1,-1,-1,-1,-1,-1,-1,-1],"split_conditions":[6.123234E-17,1.0459114E3,-1.0508197E2,4.0184876E-1,3.1218994E3,0E0,1.1205322E3,1.0280847E3,3.4450176E3,-1.1563323E2,1.1147071E1,9.386572E1,1.2121071E1,3.8539795E1,2.5740844E-1,2.97971E3,7.5676066E-1,1.4965845E1,-7.818315E-1,1.1251066E3,1.4940069E1,5.162757E-1,1.4274304E3,6.7069116E0,1.9240013E1,1.14691E3,8.3586776E-1,5.1679873E0,9.9020916E-1,1.7E1,1.0649855E3,7.7268696E-1,1.0161022E3,6.0325944E-1,-5E-1,3.0822368E3,3.2024072E3,2.943868E3,-8.1349125E0,8.239257E-1,6.6198244E0,-2.4257568E1,4.986582E-1,-1.2592898E2,9.837975E2,4.1371238E-1,0E0,9.800752E2,9.9153015E2,4.4336224E-1,2E0,5.027475E-1,4.5824146E1,-1.25650795E2,-2.7241386E-2,5.429077E0,3.2079205E-2,1.4848662E3,8.1243086E-1,1.8E1,3.088404E3,5.9828424E0,-5E-1,-3.4146267E1,7.9138427E0,2.0273E-1,-5.1223855E-2,-3.905615E2,1.4122346E3,9.031738E0,-1.4710751E2,-5.5308814E0,-1.024558E2,2.2196386E1,-1.04181435E2,5.4756866E1,-1.2811159E2,-1.26317955E2,7.075967E1,-1.0505547E2,-1.05264175E2,6.582285E1,-7.387887E1,-4.289416E1,5.913822E1,5.6893898E1,-8.34589E1,2.1485543E0,-4.435231E0,-5.690206E-1,1.0729951E1,5.7352877E0,-1.691363E0,5.506228E0,4.4074903E0,8.264627E0,4.700853E0,3.6297233E0,-2.904053E0,6.529448E0,1.8546298E2,1.0076123E1,-2.2042081E0,7.80625E0,5.6017356E0],"split_indices":[1,10,0,23,11,2,15,9,8,0,0,22,13,0,20,9,23,0,2,15,13,23,22,13,13,0,23,12,19,7,16,21,17,19,0,11,9,16,0,19,0,0,12,0,11,23,2,10,11,20,4,23,0,0,18,0,18,22,23,7,10,12,1,0,0,20,18,0,0,0,0,0,0,0,0,0,0,0,0,0,0,0,0,0,0,0,0,0,0,0,0,0,0,0,0,0,0,0,0,0,0,0,0,0,0],"split_type":[0,0,0,0,0,0,0,0,0,0,0,0,0,0,0,0,0,0,0,0,0,0,0,0,0,0,0,0,0,0,0,0,0,0,0,0,0,0,0,0,0,0,0,0,0,0,0,0,0,0,0,0,0,0,0,0,0,0,0,0,0,0,0,0,0,0,0,0,0,0,0,0,0,0,0,0,0,0,0,0,0,0,0,0,0,0,0,0,0,0,0,0,0,0,0,0,0,0,0,0,0,0,0,0,0],"sum_hessian":[2.7683E4,1.3864E4,1.3819E4,1.127E3,1.2737E4,5E0,1.122E3,1.2624E4,1.13E2,2E0,3E0,2.64E2,8.58E2,4E0,1.262E4,7.7E1,3.6E1,1E0,2.63E2,7.3E2,1.28E2,1.242E3,1.1378E4,9E0,6.8E1,2.7E1,9E0,2.5E1,2.38E2,5E1,6.8E2,4.5E1,8.3E1,2.57E2,9.85E2,1.0559E4,8.19E2,6E0,3E0,6.6E1,2E0,5E0,4E0,1.7E1,8E0,2.35E2,3E0,4.3E1,7E0,6.58E2,2.2E1,4.2E1,3E0,5.1E1,3.2E1,2E0,2.55E2,3.51E2,6.34E2,1.0188E4,3.71E2,7.54E2,6.5E1,1E0,5E0,3.9E1,2.7E1,1E0,3E0,4E0,4E0,1.2E1,2.23E2,1E0,2E0,1.3E1,3E1,2E0,5E0,2.65E2,3.93E2,6E0,1.6E1,1E1,3.2E1,5E0,2.7E1,1.46E2,1.09E2,3.34E2,1.7E1,4.91E2,1.43E2,7.2E3,2.988E3,1.62E2,2.09E2,5.42E2,2.12E2,3.7E1,2.8E1,1E0,3.8E1,6E0,2.1E1],"tree_param":{"num_deleted":"0","num_feature":"26","num_nodes":"105","size_leaf_vector":"1"}},{"base_weights":[-2.8058905E-2,-9.4714E-2,5.056753E-2,-3.210303E-2,-9.999278E-3,4.871568E-2,2.580357E-1,-6.0276702E-2,-1.0454569E-2,4.9655866E-2,-9.875002E-3,6.351349E-2,6.205128E-1,-6.2178243E-2,4.4999998E-2,1.04687475E-1,-2.2780593E-2,2.6999998E-1,4.912166E-2,4.9166664E-1,-1.9047642E-2,7.655173E-2,1.8181816E-1,-7.454131E-2,1.5714262E-2,4.0624997E-1,4.081609E-3,-5.413108E-2,2.1862324E-2,1.5416664E-1,6.285714E-1,5.1531553E-2,1.5957423E-2,-6.6666687E-3,6.0999995E-1,1.7333332E-1,-7.7551045E-2,-8.57143E-3,5.2E-1,1.1999998E-1,-7.662039E-2,1.6521737E-1,-5.6250025E-2,5.7142835E-2,6.0999995E-1,-7.1052656E-2,2.4166664E-1,4.1236877E-3,-7.607845E-2,-6.046514E-2,1.1092435E-1,8.636361E-2,6E-2,7.5E-2,-5.0000013E-3,4.951217E-2,9.1862544E-2,3.7925147E-2,-3.3976857E-2,7.714286E-2,1.7499998E-1,4.1249996E-1,-8.750002E-3,-9.782611E-3,1.7499998E-1,-5.0000013E-3,6.7499995E-2,-7.5000017E-3,4.4999998E-2,3.1249978E-2,-8.057556E-2,-2.1428594E-2,4.0999997E-1,4.4999998E-2,-7.659577E-2,4.4999998E-2,-8.333336E-3,7.875E-2,-6.6666687E-3,4.4999998E-2,-9.729732E-3,4.8571426E-1,-8.333336E-3,1.892857E-1,-7.000002E-2,-9.945358E-3,-1.643838E-2,-8.2926854E-2,3.4285712E-1,5.7777774E-1,7.207205E-2,3.5555553E-1,-9.285717E-3,4.7591258E-2,8.243019E-2,1.3892043E-1,9.405917E-3,3.0981043E-2,5.3749996E-1,4.4999998E-2,-3.7596922E-2,-6.6666687E-3,4.4999998E-2,-6.6666687E-3,5.833333E-1,4.4999998E-2,-6.6666687E-3,-9.230772E-3,4.25E-2,-9.533901E-3,-6.0989032E-3,4.4999998E-2,-9.230772E-3,5.3749997E-2,-6.6666687E-3,4.4999998E-2,-9.782611E-3,5.8333334E-2,-5.0000013E-3,4.0909066E-3,6.285714E-2,-8.4058E-3,4.4999998E-2,-8.103451E-3,2.1874998E-2,3.999998E-3,-9.908259E-3,-7.5000017E-3,6.7499995E-2,-6.6666687E-3,7.714286E-2,3.2323208E-3,3.6923077E-2,-7.5000017E-3,5.8333334E-2,7.2445795E-3,4.5049484E-3,2.4080244E-3,1.3826365E-2,1.6632995E-2,-8.9285953E-4,6E-2,4.9997627E-5,1.0956519E-2,1.1563146E-3,-6.6666687E-3,7.5E-2,4.4999998E-2,-4.124516E-3,-5.0000013E-3,7.2E-2],"categories":[],"categories_nodes":[],"categories_segments":[],"categories_sizes":[],"default_left":[0,0,0,0,0,0,0,0,0,0,0,0,0,0,0,0,0,0,0,0,0,0,0,0,0,0,0,0,0,0,0,0,0,0,0,0,0,0,0,0,0,0,0,0,0,0,0,0,0,0,0,0,0,0,0,0,0,0,0,0,0,0,0,0,0,0,0,0,0,0,0,0,0,0,0,0,0,0,0,0,0,0,0,0,0,0,0,0,0,0,0,0,0,0,0,0,0,0,0,0,0,0,0,0,0,0,0,0,0,0,0,0,0,0,0,0,0,0,0,0,0,0,0,0,0,0,0,0,0,0,0,0,0,0,0,0,0,0,0,0,0,0,0,0,0,0,0,0,0,0,0],"id":8,"left_children":[1,3,5,7,-1,9,11,13,15,17,-1,19,21,23,-1,25,27,29,31,33,35,-1,37,39,41,43,45,47,49,51,53,55,57,-1,59,61,63,-1,65,67,69,71,73,75,77,79,81,83,85,87,89,91,-1,-1,-1,93,95,97,99,-1,101,103,-1,-1,105,-1,-1,-1,-1,107,109,111,113,-1,115,-1,-1,-1,-1,-1,-1,117,-1,119,121,-1,123,125,127,129,131,133,-1,135,137,139,141,143,145,-1,147,-1,-1,-1,149,-1,-1,-1,-1,-1,-1,-1,-1,-1,-1,-1,-1,-1,-1,-1,-1,-1,-1,-1,-1,-1,-1,-1,-1,-1,-1,-1,-1,-1,-1,-1,-1,-1,-1,-1,-1,-1,-1,-1,-1,-1,-1,-1,-1,-1,-1],"loss_changes":[1.4490913E2,4.94252E0,4.861389E0,7.099227E-1,0E0,1.7483597E0,7.857692E0,5.189574E-1,9.3908566E-1,1.4576397E0,0E0,2.625177E0,2.3417091E0,4.8748136E-1,0E0,1.9400351E0,8.3673096E-1,1.1491311E0,9.9557114E-1,8.3350015E-1,7.225034E-1,0E0,1.0397922E0,1.8554258E-1,7.624154E-1,1.1032324E0,8.918592E-1,4.4908106E-1,1.817773E0,6.736743E-1,6.142857E-1,9.419899E-1,9.2930186E-1,0E0,5.672138E-1,9.7183335E-1,2.680235E-1,0E0,4.755E-1,3.5549998E-1,1.8682885E-1,1.0596025E0,5.288697E-1,4.2380953E-1,1.2535832E0,5.6342816E-1,9.9226195E-1,1.3445648E0,3.5385895E-1,1.197083E0,2.1168194E0,1.0944011E0,0E0,0E0,0E0,6.960621E-1,2.1444635E0,2.0231779E0,4.7069383E-1,0E0,2.9583335E-1,6.9375E-1,0E0,0E0,2.9583335E-1,0E0,0E0,0E0,0E0,8.1764424E-1,1.14767075E-1,5.0934064E-1,6.435833E-1,0E0,5.6947273E-1,0E0,0E0,0E0,0E0,0E0,0E0,3.9523816E-1,0E0,1.7993182E0,5.495362E-1,0E0,1.1267611E0,2.4823797E-1,1.0221429E0,1.174603E0,1.2991655E0,9.2638886E-1,0E0,6.57671E-1,1.9807191E0,1.4279547E0,1.0621787E0,8.853037E-1,1.0770833E0,0E0,4.7750852E-1,0E0,0E0,0E0,5.553334E-1,0E0,0E0,0E0,0E0,0E0,0E0,0E0,0E0,0E0,0E0,0E0,0E0,0E0,0E0,0E0,0E0,0E0,0E0,0E0,0E0,0E0,0E0,0E0,0E0,0E0,0E0,0E0,0E0,0E0,0E0,0E0,0E0,0E0,0E0,0E0,0E0,0E0,0E0,0E0,0E0,0E0,0E0,0E0,0E0,0E0,0E0],"parents":[2147483647,0,0,1,1,2,2,3,3,5,5,6,6,7,7,8,8,9,9,11,11,12,12,13,13,15,15,16,16,17,17,18,18,19,19,20,20,22,22,23,23,24,24,25,25,26,26,27,27,28,28,29,29,30,30,31,31,32,32,34,34,35,35,36,36,38,38,39,39,40,40,41,41,42,42,43,43,44,44,45,45,46,46,47,47,48,48,49,49,50,50,51,51,55,55,56,56,57,57,58,58,60,60,61,61,64,64,69,69,70,70,71,71,72,72,74,74,81,81,83,83,84,84,86,86,87,87,88,88,89,89,90,90,91,91,93,93,94,94,95,95,96,96,97,97,98,98,100,100,104,104],"right_children":[2,4,6,8,-1,10,12,14,16,18,-1,20,22,24,-1,26,28,30,32,34,36,-1,38,40,42,44,46,48,50,52,54,56,58,-1,60,62,64,-1,66,68,70,72,74,76,78,80,82,84,86,88,90,92,-1,-1,-1,94,96,98,100,-1,102,104,-1,-1,106,-1,-1,-1,-1,108,110,112,114,-1,116,-1,-1,-1,-1,-1,-1,118,-1,120,122,-1,124,126,128,130,132,134,-1,136,138,140,142,144,146,-1,148,-1,-1,-1,150,-1,-1,-1,-1,-1,-1,-1,-1,-1,-1,-1,-1,-1,-1,-1,-1,-1,-1,-1,-1,-1,-1,-1,-1,-1,-1,-1,-1,-1,-1,-1,-1,-1,-1,-1,-1,-1,-1,-1,-1,-1,-1,-1,-1,-1,-1],"split_conditions":[1.1375476E3,-1.8369701E-16,1.6426593E3,1.1346644E3,-9.461674E1,6.123234E-17,3.4490486E3,3.0870804E-1,1.1365604E3,2.5967087E3,-2.9037271E1,3.3532603E3,7.5676066E-1,8.995379E0,4.2653027E1,9.892516E2,1.00790015E3,7.3944316E0,1.4274304E3,2.958295E3,-4.3388373E-1,1.1504565E3,8.3586776E-1,9.386572E1,9.800752E2,9.4068994E2,1.01854456E3,1.0839886E3,1.1347898E3,7.7736413E-1,2.7166675E3,3.07769E3,5.732626E0,-3.405149E1,5E-1,3.404965E3,1.5858071E1,-1.6857788E1,4.986582E-1,9.749279E-1,1.6416897E-1,6.9361725E0,1.0835543E3,9.245393E2,2.068838E-1,4.081549E-1,1.1082463E3,-2.2252093E-1,9.09577E-1,1.1488727E3,1.1394352E3,4.1505292E-1,3.5369873E0,1.4559815E0,-3.1491456E0,1.3393024E3,3.1155044E3,5.619979E0,3.1975232E3,1.3253858E1,-7.818315E-1,-8.660254E-1,-1.1712402E0,-5.7475176E0,-7.0710677E-1,-3.5150534E2,1.2710111E3,-1.7989843E1,1.3469263E1,3.9112863E2,5.2952657E0,4E0,1.3330961E1,3.642854E1,6.0811806E-1,1.0032373E1,-3.7395702E1,9.740828E1,-1.1403991E2,1.2111006E3,-1.0232961E2,3E0,-1.2630485E2,9.7825684E2,1.0785024E3,-1.0530763E2,1E0,9.9419025E2,-7.818315E-1,9.92546E2,4E0,6E0,-1.1212455E1,5.847316E-1,3.9628408E0,3.3532603E3,3.0804617E2,3.0964915E3,3.266155E3,1.2130005E1,2.0273E-1,-5.147356E1,2.262842E0,-5.87959E0,3.3606785E3,1.32991705E1,-1.5745948E1,-1.0034606E2,5.360896E1,-9.429504E1,-9.1646355E1,2.7603712E1,-9.439802E1,4.2789528E1,-1.2848784E2,2.3784302E1,-9.860996E1,1.0148557E2,-1.03966064E2,1.6897123E1,5.6059547E1,-1.0242568E2,6.5465675E1,-1.00385124E2,6.4819305E1,4.1452667E1,-1.0713167E2,-1.5421272E2,5.2891773E1,-1.2343987E2,5.2816162E1,6.51259E0,5.5862885E1,-2.261648E1,8.878443E0,5.866725E0,4.28807E0,2.7271278E0,7.2497187E0,7.58563E0,-9.825473E-2,4.590918E0,3.2477862E-1,9.32218E0,8.122606E-1,-4.1590333E0,1.0154419E1,4.4937015E0,-3.4267004E0,-7.334649E1,1.3456372E1],"split_indices":[17,1,22,15,0,1,14,18,15,17,0,8,23,12,0,11,10,13,22,10,2,0,23,22,10,8,10,14,14,21,9,11,12,0,0,14,13,0,12,2,12,13,15,9,18,23,14,3,19,15,15,20,0,0,0,22,10,12,15,0,2,1,0,0,0,0,0,0,0,22,13,7,12,0,19,0,0,0,0,0,0,4,0,9,14,0,3,11,2,11,4,7,0,13,13,8,22,8,8,0,20,0,0,0,8,0,0,0,0,0,0,0,0,0,0,0,0,0,0,0,0,0,0,0,0,0,0,0,0,0,0,0,0,0,0,0,0,0,0,0,0,0,0,0,0,0,0,0,0,0,0],"split_type":[0,0,0,0,0,0,0,0,0,0,0,0,0,0,0,0,0,0,0,0,0,0,0,0,0,0,0,0,0,0,0,0,0,0,0,0,0,0,0,0,0,0,0,0,0,0,0,0,0,0,0,0,0,0,0,0,0,0,0,0,0,0,0,0,0,0,0,0,0,0,0,0,0,0,0,0,0,0,0,0,0,0,0,0,0,0,0,0,0,0,0,0,0,0,0,0,0,0,0,0,0,0,0,0,0,0,0,0,0,0,0,0,0,0,0,0,0,0,0,0,0,0,0,0,0,0,0,0,0,0,0,0,0,0,0,0,0,0,0,0,0,0,0,0,0,0,0,0,0,0,0],"sum_hessian":[2.7648E4,1.4963E4,1.2685E4,1.164E3,1.3799E4,1.2574E4,1.11E2,5.05E2,6.59E2,1.2495E4,7.9E1,7.3E1,3.8E1,5.04E2,1E0,6.3E1,5.96E2,2.9E1,1.2466E4,1.1E1,6.2E1,2.8E1,1E1,4.35E2,6.9E1,1.5E1,4.8E1,3.5E2,2.46E2,2.3E1,6E0,1.1621E4,8.45E2,2E0,9E0,1.4E1,4.8E1,6E0,4E0,4E0,4.31E2,2.2E1,4.7E1,6E0,9E0,3.7E1,1.1E1,9.6E1,2.54E2,1.28E2,1.18E2,2.1E1,2E0,5E0,1E0,1.1069E4,5.52E2,5.87E2,2.58E2,6E0,3E0,7E0,7E0,4.5E1,3E0,1E0,3E0,3E0,1E0,1.5E1,4.16E2,1.3E1,9E0,1E0,4.6E1,1E0,5E0,7E0,2E0,1E0,3.6E1,6E0,5E0,2.7E1,6.9E1,1.82E2,7.2E1,1.22E2,6E0,8E0,1.1E2,8E0,1.3E1,1.0461E4,6.08E2,3.51E2,2.01E2,5.8E2,7E0,1E0,2.57E2,2E0,1E0,2E0,5E0,1E0,2E0,1.2E1,3E0,2.35E2,1.81E2,1E0,1.2E1,7E0,2E0,1E0,4.5E1,5E0,1E0,2.1E1,6E0,6.8E1,1E0,5.7E1,1.5E1,1.4E1,1.08E2,3E0,3E0,2E0,6E0,9.8E1,1.2E1,3E0,5E0,9.68E2,9.493E3,2.98E2,3.1E2,2.96E2,5.5E1,2E0,1.99E2,1.14E2,4.66E2,2E0,5E0,1E0,2.56E2,1E0,4E0],"tree_param":{"num_deleted":"0","num_feature":"26","num_nodes":"151","size_leaf_vector":"1"}},{"base_weights":[-2.9855253E-2,-9.481857E-2,4.5957156E-2,-3.2839745E-2,-9.999274E-3,4.427823E-2,2.2844826E-1,-5.782445E-2,-1.1840024E-2,-9.863016E-3,4.510504E-2,4.0506307E-2,6.1315787E-1,-5.9578568E-2,2.6666665E-1,-1.4767279E-2,6E-2,2.5405404E-1,4.4484332E-2,-1.3889124E-3,4.1249996E-1,7.555555E-1,2.4166664E-1,1.6666432E-3,-6.7386635E-2,-5.0000013E-3,4.4999998E-2,1.16666645E-1,-2.4226828E-2,4.0454543E-1,3.1249978E-2,4.6625845E-2,1.8333095E-3,-2.5000023E-2,3.2E-1,7.2E-2,-7.5000017E-3,7.884615E-2,-5.0000013E-3,-8.000002E-3,4.1249996E-1,3.0999997E-1,-5.8823552E-2,7.499998E-2,-7.101772E-2,3.7647057E-1,-5.769233E-2,-9.453805E-3,-8.971965E-2,-8.333336E-3,5.5294114E-1,4.4999998E-2,-2.666669E-2,4.164149E-2,5.9559688E-2,-6.357145E-2,2.169195E-2,4.4999998E-2,-3.8805995E-2,-6.6666687E-3,6E-2,1.1999998E-1,6.7499995E-2,-8.000002E-3,5.833333E-1,1.9999997E-1,-9.77778E-3,-8.888892E-3,4.2499998E-1,-9.1025665E-2,-4.931509E-2,5.454545E-1,5.7142835E-2,-9.583335E-3,2.6666665E-1,-2.0309074E-2,1.9583331E-1,5.7142835E-2,-9.900993E-3,5.9375E-1,-5.0000013E-3,-9.230772E-3,2.6666665E-1,4.6574757E-2,1.351979E-2,1.2636983E-1,5.3090885E-2,2.9166644E-2,-8.205131E-2,4.1282028E-2,-8.472224E-2,-8.000002E-2,1.3846152E-1,-7.5000017E-3,4.4999998E-2,7.2E-2,-5.0000013E-3,-8.000002E-3,6E-2,6E-2,-5.0000013E-3,-9.515421E-3,3.749998E-3,3.921566E-3,-7.573967E-3,6.888889E-2,-6.6666687E-3,4.4999998E-2,-8.333336E-3,4.4999998E-2,-5.0000013E-3,-5.336137E-3,1.620368E-3,4.0714286E-2,-9.090912E-3,-8.333336E-3,4.4999998E-2,6.4E-2,-5.0000013E-3,4.4999998E-2,-5.0000013E-3,2.2189105E-3,5.203807E-3,-5.3530996E-4,5.3902413E-3,3.6785714E-2,1.0037734E-2,4.515629E-3,1.0022986E-2,-9.411767E-3,2.8749997E-2,1.1999998E-2,-9.026552E-3,8.530803E-3,-1.055558E-3,-9.857145E-3,2.6666665E-2,1.1999998E-2,-9.803924E-3,4.1666668E-2,-8.750002E-3],"categories":[],"categories_nodes":[],"categories_segments":[],"categories_sizes":[],"default_left":[0,0,0,0,0,0,0,0,0,0,0,0,0,0,0,0,0,0,0,0,0,0,0,0,0,0,0,0,0,0,0,0,0,0,0,0,0,0,0,0,0,0,0,0,0,0,0,0,0,0,0,0,0,0,0,0,0,0,0,0,0,0,0,0,0,0,0,0,0,0,0,0,0,0,0,0,0,0,0,0,0,0,0,0,0,0,0,0,0,0,0,0,0,0,0,0,0,0,0,0,0,0,0,0,0,0,0,0,0,0,0,0,0,0,0,0,0,0,0,0,0,0,0,0,0,0,0,0,0,0,0,0,0,0,0,0,0,0,0,0,0],"id":9,"left_children":[1,3,5,7,-1,9,11,13,15,-1,17,19,21,23,25,27,-1,29,31,33,35,37,39,41,43,-1,-1,45,47,49,51,53,55,57,59,-1,-1,-1,-1,-1,61,63,65,67,69,71,73,75,77,-1,79,-1,81,83,85,87,89,-1,91,-1,-1,93,-1,-1,95,97,-1,-1,99,101,103,105,107,-1,109,111,113,115,-1,117,-1,-1,119,121,123,125,127,129,131,133,135,137,139,-1,-1,-1,-1,-1,-1,-1,-1,-1,-1,-1,-1,-1,-1,-1,-1,-1,-1,-1,-1,-1,-1,-1,-1,-1,-1,-1,-1,-1,-1,-1,-1,-1,-1,-1,-1,-1,-1,-1,-1,-1,-1,-1,-1,-1,-1,-1,-1],"loss_changes":[1.3608281E2,4.7685547E0,3.8966541E0,6.016387E-1,0E0,1.4974937E0,8.36232E0,3.141458E-1,1.1282429E0,0E0,1.6182003E0,1.2317686E0,1.8275862E0,2.4973619E-1,1.9666666E-1,7.7740586E-1,0E0,1.2279713E0,1.1441936E0,5.5436116E-1,1.25325E0,7.5512695E-1,6.924166E-1,1.137304E0,2.4470568E-1,0E0,0E0,1.9242835E0,5.6225246E-1,1.638859E0,4.000417E-1,7.6654434E-1,7.8068876E-1,4.6339554E-1,5.813333E-1,0E0,0E0,0E0,0E0,0E0,5.332501E-1,1.1126667E0,5.337516E-1,7.261112E-1,1.917808E-1,8.861728E-1,3.4721154E-1,1.0647179E0,1.5164775E-1,0E0,4.4797802E-1,0E0,3.1343588E-1,1.1944075E0,1.426404E0,2.4232322E-1,9.6452683E-1,0E0,5.003353E-1,0E0,0E0,3.5549998E-1,0E0,0E0,5.553334E-1,8.32E-1,0E0,0E0,3.6249995E-1,1.277343E-1,5.152961E-1,1.0117173E0,4.2380953E-1,0E0,1.9666666E-1,5.475588E-1,1.4912071E0,4.2380953E-1,0E0,5.0837517E-1,0E0,0E0,1.9666666E-1,9.751272E-1,9.811586E-1,1.7959185E0,1.1269112E0,7.9142153E-1,2.0501566E-1,8.9095956E-1,3.766706E-1,2.1019611E-1,8.5368603E-1,0E0,0E0,0E0,0E0,0E0,0E0,0E0,0E0,0E0,0E0,0E0,0E0,0E0,0E0,0E0,0E0,0E0,0E0,0E0,0E0,0E0,0E0,0E0,0E0,0E0,0E0,0E0,0E0,0E0,0E0,0E0,0E0,0E0,0E0,0E0,0E0,0E0,0E0,0E0,0E0,0E0,0E0,0E0,0E0,0E0,0E0,0E0,0E0],"parents":[2147483647,0,0,1,1,2,2,3,3,5,5,6,6,7,7,8,8,10,10,11,11,12,12,13,13,14,14,15,15,17,17,18,18,19,19,20,20,21,21,22,22,23,23,24,24,27,27,28,28,29,29,30,30,31,31,32,32,33,33,34,34,40,40,41,41,42,42,43,43,44,44,45,45,46,46,47,47,48,48,50,50,52,52,53,53,54,54,55,55,56,56,58,58,61,61,64,64,65,65,68,68,69,69,70,70,71,71,72,72,74,74,75,75,76,76,77,77,79,79,82,82,83,83,84,84,85,85,86,86,87,87,88,88,89,89,90,90,91,91,92,92],"right_children":[2,4,6,8,-1,10,12,14,16,-1,18,20,22,24,26,28,-1,30,32,34,36,38,40,42,44,-1,-1,46,48,50,52,54,56,58,60,-1,-1,-1,-1,-1,62,64,66,68,70,72,74,76,78,-1,80,-1,82,84,86,88,90,-1,92,-1,-1,94,-1,-1,96,98,-1,-1,100,102,104,106,108,-1,110,112,114,116,-1,118,-1,-1,120,122,124,126,128,130,132,134,136,138,140,-1,-1,-1,-1,-1,-1,-1,-1,-1,-1,-1,-1,-1,-1,-1,-1,-1,-1,-1,-1,-1,-1,-1,-1,-1,-1,-1,-1,-1,-1,-1,-1,-1,-1,-1,-1,-1,-1,-1,-1,-1,-1,-1,-1,-1,-1,-1,-1],"split_conditions":[1.1478888E3,-1.8369701E-16,3.4490486E3,1.1357545E3,-8.5152374E1,1.9668306E3,1.5903676E3,3.0870804E-1,9.9692124E-1,-3.9263226E1,2.5967087E3,1.0325753E1,7.5676066E-1,-7.818315E-1,-7.818315E-1,1.1365604E3,2.9953394E1,3.325828E3,3.406265E3,1.7275873E1,5.091153E-1,9.856131E-1,7.866002E-1,1.0905557E3,1.6416897E-1,-1.02635925E2,3.8387722E1,1.00375055E3,1.144366E3,9.029365E-1,-9.659258E-1,7.078025E-2,3.0095786E3,7.279953E-2,-7.0710677E-1,5.0177245E0,-4.458252E0,9.648298E2,-7.887207E1,-1.6251115E2,8.194763E-1,9.637925E2,6.510761E-1,1.0570632E3,1.1205322E3,1.1082463E3,1.0264973E3,1.1429247E3,4.7978577E-1,-1.3244922E1,2E1,7.1428957E0,2.1E1,2.9381154E-2,8.086174E-2,3.2043203E3,8.133076E0,2.2436523E0,6.0523925E0,-2.5513673E0,9.846728E0,4.698971E0,1.14391E3,-1.2494907E2,1.0846582E3,1.132224E3,-9.852469E1,-8.720841E1,-2.2252093E-1,1.0264973E3,1.1251066E3,9.5940197E-1,9.703897E2,-9.64122E1,1.0072564E3,1.00144086E3,1.5E1,1.0308296E3,-9.865175E1,9.0499115E-1,-2.1229395E1,-8.807235E-1,-5E-1,2.9504036E3,6.059204E-1,2.4151962E-1,9.758725E0,2.994064E3,3.7363647E2,4.4415345E0,8.0680716E-1,2.458669E-1,7.6457067E0,-1.5171997E1,8.5391583E2,9.433953E1,-1.1203595E2,-1.0873553E2,6.649963E1,4.8248074E1,-1.1169598E2,-8.2719086E1,1.01878784E2,2.4521212E1,-8.671382E1,1.0899906E3,-1.1512164E2,8.76875E0,-6.0744143E0,9.361475E0,-1.3072057E2,-8.935825E1,5.3720098E0,5.6128815E1,-1.0867377E2,-1.1174037E2,2.0043287E1,7.43278E2,-5.1683937E1,2.7118409E0,-4.7271046E1,2.4919384E0,4.6376853E0,-1.7641677E-1,3.286963E0,1.1654951E1,7.0327005E0,4.237045E0,7.251831E0,-6.7848063E0,1.1959058E1,5.320166E0,-1.9541653E0,4.3473535E0,-1.0460943E0,-1.391643E1,1.1074267E1,8.6237794E-1,-5.0524516E0,9.272364E0,-1.4575757E1],"split_indices":[8,1,14,15,0,14,22,18,19,0,17,12,23,2,2,15,0,15,8,13,21,19,19,15,12,0,0,11,14,12,0,18,9,13,1,0,0,0,0,0,23,16,19,8,15,14,10,14,13,0,7,0,7,18,18,17,12,0,12,0,0,13,0,0,8,15,0,0,3,10,15,19,11,0,8,16,7,9,0,19,0,0,0,11,21,20,12,16,22,13,21,12,12,0,0,0,0,0,0,0,0,0,0,0,0,0,0,0,0,0,0,0,0,0,0,0,0,0,0,0,0,0,0,0,0,0,0,0,0,0,0,0,0,0,0,0,0,0,0,0,0],"split_type":[0,0,0,0,0,0,0,0,0,0,0,0,0,0,0,0,0,0,0,0,0,0,0,0,0,0,0,0,0,0,0,0,0,0,0,0,0,0,0,0,0,0,0,0,0,0,0,0,0,0,0,0,0,0,0,0,0,0,0,0,0,0,0,0,0,0,0,0,0,0,0,0,0,0,0,0,0,0,0,0,0,0,0,0,0,0,0,0,0,0,0,0,0,0,0,0,0,0,0,0,0,0,0,0,0,0,0,0,0,0,0,0,0,0,0,0,0,0,0,0,0,0,0,0,0,0,0,0,0,0,0,0,0,0,0,0,0,0,0,0,0],"sum_hessian":[2.7629E4,1.4879E4,1.275E4,1.147E3,1.3732E4,1.2635E4,1.15E2,5.23E2,6.24E2,7.2E1,1.2563E4,7.8E1,3.7E1,5.21E2,2E0,6.22E2,2E0,3.6E1,1.2527E4,7.1E1,7E0,2.6E1,1.1E1,5.9E1,4.62E2,1E0,1E0,4.1E1,5.81E2,2.1E1,1.5E1,1.1928E4,5.99E2,6.7E1,4E0,4E0,3E0,2.5E1,1E0,4E0,7E0,9E0,5E1,1.1E1,4.51E2,1.6E1,2.5E1,4.75E2,1.06E2,5E0,1.6E1,1E0,1.4E1,8.613E3,3.315E3,1.39E2,4.6E2,1E0,6.6E1,2E0,2E0,4E0,3E0,4E0,5E0,6E0,4.4E1,8E0,3E0,2.33E2,2.18E2,1E1,6E0,2.3E1,2E0,4.52E2,2.3E1,6E0,1E2,1.5E1,1E0,1.2E1,2E0,7.327E3,1.286E3,2.91E2,3.024E3,2.3E1,1.16E2,3.89E2,7.1E1,5.4E1,1.2E1,3E0,1E0,4E0,1E0,4E0,2E0,2E0,1E0,2.26E2,7E0,5E1,1.68E2,8E0,2E0,1E0,5E0,1E0,1E0,2.37E2,2.15E2,1.3E1,1E1,5E0,1E0,1.4E1,1E0,1E0,1E0,1.342E3,5.985E3,8.77E2,4.09E2,2.7E1,2.64E2,2.59E3,4.34E2,1.6E1,7E0,4E0,1.12E2,2.1E2,1.79E2,6.9E1,2E0,4E0,5E1,5E0,7E0],"tree_param":{"num_deleted":"0","num_feature":"26","num_nodes":"141","size_leaf_vector":"1"}},{"base_weights":[-3.155492E-2,-9.450398E-2,4.287634E-2,-3.2118667E-2,-9.98474E-3,4.1394696E-2,2.2450978E-1,-7.813623E-2,-1.7849248E-2,4.408368E-2,7.4837073E-3,4.2187475E-2,5.179487E-1,4.4999998E-2,-8.16547E-2,-3.0193573E-2,5.7031225E-2,1.7683443E-2,4.6928044E-2,6.861311E-2,-3.1806855E-3,1.6764703E-1,-9.677421E-3,7.3888886E-1,3.1363633E-1,-8.8432856E-2,9.090907E-2,3.2E-1,-3.2425445E-2,-2.2727296E-2,1.3968252E-1,-2.2400238E-3,4.2209048E-2,5.238282E-2,3.284395E-2,4.6666664E-1,4.0310055E-2,-1.6377976E-2,5.197366E-2,5.3749996E-1,5.1851828E-2,-5.0000013E-3,7.882353E-2,-8.000002E-3,4.0555555E-1,-3.921571E-2,-9.954131E-3,-8.888892E-3,6E-2,6E-2,-6.6666687E-3,4.4999998E-2,-3.3636387E-2,-7.708336E-2,1.1578945E-1,5.8823507E-2,4.4615382E-1,-7.416669E-2,1.48221105E-2,2.7916664E-1,3.0371876E-2,4.282084E-2,7.245482E-2,1.9999997E-1,3.0694757E-2,7.5E-2,-7.5000017E-3,8.469386E-2,-9.687503E-3,-2.3817591E-2,8.409089E-2,5.6451377E-3,2.4827585E-1,-5.0000013E-3,6.285714E-1,3.5555553E-1,-9.473687E-3,4.6874997E-1,-6.6666687E-3,-5.714288E-2,2.6666665E-1,-2.2677189E-2,-8.4558845E-2,-9.77273E-3,1.1999998E-1,4.1666666E-1,-2.1428594E-2,-6.818205E-3,4.1249996E-1,-7.5000017E-3,6.0999995E-1,-9.026551E-2,1.6249998E-1,1.19999975E-1,1.9911267E-3,6.0999995E-1,3.9999977E-2,4.5774624E-2,-8.135596E-2,3.0900128E-2,5.5533092E-2,5.7777774E-1,7.055187E-2,4.9166664E-1,5.7692286E-2,-3.8674057E-2,3.531144E-2,1.5593217E-1,-2.2500023E-2,4.4999998E-2,-2.5380734E-2,6.7499995E-2,2.439022E-2,-3.645836E-2,1.4482756E-1,-3.529414E-2,5.9999996E-1,-5.0000013E-3,7.5E-2,5.833333E-1,-7.5000017E-3,-5.0000013E-3,5.0666666E-1,7.499998E-3,-9.736844E-3,4.4999998E-2,-5.0000013E-3,-2.4937894E-4,-5.70213E-3,4.4999998E-2,-9.1851875E-3,4.4999998E-2,-7.5000017E-3,6.7499995E-2,-6.6666687E-3,-9.166669E-3,2.6666665E-2,6E-2,-5.000002E-3,7.2E-2,-7.5000017E-3,7.875E-2,-6.6666687E-3,-9.904765E-3,2.2222202E-3,6E-2,-8.333336E-3,2.4687497E-2,-5.416669E-3,8.615382E-3,-1.2113426E-3,1.7499998E-2,7.714286E-2,-9.166669E-3,4.25E-2,-7.7083358E-3,6.12137E-3,-9.818184E-3,1.1999998E-2,4.7085467E-3,8.174364E-4,3.509023E-3,8.141023E-3,7.714286E-2,-6.6666687E-3,1.356209E-2,6.1139874E-3,-6.6666687E-3,6.0999997E-2,-1.2500023E-3,6E-2,-4.887643E-3,4.25E-2,4.421923E-3,-3.6834794E-5,3.4210503E-3,3.590909E-2,4.4999998E-2,-4.615387E-3,-5.8883275E-3,-8.6076185E-4,4.25E-2,-1.8421076E-3,2.4999999E-2,-5.494508E-3,5.8333334E-2,2.9166646E-3,-9.333336E-3,2.6666665E-2,6.583333E-2,-5.0000013E-3,7.2E-2,-5.0000013E-3,-5.0000013E-3,5.4999996E-2],"categories":[],"categories_nodes":[],"categories_segments":[],"categories_sizes":[],"default_left":[0,0,0,0,0,0,0,0,0,0,0,0,0,0,0,0,0,0,0,0,0,0,0,0,0,0,0,0,0,0,0,0,0,0,0,0,0,0,0,0,0,0,0,0,0,0,0,0,0,0,0,0,0,0,0,0,0,0,0,0,0,0,0,0,0,0,0,0,0,0,0,0,0,0,0,0,0,0,0,0,0,0,0,0,0,0,0,0,0,0,0,0,0,0,0,0,0,0,0,0,0,0,0,0,0,0,0,0,0,0,0,0,0,0,0,0,0,0,0,0,0,0,0,0,0,0,0,0,0,0,0,0,0,0,0,0,0,0,0,0,0,0,0,0,0,0,0,0,0,0,0,0,0,0,0,0,0,0,0,0,0,0,0,0,0,0,0,0,0,0,0,0,0,0,0,0,0,0,0,0,0,0,0,0,0,0,0,0,0,0,0,0,0,0,0],"id":10,"left_children":[1,3,5,7,-1,9,11,13,15,17,19,21,23,-1,25,27,29,31,33,35,37,39,-1,41,43,45,47,49,51,53,55,57,59,61,63,65,67,69,71,73,75,-1,-1,-1,77,79,-1,-1,-1,-1,-1,-1,81,83,85,87,89,91,93,95,97,99,101,103,105,-1,-1,107,-1,109,111,113,115,-1,117,119,-1,121,-1,123,125,127,129,-1,131,133,135,137,139,-1,141,143,145,147,149,151,153,155,157,159,161,163,165,167,169,171,173,175,177,-1,179,-1,181,183,185,187,189,-1,-1,191,-1,-1,193,-1,-1,-1,-1,-1,-1,-1,-1,-1,-1,-1,-1,-1,-1,-1,-1,-1,-1,-1,-1,-1,-1,-1,-1,-1,-1,-1,-1,-1,-1,-1,-1,-1,-1,-1,-1,-1,-1,-1,-1,-1,-1,-1,-1,-1,-1,-1,-1,-1,-1,-1,-1,-1,-1,-1,-1,-1,-1,-1,-1,-1,-1,-1,-1,-1,-1,-1,-1,-1,-1,-1,-1],"loss_changes":[1.2918459E2,4.97641E0,3.390728E0,7.734451E-1,0E0,1.1425076E0,5.435196E0,5.551919E-1,8.354846E-1,8.711357E-1,6.012775E-1,1.1320045E0,1.5287485E0,0E0,3.3320618E-1,6.1610645E-1,8.4696907E-1,5.527408E-1,8.035641E-1,1.5246489E0,5.7297117E-1,1.4282544E0,0E0,7.401314E-1,8.284645E-1,1.426189E-1,1.0602021E0,5.813333E-1,4.6554643E-1,5.0585425E-1,1.5349567E0,7.681134E-1,1.4136095E0,1.4467239E0,1.0461061E0,1.4375001E0,7.936592E-1,4.7663334E-1,1.3809457E0,4.5946455E-1,1.2357116E0,0E0,0E0,0E0,5.68403E-1,2.94902E-1,0E0,0E0,0E0,0E0,0E0,0E0,4.277957E-1,2.07019E-1,7.9335845E-1,1.1868248E0,1.155808E0,4.718746E-1,6.8262607E-1,1.8745836E0,8.3664715E-1,7.7401257E-1,2.3017035E0,1.5073718E0,9.2786E-1,0E0,0E0,7.5186723E-1,0E0,4.4988298E-1,1.535754E0,7.319284E-1,2.9135904E0,0E0,6.142857E-1,9.2638886E-1,0E0,3.4004164E-1,0E0,2.6776314E-1,1.9666666E-1,4.400277E-1,5.7153654E-1,0E0,3.5549998E-1,7.9416656E-1,3.0773813E-1,1.1829545E0,1.25325E0,0E0,1.2535832E0,1.1383176E-1,9.104167E-1,1.2287291E0,5.376025E-1,5.672138E-1,7.993334E-1,8.1276095E-1,2.1167335E-1,9.7214246E-1,1.3069544E0,1.174603E0,1.4786873E0,8.3350015E-1,9.972115E-1,8.7700653E-1,8.6228395E-1,1.4467155E0,4.6782693E-1,0E0,3.3160084E-1,0E0,7.110045E-1,5.221211E-1,1.4538076E0,3.2282355E-1,5.2583313E-1,0E0,0E0,5.553334E-1,0E0,0E0,3.893335E-1,0E0,0E0,0E0,0E0,0E0,0E0,0E0,0E0,0E0,0E0,0E0,0E0,0E0,0E0,0E0,0E0,0E0,0E0,0E0,0E0,0E0,0E0,0E0,0E0,0E0,0E0,0E0,0E0,0E0,0E0,0E0,0E0,0E0,0E0,0E0,0E0,0E0,0E0,0E0,0E0,0E0,0E0,0E0,0E0,0E0,0E0,0E0,0E0,0E0,0E0,0E0,0E0,0E0,0E0,0E0,0E0,0E0,0E0,0E0,0E0,0E0,0E0,0E0,0E0,0E0,0E0,0E0,0E0,0E0,0E0,0E0,0E0],"parents":[2147483647,0,0,1,1,2,2,3,3,5,5,6,6,7,7,8,8,9,9,10,10,11,11,12,12,14,14,15,15,16,16,17,17,18,18,19,19,20,20,21,21,23,23,24,24,25,25,26,26,27,27,28,28,29,29,30,30,31,31,32,32,33,33,34,34,35,35,36,36,37,37,38,38,39,39,40,40,44,44,45,45,52,52,53,53,54,54,55,55,56,56,57,57,58,58,59,59,60,60,61,61,62,62,63,63,64,64,67,67,69,69,70,70,71,71,72,72,74,74,75,75,77,77,79,79,80,80,81,81,82,82,84,84,85,85,86,86,87,87,88,88,90,90,91,91,92,92,93,93,94,94,95,95,96,96,97,97,98,98,99,99,100,100,101,101,102,102,103,103,104,104,105,105,106,106,107,107,108,108,110,110,112,112,113,113,114,114,115,115,116,116,119,119,122,122],"right_children":[2,4,6,8,-1,10,12,14,16,18,20,22,24,-1,26,28,30,32,34,36,38,40,-1,42,44,46,48,50,52,54,56,58,60,62,64,66,68,70,72,74,76,-1,-1,-1,78,80,-1,-1,-1,-1,-1,-1,82,84,86,88,90,92,94,96,98,100,102,104,106,-1,-1,108,-1,110,112,114,116,-1,118,120,-1,122,-1,124,126,128,130,-1,132,134,136,138,140,-1,142,144,146,148,150,152,154,156,158,160,162,164,166,168,170,172,174,176,178,-1,180,-1,182,184,186,188,190,-1,-1,192,-1,-1,194,-1,-1,-1,-1,-1,-1,-1,-1,-1,-1,-1,-1,-1,-1,-1,-1,-1,-1,-1,-1,-1,-1,-1,-1,-1,-1,-1,-1,-1,-1,-1,-1,-1,-1,-1,-1,-1,-1,-1,-1,-1,-1,-1,-1,-1,-1,-1,-1,-1,-1,-1,-1,-1,-1,-1,-1,-1,-1,-1,-1,-1,-1,-1,-1,-1,-1,-1,-1,-1,-1,-1,-1],"split_conditions":[2.5967087E3,6.123234E-17,3.2842158E3,1.1205322E3,-7.647301E1,1.4274304E3,1.5562445E3,9.386572E1,9.249021E0,2.5740844E-1,8.1267065E-1,7.799797E-1,3.6596496E0,2.039424E1,1.0264973E3,4.0184876E-1,6.681568E-1,3.4123105E3,3.3922197E3,-9.659258E-1,7.0710677E-1,3.4182278E3,-2.5870082E0,2.6573643E-2,3.250699E-1,1.0905557E3,8.647584E-1,1.8E1,-9.659258E-1,1.1456732E3,9.404104E0,2.8782842E3,2.8359915E3,3.3245356E3,2.5608027E3,3.3118071E3,3.4391843E3,8.583187E-1,6.929854E-1,-7.818315E-1,3.3028835E3,-3.0001562E1,9.2107776E2,-4.709043E1,8.081516E-1,9.995278E2,-7.4139404E1,-9.670349E1,9.169092E1,2.2367529E1,-1.1210034E2,6.428613E0,2.1E1,2.4587288E1,-2.2252093E-1,4.655662E2,-6.838674E-2,2.8709736E-1,-1.681534E-1,3.1012359E0,1.2508737E1,6.234898E-1,2.6005226E-1,2.9515396E3,2.7555913E3,1.1406177E1,-1.4262769E1,5.2913254E-1,-1.006834E1,2.7166675E3,6.109858E-1,3.031748E3,1.2132684E-1,-3.175796E1,1.9455213E-2,1.1788798E1,-3.1743093E0,-8.660254E-1,-2.9961826E2,-7.818315E-1,1.0361421E3,7.1989816E-1,-5E-1,-8.740951E1,2E0,1.0468485E3,2.2E1,2.20754E-1,-2.2252093E-1,-7.409949E1,5.1285034E-1,1.2541929E3,2.439774E-1,2.9907012E3,-7.818315E-1,2.8895557E3,9.749279E-1,4.714083E-1,3.1228267E3,2.9875571E3,3.4015076E3,6.234898E-1,2.930194E3,2.8853086E3,2.8007708E3,8.9162785E-1,9.404104E0,8.363774E-1,3.0825452E3,4.5369143E0,2.833661E0,1.1948438E1,3.0964915E3,1.9099152E-1,3.0580184E-1,7.7702606E-1,7.3944316E0,-5.0594215E1,1.1301612E1,0E0,-7.304004E0,-2.1702791E2,3.7466187E0,6.9102264E1,-8.5734634E1,4.1057594E1,-1.1766949E2,-2.2320447E0,-7.159978E1,2.4406495E0,-8.8163414E1,5.984968E1,-1.5019766E2,7.461922E1,-6.8059425E1,-9.4842186E1,4.411958E1,2.0745386E1,-1.9609465E1,1.917002E1,-4.6515553E1,1.6402318E3,-1.3444994E2,-1.0319135E1,1.1313477E0,1.08772955E1,-1.5346069E1,1.0312338E1,-6.844651E0,5.723203E0,-1.0911537E0,4.924585E0,1.1391993E1,-1.5486037E1,1.237876E1,-9.36392E0,5.846207E0,-7.1530533E0,4.2799315E0,4.561567E0,9.268674E-1,3.089337E0,6.164648E0,9.048755E0,-2.5906372E1,7.1599894E0,5.163099E0,-2.6458008E1,1.0650366E1,3.6944344E0,9.479566E0,-5.5883865E0,1.2639575E1,3.5402367E0,1.3946202E-1,1.0184115E1,1.1186445E1,1.9494141E0,-5.5992084E0,-4.6410184E0,-4.830323E-1,1.0332886E1,-2.6156273E0,1.1824097E1,-1.9722989E0,1.4015454E1,1.2705076E0,-2.887366E0,2.0442383E0,1.3365845E1,-1.3975952E1,1.2742774E1,-4.065601E0,-1.8628834E1,1.6648373E3],"split_indices":[17,1,9,15,0,22,22,22,12,20,12,19,13,0,10,23,23,15,14,1,0,14,0,13,21,15,19,7,0,15,13,16,16,14,8,14,15,23,21,2,17,0,0,0,23,11,0,0,0,0,0,0,7,12,3,22,18,21,18,12,13,3,20,10,17,0,0,20,0,9,19,11,18,0,12,13,0,1,0,2,8,23,0,0,4,8,7,20,3,0,20,22,20,10,2,14,2,23,10,10,15,3,9,10,17,23,13,19,8,0,12,0,8,21,21,23,13,0,0,0,0,0,13,0,0,0,0,0,0,0,0,0,0,0,0,0,0,0,0,0,0,0,0,0,0,0,0,0,0,0,0,0,0,0,0,0,0,0,0,0,0,0,0,0,0,0,0,0,0,0,0,0,0,0,0,0,0,0,0,0,0,0,0,0,0,0,0,0,0,0,0,0,0,0,0],"split_type":[0,0,0,0,0,0,0,0,0,0,0,0,0,0,0,0,0,0,0,0,0,0,0,0,0,0,0,0,0,0,0,0,0,0,0,0,0,0,0,0,0,0,0,0,0,0,0,0,0,0,0,0,0,0,0,0,0,0,0,0,0,0,0,0,0,0,0,0,0,0,0,0,0,0,0,0,0,0,0,0,0,0,0,0,0,0,0,0,0,0,0,0,0,0,0,0,0,0,0,0,0,0,0,0,0,0,0,0,0,0,0,0,0,0,0,0,0,0,0,0,0,0,0,0,0,0,0,0,0,0,0,0,0,0,0,0,0,0,0,0,0,0,0,0,0,0,0,0,0,0,0,0,0,0,0,0,0,0,0,0,0,0,0,0,0,0,0,0,0,0,0,0,0,0,0,0,0,0,0,0,0,0,0,0,0,0,0,0,0,0,0,0,0,0,0],"sum_hessian":[2.757E4,1.4937E4,1.2633E4,1.179E3,1.3758E4,1.2532E4,1.01E2,2.78E2,9.01E2,1.1611E4,9.21E2,6.3E1,3.8E1,1E0,2.77E2,7.74E2,1.27E2,1.13E3,1.0481E4,1.36E2,7.85E2,3.3E1,3E1,1.7E1,2.1E1,2.67E2,1E1,4E0,7.7E2,6.5E1,6.2E1,6.24E2,5.06E2,7.553E3,2.928E3,8E0,1.28E2,6.34E2,1.51E2,7E0,2.6E1,1E0,1.6E1,4E0,1.7E1,5E1,2.17E2,8E0,2E0,2E0,2E0,1E0,7.69E2,4.7E1,1.8E1,5E1,1.2E1,1.19E2,5.05E2,2.3E1,4.83E2,5.118E3,2.435E3,3.6E1,2.892E3,5E0,3E0,9.7E1,3.1E1,5.91E2,4.3E1,1.23E2,2.8E1,1E0,6E0,8E0,1.8E1,1.5E1,2E0,4.8E1,2E0,6.34E2,1.35E2,4.3E1,4E0,5E0,1.3E1,4.3E1,7E0,3E0,9E0,1.12E2,7E0,5.4E1,4.51E2,9E0,1.4E1,4.25E2,5.8E1,2.643E3,2.475E3,8E0,2.427E3,1.1E1,2.5E1,1.8E2,2.712E3,5.8E1,3.9E1,1E0,5.9E2,3E0,4E1,9.5E1,2.8E1,1.6E1,1.2E1,1E0,5E0,5E0,3E0,1E0,1.4E1,1.1E1,3.7E1,1E0,1E0,4E2,2.34E2,1E0,1.34E2,1E0,3E0,3E0,2E0,1.1E1,2E0,2E0,4.1E1,4E0,3E0,7E0,2E0,1.04E2,8E0,2E0,5E0,3.1E1,2.3E1,6.4E1,3.87E2,3E0,6E0,1.1E1,3E0,4.7E1,3.78E2,5.4E1,4E0,1.543E3,1.1E3,1.384E3,1.091E3,6E0,2E0,3.05E2,2.122E3,2E0,9E0,2.3E1,2E0,1.77E2,3E0,2.17E3,5.42E2,3.7E1,2.1E1,1E0,3.8E1,1.96E2,3.94E2,3E0,3.7E1,5E0,9E1,5E0,2.3E1,1.4E1,2E0,1.1E1,1E0,4E0,1E0,1E0,1.3E1],"tree_param":{"num_deleted":"0","num_feature":"26","num_nodes":"195","size_leaf_vector":"1"}},{"base_weights":[-3.4919042E-2,-9.55801E-2,3.7536915E-2,-4.4970438E-2,-9.9920165E-3,3.633871E-2,1.7117114E-1,-4.795573E-2,3.0999997E-1,7.1953973E-3,3.9520934E-2,6.022725E-2,5.708333E-1,-6.7326754E-2,-1.8589767E-2,5.833333E-1,-8.000002E-3,2.4166664E-1,4.867963E-3,1.3398056E-1,3.8639825E-2,5.2E-1,3.2142833E-2,-6.6666687E-3,6.318182E-1,-8.498945E-2,-3.1489387E-2,4.154279E-3,-7.6515175E-2,7.2E-2,-5.0000013E-3,-8.333336E-3,4.8571426E-1,1.5794745E-2,-4.4748884E-2,3.2692304E-1,6.794869E-2,4.097455E-2,6.1744726E-3,-5.0000013E-3,6.7499995E-2,6E-2,1.0975586E-2,-5.0000013E-3,6.666666E-1,2.6666665E-1,-8.704886E-2,4.2499998E-1,-3.9224163E-2,2.4444443E-1,-2.4316348E-3,3.3333104E-3,-9.902915E-3,7.2E-2,-6.6666687E-3,1.121493E-2,1.5312497E-1,2.4999999E-1,-5.2803762E-2,1.2142855E-1,5.230769E-1,-8.928595E-3,2.521739E-1,5.3173266E-2,3.4389857E-2,6.7307666E-2,-1.0000024E-2,-1.1250024E-2,6E-2,7.05E-1,-5.0000013E-3,-5.0000013E-3,4.4999998E-2,-9.691879E-2,-5.5652197E-2,6E-2,-5.0000013E-3,2.4999999E-1,-4.669606E-2,-8.333336E-3,6.7499995E-2,2.6008945E-2,-6.1682265E-2,4.2499998E-1,-5.925928E-2,-1.2357438E-2,3.9497692E-2,4.4615382E-1,-4.5000024E-2,-7.5000017E-3,6E-2,-9.1269866E-2,2.2471675E-3,5.2E-1,-9.000002E-3,6.363636E-1,-6.6666687E-3,4.2499998E-1,-4.1509457E-2,7.22222E-2,7.5E-2,5.0976537E-2,2.4390242E-1,5.780472E-2,2.5733473E-2,5.833333E-1,4.635759E-2,-6.28049E-2,1.0304426E-2,-6.55738E-2,1.5499997E-1,7.3888886E-1,2.6666665E-1,-7.0270295E-3,-9.96885E-3,1.6249998E-2,-7.129632E-3,6E-2,-7.5000017E-3,1.0666665E-2,-5.7277023E-3,9.255317E-3,-2.2307716E-3,1.27777755E-2,-9.888891E-3,-5.0000013E-3,6E-2,4.4999998E-2,-9.615387E-3,-2.116938E-3,1.2903224E-2,-3.2380975E-3,6.1976025E-3,8.333332E-3,6.625E-2,-9.473687E-3,4.4999998E-2,1.7499998E-2,-9.918702E-3,1.6296295E-2,-6.666669E-3,6.7499995E-2,-5.0000013E-3,3.2E-2,7.714286E-2,6E-2,